tree
version=v3
num_class=4
num_tree_per_iteration=4
label_index=0
max_feature_idx=3
objective=multiclass num_class:4
feature_names=SepalLength SepalWidth PetalLength PetalWidth
feature_infos=[4.2999999999999998:7.9000000000000004] [2:4.4000000000000004] [1:6.9000000000000004] [0.10000000000000001:2.5]
tree_sizes=425 597 523 227 738 733 735 209 740 735 739 210 638 723 740 210 742 724 737 210 640 738 742 210 640 722 742 210 641 739 742 210 642 724 743 210 642 736 737 210 638 723 737 210 640 738 744 210 642 724 742 210 641 741 739 210 641 719 742 210 639 738 741 210 642 723 740 210 638 736 739 210 725 719 743 210 639 740 737 210 636 724 741 210 639 738 743 210 640 723 734 210 743 734 739 210 639 725 731 210 637 741 742 211 731 720 737 211 639 735 740 211 640 720 743 211 747 637 736 211 639 723 743 211 639 622 739 211 639 640 744 211 638 721 740 211 749 642 747 211 641 627 740 211 643 724 742 211 751 720 639 211 642 720 640 211 750 723 640 211 751 724 642 211 644 725 644 211 754 743 642 211 752 742 641 211 645 730 646 211 646 724 643 211 754 746 644 211 650 731 644 211 749 724 647 211 648 747 643 211 755 748 757 211 646 731 645 211 750 744 645 211 648 743 755 211 736 739 643 211 651 745 746 211 757 744 645 211 651 749 646 211 741 750 648 211 759 739 757 211 652 749 748 211 648 745 640 211 743 748 648 211 760 750 759 211 745 744 747 211 651 742 748 211 760 748 750 211 745 739 748 211 763 749 746 211 745 744 761 211 758 748 747 211 741 750 760 211 652 750 763 211 763 742 757 211 747 644 748 211 765 746 755 211 745 749 653 211 745 746 649 211 764 747 748 211 745 740 650 211 766 652 651 211 753 746 646 211 768 642 749 211 750 752 755 211 768 751 650 211 750 747 753 211 768 647 749 211 753 747 657 211 769 747 753 211 750 645 754 211 770 639 655 211 659 746 753 211 659 646 747 211 770 747 754 211 751 750 751 211 654 752 658 211 751 644 756 211 770 644 655 211 659 748 646 211 771 752 658 211

Tree=0
num_leaves=3
num_cat=0
split_feature=2 1
split_gain=72.7941 0.0683824
threshold=3.1500000000000004 3.3500000000000001
decision_type=2 2
left_child=1 -1
right_child=-2 -3
leaf_value=-0.95986228556680564 -1.1736122903444903 -0.94861228531534847
leaf_weight=8.8888889551162737 44.000000327825546 13.77777788043022
leaf_count=20 99 31
internal_value=0 1.45588
internal_weight=0 22.6667
internal_count=150 51
shrinkage=1


Tree=1
num_leaves=5
num_cat=0
split_feature=2 3 2 2
split_gain=17.6471 41.0404 0.35554 0.2625
threshold=1.8 1.6500000000000001 4.4500000000000011 5.3500000000000005
decision_type=2 2 2 2
left_child=-1 2 -2 -3
right_child=1 3 -4 -5
leaf_value=-1.1736122903444903 -0.96312841467206733 -1.1511122898415762 -0.98774272097259064 -1.1736122903444903
leaf_weight=21.333333492279053 13.777777880430223 8.8888889551162737 10.222222298383711 12.444444537162779
leaf_count=48 31 20 23 28
internal_value=0 0.352941 1.25 -0.65625
internal_weight=0 45.3333 24 21.3333
internal_count=150 102 54 48
shrinkage=1


Tree=2
num_leaves=4
num_cat=0
split_feature=3 2 2
split_gain=62.0404 1.21228 0.2625
threshold=1.6500000000000001 4.4500000000000011 5.3500000000000005
decision_type=2 2 2
left_child=1 -1 -2
right_child=2 -3 -4
leaf_value=-1.1736122903444903 -0.97111228581826281 -1.1344818546872484 -0.94861228531534847
leaf_weight=35.111111372709274 8.8888889551162737 10.222222298383711 12.444444537162779
leaf_count=79 20 23 28
internal_value=0 -0.661765 1.40625
internal_weight=0 45.3333 21.3333
internal_count=150 102 48
shrinkage=1


Tree=3
num_leaves=1
num_cat=0
split_feature=
split_gain=
threshold=
decision_type=
left_child=
right_child=
leaf_value=-34.538776391283193
leaf_weight=
leaf_count=
internal_value=
internal_weight=
internal_count=
shrinkage=1


Tree=4
num_leaves=6
num_cat=0
split_feature=2 1 2 2 3
split_gain=60.6577 0.0553973 1.65535e-05 2.70475e-06 3.97715e-07
threshold=3.1500000000000004 3.3500000000000001 4.4500000000000011 5.3500000000000005 1.6500000000000001
decision_type=2 2 2 2 2
left_child=1 -1 -2 4 -4
right_child=2 -3 3 -5 -6
leaf_value=0.12061441448292787 -0.072378619772702948 0.13043927462446933 -0.072279936277868245 -0.07220468757927466 -0.07224975958220653
leaf_weight=9.4332904815673846 11.961089849472044 14.65436279773712 8.955663084983831 12.777178525924681 8.5247671604156476
leaf_count=20 28 31 21 30 20
internal_value=0 1.26592 -0.72279 -0.722397 -0.722652
internal_weight=0 24.0877 42.2187 30.2576 17.4804
internal_count=150 51 99 71 41
shrinkage=0.1


Tree=5
num_leaves=6
num_cat=0
split_feature=3 3 2 2 2
split_gain=15.6256 33.866 0.297428 0.250863 9.37057e-05
threshold=0.45000000000000007 1.6500000000000001 4.4500000000000011 5.3500000000000005 1.4500000000000002
decision_type=2 2 2 2 2
left_child=4 2 -2 -3 -1
right_child=1 3 -4 -5 -6
leaf_value=-0.072268859810084407 0.11938981190520288 -0.04981511328245454 0.097440674488660131 -0.072199305178049886 -0.072696220590679581
leaf_weight=10.23304331302643 14.526226431131365 8.6304634809494036 10.736990958452223 11.924258232116697 10.289927840232847
leaf_count=24 31 20 23 28 24
internal_value=0 0.325124 1.10061 -0.628007 -0.724831
internal_weight=0 45.8179 25.2632 20.5547 20.523
internal_count=150 102 54 48 48
shrinkage=0.1


Tree=6
num_leaves=6
num_cat=0
split_feature=2 2 1 2 1
split_gain=51.5809 1.80807 0.0822252 0.000655761 4.18351e-05
threshold=4.7500000000000009 5.1500000000000012 2.7500000000000004 4.1500000000000012 3.3500000000000001
decision_type=2 2 2 2 2
left_child=2 -2 -1 4 -4
right_child=1 -3 3 -5 -6
leaf_value=-0.061642929650688488 0.07681481437948158 0.13159589017284845 -0.072345592552104848 -0.073190430180332069 -0.072069350905883775
leaf_weight=9.0044376850128156 9.660275727510454 16.010417103767395 9.3926975131034904 9.088567912578581 13.168329000473021
leaf_count=21 21 34 22 21 31
internal_value=0 1.10981 -0.700745 -0.724733 -0.721844
internal_weight=0 25.6707 40.654 31.6496 22.561
internal_count=150 55 95 74 53
shrinkage=0.1


Tree=7
num_leaves=1
num_cat=0
split_feature=
split_gain=
threshold=
decision_type=
left_child=
right_child=
leaf_value=0
leaf_weight=
leaf_count=
internal_value=
internal_weight=
internal_count=
shrinkage=1


Tree=8
num_leaves=6
num_cat=0
split_feature=2 0 2 2 2
split_gain=51.3867 0.0484373 0.00015768 2.87953e-05 3.93992e-05
threshold=3.1500000000000004 5.0500000000000007 5.1500000000000012 4.7500000000000009 4.2500000000000009
decision_type=2 2 2 2 2
left_child=1 -1 3 4 -2
right_child=2 -3 -4 -5 -6
leaf_value=0.11661302170895026 -0.069980595830163833 0.10776204848307627 -0.069640195219239795 -0.069906102605973755 -0.070276438126801247
leaf_weight=13.714264214038851 8.9758360087871605 11.259050488471983 13.767535805702208 8.5503426790237409 9.030738413333891
leaf_count=28 22 23 34 21 22
internal_value=0 1.12623 -0.699148 -0.700572 -0.70129
internal_weight=0 24.9733 40.3245 26.5569 18.0066
internal_count=150 51 99 65 44
shrinkage=0.1


Tree=9
num_leaves=6
num_cat=0
split_feature=3 3 2 2 2
split_gain=13.7401 28.4008 0.23245 0.22796 5.84361e-05
threshold=0.45000000000000007 1.6500000000000001 5.3500000000000005 4.4500000000000011 1.4500000000000002
decision_type=2 2 2 2 2
left_child=4 3 -3 -2 -1
right_child=1 2 -4 -5 -6
leaf_value=-0.06985613620580132 0.10647579026388101 -0.047793962592018742 -0.069720743350365766 0.087572489562983233 -0.070201600649101761
leaf_weight=9.7653560936450976 15.046642601490023 8.4174394607543963 11.359450578689573 11.074991494417189 9.8202770948410016
leaf_count=24 31 20 28 23 24
internal_value=0 0.300157 -0.603883 0.984612 -0.700294
internal_weight=0 45.8985 19.7769 26.1216 19.5856
internal_count=150 102 48 54 48
shrinkage=0.1


Tree=10
num_leaves=6
num_cat=0
split_feature=2 2 0 2 2
split_gain=43.9009 1.42917 0.0814177 0.000969387 0.000211837
threshold=4.7500000000000009 5.1500000000000012 4.9500000000000011 4.2500000000000009 3.1500000000000004
decision_type=2 2 2 2 2
left_child=2 -2 -1 4 -4
right_child=1 -3 3 -5 -6
leaf_value=-0.05932311358684951 0.069146214640497417 0.11711619114554013 -0.069536248039770376 -0.071050387773364448 -0.070180793467788757
leaf_weight=9.0158849656581861 9.9185089766979235 16.614262342453003 12.517067730426794 8.7532159090042096 8.6042891442775709
leaf_count=22 21 34 31 21 21
internal_value=0 0.99184 -0.67652 -0.701655 -0.697988
internal_weight=0 26.5328 38.8905 29.8746 21.1214
internal_count=150 55 95 73 52
shrinkage=0.1


Tree=11
num_leaves=1
num_cat=0
split_feature=
split_gain=
threshold=
decision_type=
left_child=
right_child=
leaf_value=0
leaf_weight=
leaf_count=
internal_value=
internal_weight=
internal_count=
shrinkage=1


Tree=12
num_leaves=5
num_cat=0
split_feature=2 0 2 2
split_gain=44.1399 0.0406093 0.00040899 6.28289e-05
threshold=3.1500000000000004 5.0500000000000007 5.1500000000000012 4.4500000000000011
decision_type=2 2 2 2
left_child=1 -1 3 -2
right_child=2 -3 -4 -5
leaf_value=0.10571167835419658 -0.067919534528567957 0.097674369599614397 -0.06741161352906265 -0.068237629959026325
leaf_weight=13.954391211271288 10.876626521348955 11.440256685018538 13.021938145160673 14.470178186893461
leaf_count=28 28 23 34 37
internal_value=0 1.02091 -0.678671 -0.681011
internal_weight=0 25.3946 38.3687 25.3468
internal_count=150 51 99 65
shrinkage=0.1


Tree=13
num_leaves=6
num_cat=0
split_feature=2 3 2 2 2
split_gain=12.2168 24.1666 0.219158 0.200351 0.000256541
threshold=1.8 1.6500000000000001 5.3500000000000005 4.4500000000000011 1.4500000000000002
decision_type=2 2 2 2 2
left_child=4 3 -3 -2 -1
right_child=1 2 -4 -5 -6
leaf_value=-0.067665319850720565 0.097105560329366736 -0.045836450703086312 -0.067538315376773073 0.079536957583267773 -0.068407316224206316
leaf_weight=9.2596468925476092 15.270669966936113 8.1958615779876727 10.765777945518492 11.290142595767973 9.3797042965888959
leaf_count=24 31 20 28 23 24
internal_value=0 0.280758 -0.58158 0.896377 -0.680387
internal_weight=0 45.5225 18.9616 26.5608 18.6394
internal_count=150 102 48 54 48
shrinkage=0.1


Tree=14
num_leaves=6
num_cat=0
split_feature=2 3 1 2 1
split_gain=37.7246 1.25429 0.0831797 0.000996287 0.000121401
threshold=4.7500000000000009 1.8500000000000003 2.7500000000000004 4.1500000000000012 3.2500000000000004
decision_type=2 2 2 2 2
left_child=2 -2 -1 4 -4
right_child=1 -3 3 -5 -6
leaf_value=-0.056640482872423618 0.062004276707409073 0.10657303453496188 -0.067961561396146647 -0.068946369584078945 -0.067459514673124499
leaf_weight=8.2548741400241834 10.074361920356752 16.91905814409256 7.7775939106941285 8.3637260198593122 12.651298403739927
leaf_count=21 21 34 20 21 33
internal_value=0 0.899393 -0.654899 -0.68027 -0.676507
internal_weight=0 26.9934 37.0475 28.7926 20.4289
internal_count=150 55 95 74 53
shrinkage=0.1


Tree=15
num_leaves=1
num_cat=0
split_feature=
split_gain=
threshold=
decision_type=
left_child=
right_child=
leaf_value=0
leaf_weight=
leaf_count=
internal_value=
internal_weight=
internal_count=
shrinkage=1


Tree=16
num_leaves=6
num_cat=0
split_feature=2 1 2 2 2
split_gain=38.2011 0.0442238 0.000483178 0.000354902 4.09481e-05
threshold=3.1500000000000004 3.3500000000000001 4.8500000000000005 4.4500000000000011 5.5500000000000007
decision_type=2 2 2 2 2
left_child=1 -1 3 -2 -4
right_child=2 -3 4 -5 -6
leaf_value=0.088512373983666695 -0.066041240459920325 0.097053380965016617 -0.065838935789422445 -0.066944055475573194 -0.065541443199596747
leaf_weight=9.9682469367980975 10.2982135117054 15.471449136734007 9.4814152121543902 7.5438855886459342 9.0364966094493848
leaf_count=20 28 31 26 20 25
internal_value=0 0.937067 -0.660516 -0.66423 -0.656938
internal_weight=0 25.4397 36.36 17.8421 18.5179
internal_count=150 51 99 48 51
shrinkage=0.1


Tree=17
num_leaves=6
num_cat=0
split_feature=2 2 2 0 2
split_gain=10.8119 20.8765 0.761575 0.0950613 0.000206944
threshold=1.8 4.8500000000000005 5.3500000000000005 5.7500000000000009 1.4500000000000002
decision_type=2 2 2 2 2
left_child=4 3 -3 -2 -1
right_child=1 2 -4 -5 -6
leaf_value=-0.065767617379977411 0.080698820649416192 -0.027983910101893314 -0.067406377401261555 0.093061465535328208 -0.066452880677990683
leaf_weight=8.7487269341945666 11.775539040565492 8.7377184033393878 11.158025801181791 13.183314502239226 8.8800431191921216
leaf_count=24 24 21 30 27 24
internal_value=0 0.263182 -0.50093 0.872288 -0.661128
internal_weight=0 44.8546 19.8957 24.9589 17.6288
internal_count=150 102 51 51 48
shrinkage=0.1


Tree=18
num_leaves=6
num_cat=0
split_feature=2 2 0 2 2
split_gain=32.6503 1.11924 0.086902 0.0011228 0.000302915
threshold=4.7500000000000009 5.1500000000000012 4.9500000000000011 4.2500000000000009 3.1500000000000004
decision_type=2 2 2 2 2
left_child=2 -2 -1 4 -4
right_child=1 -3 3 -5 -6
leaf_value=-0.054507032132296587 0.056345532282445793 0.098273622635938362 -0.06552998082888431 -0.067275253677768557 -0.066341893955134568
leaf_weight=8.162588953971861 10.211933732032778 16.907967865467072 11.190361768007284 8.0083608329296094 7.796819031238555
leaf_count=22 21 34 31 21 21
internal_value=0 0.824857 -0.635484 -0.662822 -0.658634
internal_weight=0 27.1199 35.1581 26.9955 18.9872
internal_count=150 55 95 73 52
shrinkage=0.1


Tree=19
num_leaves=1
num_cat=0
split_feature=
split_gain=
threshold=
decision_type=
left_child=
right_child=
leaf_value=0
leaf_weight=
leaf_count=
internal_value=
internal_weight=
internal_count=
shrinkage=1


Tree=20
num_leaves=5
num_cat=0
split_feature=2 1 2 2
split_gain=33.3451 0.0414689 0.000532564 0.000128341
threshold=3.1500000000000004 3.3500000000000001 5.1500000000000012 4.4500000000000011
decision_type=2 2 2 2
left_child=1 -1 3 -2
right_child=2 -3 -4 -5
leaf_value=0.082007601559908369 -0.06444551133038931 0.090319683007930293 -0.063887065632360809 -0.064925161867002784
leaf_weight=9.8796145021915454 9.7386697530746478 15.292896211147307 11.56214454770088 13.058678835630415
leaf_count=20 28 31 34 37
internal_value=0 0.870574 -0.644399 -0.647203
internal_weight=0 25.1725 34.3595 22.7973
internal_count=150 51 99 65
shrinkage=0.1


Tree=21
num_leaves=6
num_cat=0
split_feature=3 3 2 2 2
split_gain=9.65923 18.1817 0.188342 0.142163 0.000382046
threshold=0.45000000000000007 1.6500000000000001 5.3500000000000005 4.4500000000000011 1.4500000000000002
decision_type=2 2 2 2 2
left_child=4 3 -3 -2 -1
right_child=1 2 -4 -5 -6
leaf_value=-0.064087959622009999 0.08331632383705026 -0.043066989379222681 -0.063980001832473571 0.068522380769679925 -0.065046295288935865
leaf_weight=8.2317078709602374 15.174433499574663 7.8352708816528347 9.5616011619567853 11.35716328024864 8.4096871614456159
leaf_count=24 31 20 28 23 24
internal_value=0 0.248883 -0.545611 0.769836 -0.645723
internal_weight=0 43.9285 17.3969 26.5316 16.6414
internal_count=150 102 48 54 48
shrinkage=0.1


Tree=22
num_leaves=6
num_cat=0
split_feature=3 2 2 1 0
split_gain=28.4206 0.874185 0.0423876 0.000270357 1.86598e-05
threshold=1.6500000000000001 4.4500000000000011 5.3500000000000005 3.2500000000000004 5.1500000000000012
decision_type=2 2 2 2 2
left_child=1 3 -2 4 -1
right_child=2 -3 -4 -5 -6
leaf_value=-0.0644394989036529 0.080314384577514428 -0.028725190445176903 0.088881289451270051 -0.063918036560498895 -0.064656095754145743
leaf_weight=7.2826487421989503 9.9430619478225726 9.2540784478187543 13.77945241332054 11.227216362953184 8.7638028562068921
leaf_count=21 20 23 28 33 25
internal_value=0 -0.552832 0.852906 -0.642944 -0.645578
internal_weight=0 36.5277 23.7225 27.2737 16.0465
internal_count=150 102 48 79 46
shrinkage=0.1


Tree=23
num_leaves=1
num_cat=0
split_feature=
split_gain=
threshold=
decision_type=
left_child=
right_child=
leaf_value=0
leaf_weight=
leaf_count=
internal_value=
internal_weight=
internal_count=
shrinkage=1


Tree=24
num_leaves=5
num_cat=0
split_feature=2 1 2 2
split_gain=29.2225 0.0378668 0.000507466 0.000135494
threshold=3.1500000000000004 3.3500000000000001 5.1500000000000012 4.4500000000000011
decision_type=2 2 2 2
left_child=1 -1 3 -2
right_child=2 -3 -4 -5
leaf_value=0.076666378593665332 -0.062983821392220293 0.084689914254845247 -0.062436079478886491 -0.063491388545263636
leaf_weight=9.6957147717475909 9.1642401218414324 14.954173266887663 10.84266275167465 12.342953741550444
leaf_count=20 28 31 34 37
internal_value=0 0.81534 -0.629939 -0.632751
internal_weight=0 24.6499 32.3499 21.5072
internal_count=150 51 99 65
shrinkage=0.1


Tree=25
num_leaves=6
num_cat=0
split_feature=2 2 0 2 2
split_gain=8.58957 16.0842 0.176532 0.173288 0.000291644
threshold=1.8 4.9500000000000011 5.6500000000000012 5.5500000000000007 1.4500000000000002
decision_type=2 2 2 2 2
left_child=4 2 -2 -3 -1
right_child=1 3 -4 -5 -6
leaf_value=-0.062626126782273486 0.060430872273627936 -0.044409717375732412 0.07745336508510714 -0.065120260477856379 -0.063490198055972044
leaf_weight=7.7257249653339368 9.4527464210987109 7.8529030382633236 17.136820375919342 8.3207835257053357 7.9010247886180878
leaf_count=24 20 21 36 25 24
internal_value=0 0.235704 0.714018 -0.550646 -0.63063
internal_weight=0 42.7633 26.5896 16.1737 15.6267
internal_count=150 102 56 46 48
shrinkage=0.1


Tree=26
num_leaves=6
num_cat=0
split_feature=2 2 2 1 0
split_gain=25.0595 0.451746 0.316012 0.00026378 1.46019e-05
threshold=4.8500000000000005 4.4500000000000011 5.3500000000000005 3.2500000000000004 5.1500000000000012
decision_type=2 2 2 2 2
left_child=1 3 -2 4 -1
right_child=2 -3 -4 -5 -6
leaf_value=-0.062966955954506285 0.063160772926946371 -0.035248897125620231 0.086150774876219957 -0.062422335919450761 -0.063164533633082817
leaf_weight=6.8446164727211025 10.223360151052477 7.7489932477474204 14.401349872350691 10.504699528217314 8.2480109930038434
leaf_count=21 21 20 30 33 25
internal_value=0 -0.564032 0.766061 -0.628071 -0.630749
internal_weight=0 33.3463 24.6247 25.5973 15.0926
internal_count=150 99 51 79 46
shrinkage=0.1


Tree=27
num_leaves=1
num_cat=0
split_feature=
split_gain=
threshold=
decision_type=
left_child=
right_child=
leaf_value=0
leaf_weight=
leaf_count=
internal_value=
internal_weight=
internal_count=
shrinkage=1


Tree=28
num_leaves=5
num_cat=0
split_feature=2 1 2 2
split_gain=25.7376 0.0389598 0.000518872 0.000104635
threshold=3.1500000000000004 3.3500000000000001 5.1500000000000012 4.4500000000000011
decision_type=2 2 2 2
left_child=1 -1 3 -2
right_child=2 -3 -4 -5
leaf_value=0.071918389226379026 -0.06175702770932609 0.080174674621773606 -0.061144432250396723 -0.062216562560645741
leaf_weight=9.4380697607994097 8.6309280395507866 14.490295022726057 10.133173584938048 11.633980095386503
leaf_count=20 28 31 34 37
internal_value=0 0.769181 -0.617287 -0.620208
internal_weight=0 23.9284 30.3981 20.2649
internal_count=150 51 99 65
shrinkage=0.1


Tree=29
num_leaves=6
num_cat=0
split_feature=3 3 2 3 2
split_gain=7.71216 13.9523 0.168923 0.126228 0.000401317
threshold=0.45000000000000007 1.6500000000000001 5.3500000000000005 1.3500000000000003 1.4500000000000002
decision_type=2 2 2 2 2
left_child=4 3 -3 -2 -1
right_child=1 2 -4 -5 -6
leaf_value=-0.061328278910841284 0.074320026274515644 -0.040465679764825423 -0.061167941891112521 0.060242872456600344 -0.062374741714229687
leaf_weight=7.2276796102523786 14.092952877283098 7.4604796469211569 8.3558716177940351 11.623428702354429 7.4340871572494507
leaf_count=24 30 20 28 24 24
internal_value=0 0.22503 -0.514028 0.679574 -0.618589
internal_weight=0 41.5327 15.8164 25.7164 14.6618
internal_count=150 102 48 54 48
shrinkage=0.1


Tree=30
num_leaves=6
num_cat=0
split_feature=2 3 0 2 2
split_gain=21.9782 0.847101 0.0973568 0.00175036 0.000319212
threshold=4.7500000000000009 1.8500000000000003 4.9500000000000011 4.2500000000000009 3.1500000000000004
decision_type=2 2 2 2 2
left_child=2 -2 -1 4 -4
right_child=1 -3 3 -5 -6
leaf_value=-0.048460825301687355 0.044336158227239818 0.081364047092592345 -0.061063446030293712 -0.063349252051907778 -0.061977649534675078
leaf_weight=6.8969084620475796 10.059531927108766 16.013966262340546 9.1673830002546328 6.960026502609252 6.5470618903636923
leaf_count=22 21 34 31 21 21
internal_value=0 0.670782 -0.588645 -0.620291 -0.614443
internal_weight=0 26.0735 29.5714 22.6745 15.7144
internal_count=150 55 95 73 52
shrinkage=0.1


Tree=31
num_leaves=1
num_cat=0
split_feature=
split_gain=
threshold=
decision_type=
left_child=
right_child=
leaf_value=0
leaf_weight=
leaf_count=
internal_value=
internal_weight=
internal_count=
shrinkage=1


Tree=32
num_leaves=5
num_cat=0
split_feature=2 0 2 3
split_gain=22.8085 0.0398051 0.000507782 0.000140783
threshold=3.1500000000000004 5.0500000000000007 5.1500000000000012 1.4500000000000002
decision_type=2 2 2 2
left_child=1 -1 3 -2
right_child=2 -3 -4 -5
leaf_value=0.076885212295812189 -0.060650545208246698 0.068537405066086479 -0.060016989580619087 -0.061194589862031246
leaf_weight=12.688650816679003 9.8369626402854973 10.388834595680235 9.4503058791160566 9.2094627916812879
leaf_count=28 34 23 34 31
internal_value=0 0.731273 -0.606163 -0.609136
internal_weight=0 23.0775 28.4967 19.0464
internal_count=150 51 99 65
shrinkage=0.1


Tree=33
num_leaves=6
num_cat=0
split_feature=2 2 2 0 2
split_gain=6.88239 12.3933 0.179849 0.146191 0.000352727
threshold=1.8 4.9500000000000011 5.5500000000000007 5.6500000000000012 1.4500000000000002
decision_type=2 2 2 2 2
left_child=4 3 -3 -2 -1
right_child=1 2 -4 -5 -6
leaf_value=-0.060159766785859381 0.053355722556717701 -0.040810232827466209 -0.063000215824185052 0.069193541895085919 -0.061175343602899612
leaf_weight=6.7359285652637464 9.0282205939292925 7.2726534903049451 7.3377578556537628 16.442546337842941 6.9469138979911804
leaf_count=24 20 21 25 36 24
internal_value=0 0.214651 -0.519547 0.635798 -0.606754
internal_weight=0 40.0812 14.6104 25.4708 13.6828
internal_count=150 102 46 56 48
shrinkage=0.1


Tree=34
num_leaves=6
num_cat=0
split_feature=2 2 1 2 1
split_gain=19.3313 0.849588 0.0990518 0.00137392 0.000185769
threshold=4.7500000000000009 5.1500000000000012 2.7500000000000004 4.1500000000000012 3.2500000000000004
decision_type=2 2 2 2 2
left_child=2 -2 -1 4 -4
right_child=1 -3 3 -5 -6
leaf_value=-0.046506432372324158 0.040691067709490714 0.078062799468501087 -0.060680315764602859 -0.061978152078979748 -0.059956530154320703
leaf_weight=6.3024788498878506 10.094626486301424 15.307266712188719 5.8007143735885647 6.5174400806426993 9.1235742717981321
leaf_count=21 21 34 20 21 33
internal_value=0 0.632114 -0.575274 -0.607668 -0.602378
internal_weight=0 25.4019 27.7442 21.4417 14.9243
internal_count=150 55 95 74 53
shrinkage=0.1


Tree=35
num_leaves=1
num_cat=0
split_feature=
split_gain=
threshold=
decision_type=
left_child=
right_child=
leaf_value=0
leaf_weight=
leaf_count=
internal_value=
internal_weight=
internal_count=
shrinkage=1


Tree=36
num_leaves=5
num_cat=0
split_feature=2 1 2 3
split_gain=20.2368 0.0414795 0.000532932 0.000151904
threshold=3.1500000000000004 3.3500000000000001 5.1500000000000012 1.4500000000000002
decision_type=2 2 2 2
left_child=1 -1 3 -2
right_child=2 -3 -4 -5
leaf_value=0.064450996410290465 -0.059644618323084535 0.073306027373521085 -0.058975875639030166 -0.060227716423711657
leaf_weight=8.7672493159770983 9.2088624238967949 13.337568461894987 8.7702077329158765 8.6778352260589582
leaf_count=20 34 31 34 31
internal_value=0 0.697939 -0.596144 -0.599275
internal_weight=0 22.1048 26.6569 17.8867
internal_count=150 51 99 65
shrinkage=0.1


Tree=37
num_leaves=6
num_cat=0
split_feature=3 3 2 2 2
split_gain=6.19035 10.9215 0.155452 0.116685 0.000427522
threshold=0.45000000000000007 1.6500000000000001 5.3500000000000005 4.4500000000000011 1.4500000000000002
decision_type=2 2 2 2 2
left_child=4 3 -3 -2 -1
right_child=1 2 -4 -5 -6
leaf_value=-0.059117571485479206 0.067575297292193595 -0.03815726895521529 -0.059000095205890994 0.053630596334847271 -0.060275200833670106
leaf_weight=6.2599528431892377 13.554292738437654 7.0820881128311139 7.2328765988349915 10.767599552869795 6.50562584400177
leaf_count=24 31 20 28 23 24
internal_value=0 0.206133 -0.486885 0.614018 -0.597075
internal_weight=0 38.6369 14.315 24.3219 12.7656
internal_count=150 102 48 54 48
shrinkage=0.1


Tree=38
num_leaves=6
num_cat=0
split_feature=3 2 0 1 1
split_gain=17.2005 0.73038 0.0661831 0.000281818 2.84516e-05
threshold=1.6500000000000001 4.4500000000000011 6.5500000000000007 3.2500000000000004 2.8500000000000001
decision_type=2 2 2 2 2
left_child=1 3 -2 4 -1
right_child=2 -3 -4 -5 -6
leaf_value=-0.059864530172551 0.073561148355721445 -0.02445641448239597 0.062341967729571769 -0.05895417684650664 -0.059561649879495859
leaf_weight=5.7470102161169105 11.891651570796968 8.3694659173488599 9.4257778227329236 8.485360309481619 6.7373565137386322
leaf_count=21 26 23 22 33 25
internal_value=0 -0.49431 0.686004 -0.593988 -0.597011
internal_weight=0 29.3392 21.3174 20.9697 12.4844
internal_count=150 102 48 79 46
shrinkage=0.1


Tree=39
num_leaves=1
num_cat=0
split_feature=
split_gain=
threshold=
decision_type=
left_child=
right_child=
leaf_value=0
leaf_weight=
leaf_count=
internal_value=
internal_weight=
internal_count=
shrinkage=1


Tree=40
num_leaves=5
num_cat=0
split_feature=2 1 2 3
split_gain=18.0061 0.0409294 0.000435059 0.000143263
threshold=3.1500000000000004 3.3500000000000001 5.1500000000000012 1.4500000000000002
decision_type=2 2 2 2
left_child=1 -1 3 -2
right_child=2 -3 -4 -5
leaf_value=0.061526560830695333 -0.058712110546361676 0.070530559805808565 -0.058106297539460797 -0.059297775321166493
leaf_weight=8.3939307332038897 8.5847726166248375 12.66723921895027 8.1590209454298002 8.1342359483242017
leaf_count=20 34 31 34 31
internal_value=0 0.66942 -0.587049 -0.589971
internal_weight=0 21.0612 24.878 16.719
internal_count=150 51 99 65
shrinkage=0.1


Tree=41
num_leaves=6
num_cat=0
split_feature=2 2 2 2 2
split_gain=5.56223 9.80903 0.185569 0.129599 0.000404738
threshold=1.8 4.9500000000000011 5.5500000000000007 4.4500000000000011 1.4500000000000002
decision_type=2 2 2 2 2
left_child=4 3 -3 -2 -1
right_child=1 2 -4 -5 -6
leaf_value=-0.058207123892749346 0.064756958381869401 -0.037889247185979552 -0.061648190466210645 0.049980531051659317 -0.059375070513853594
leaf_weight=5.8118800520896894 12.970465213060381 6.719583183526991 6.4360903203487396 10.943645715713499 6.0616527646780014
leaf_count=24 31 21 25 25 24
internal_value=0 0.198416 -0.495127 0.579949 -0.588034
internal_weight=0 37.0698 13.1557 23.9141 11.8735
internal_count=150 102 46 56 48
shrinkage=0.1


Tree=42
num_leaves=6
num_cat=0
split_feature=2 2 2 1 1
split_gain=15.2986 0.398829 0.302996 0.000243553 1.98232e-05
threshold=4.8500000000000005 4.4500000000000011 5.3500000000000005 3.2500000000000004 2.8500000000000001
decision_type=2 2 2 2 2
left_child=1 3 -2 4 -1
right_child=2 -3 -4 -5 -6
leaf_value=-0.058889760306287876 0.0487586007967842 -0.03029493199725071 0.072472387085008513 -0.058027394039639801 -0.058627741786339373
leaf_weight=5.3489286005497032 9.6145513057708758 6.7787703573703757 12.257050931453703 7.8515798598527899 6.2744694501161575
leaf_count=21 21 20 30 33 25
internal_value=0 -0.51186 0.62048 -0.584577 -0.587483
internal_weight=0 26.2537 21.8716 19.475 11.6234
internal_count=150 99 51 79 46
shrinkage=0.1


Tree=43
num_leaves=1
num_cat=0
split_feature=
split_gain=
threshold=
decision_type=
left_child=
right_child=
leaf_value=0
leaf_weight=
leaf_count=
internal_value=
internal_weight=
internal_count=
shrinkage=1


Tree=44
num_leaves=5
num_cat=0
split_feature=2 1 2 2
split_gain=16.0698 0.0434907 0.000421326 0.000172304
threshold=3.1500000000000004 3.3500000000000001 5.1500000000000012 4.4500000000000011
decision_type=2 2 2 2
left_child=1 -1 3 -2
right_child=2 -3 -4 -5
leaf_value=0.058744310433790373 -0.057811409610856603 0.068267387052493647 -0.057293213101014297 -0.058484199806111095
leaf_weight=7.9963330924510982 6.542939335107806 11.980703115463255 7.5493629276752463 9.1019716709852201
leaf_count=20 28 31 34 37
internal_value=0 0.644555 -0.579068 -0.582028
internal_weight=0 19.977 23.1943 15.6449
internal_count=150 51 99 65
shrinkage=0.1


Tree=45
num_leaves=6
num_cat=0
split_feature=3 3 2 3 2
split_gain=5.01726 8.57857 0.151518 0.109542 0.000430192
threshold=0.45000000000000007 1.6500000000000001 5.3500000000000005 1.3500000000000003 1.4500000000000002
decision_type=2 2 2 2 2
left_child=4 3 -3 -2 -1
right_child=1 2 -4 -5 -6
leaf_value=-0.05739469716297653 0.062692085475728423 -0.035569418823338771 -0.057275249127194332 0.048767965776168778 -0.058643927813008583
leaf_weight=5.3850680589675886 12.046106576919557 6.6801921725273115 6.2014796882867813 10.640721589326857 5.6476784497499466
leaf_count=24 30 20 28 24 24
internal_value=0 0.191552 -0.46019 0.561613 -0.580342
internal_weight=0 35.5685 12.8817 22.6868 11.0327
internal_count=150 102 48 54 48
shrinkage=0.1


Tree=46
num_leaves=6
num_cat=0
split_feature=3 2 0 1 1
split_gain=13.5348 0.675325 0.0693206 0.000208511 1.36681e-05
threshold=1.6500000000000001 4.4500000000000011 6.5500000000000007 3.2500000000000004 2.8500000000000001
decision_type=2 2 2 2 2
left_child=1 3 -2 4 -1
right_child=2 -3 -4 -5 -6
leaf_value=-0.058018832145343181 0.068261504932489073 -0.02275553452652599 0.056263021796803175 -0.057203644138113546 -0.057793119609905755
leaf_weight=4.9682407975196892 11.126716375350954 8.0272678136825544 8.4886564016342145 7.2496946454048148 5.8323082476854324
leaf_count=21 26 23 22 33 25
internal_value=0 -0.468869 0.630691 -0.576185 -0.578969
internal_weight=0 26.0775 19.6154 18.0502 10.8005
internal_count=150 102 48 79 46
shrinkage=0.1


Tree=47
num_leaves=1
num_cat=0
split_feature=
split_gain=
threshold=
decision_type=
left_child=
right_child=
leaf_value=0
leaf_weight=
leaf_count=
internal_value=
internal_weight=
internal_count=
shrinkage=1


Tree=48
num_leaves=5
num_cat=0
split_feature=2 1 2 3
split_gain=14.3658 0.0438138 0.000340475 0.000157819
threshold=3.1500000000000004 3.3500000000000001 5.1500000000000012 1.4500000000000002
decision_type=2 2 2 2
left_child=1 -1 3 -2
right_child=2 -3 -4 -5
leaf_value=0.056397017745057655 -0.057131021362321711 0.066220185030419224 -0.056605823459169459 -0.057789123110284259
leaf_weight=7.6025720834732082 7.4207097589969653 11.273540854454039 7.0027340799570075 7.1598006635904312
leaf_count=20 34 31 34 31
internal_value=0 0.622638 -0.571789 -0.574542
internal_weight=0 18.8761 21.5832 14.5805
internal_count=150 51 99 65
shrinkage=0.1


Tree=49
num_leaves=6
num_cat=0
split_feature=2 2 3 0 2
split_gain=4.52393 7.83092 0.546985 0.0312732 0.000418437
threshold=1.8 5.0500000000000007 1.4500000000000002 6.5500000000000007 1.4500000000000002
decision_type=2 2 2 2 2
left_child=4 2 -2 -3 -1
right_child=1 3 -4 -5 -6
leaf_value=-0.056669199531132343 0.062748822628103509 -0.048380837551899564 0.031536899735032604 -0.059343806886832023 -0.05794885566910471
leaf_weight=4.9809095412492734 14.303140103816988 5.5306718796491605 9.2433321774005872 4.9139619916677475 5.2472743093967438
leaf_count=24 37 20 23 22 24
internal_value=0 0.185289 0.504964 -0.535387 -0.573257
internal_weight=0 33.9911 23.5465 10.4446 10.2282
internal_count=150 102 60 42 48
shrinkage=0.1


Tree=50
num_leaves=6
num_cat=0
split_feature=2 3 2 2 0
split_gain=12.1488 0.369382 0.31185 0.000292983 6.83538e-05
threshold=4.8500000000000005 1.3500000000000003 5.3500000000000005 3.1500000000000004 4.9500000000000011
decision_type=2 2 2 2 2
left_child=1 3 -2 4 -1
right_child=2 -3 -4 -5 -6
leaf_value=-0.056964863379211854 0.043543604824776046 -0.028872679029542422 0.068547276515930913 -0.057528201258005396 -0.056446111107183262
leaf_weight=4.2835056036710792 9.1438485383987445 6.5069387257099143 10.975429534912108 6.1017268896102896 6.2406746596097946
leaf_count=20 21 21 30 27 31
internal_value=0 -0.490716 0.571836 -0.569769 -0.566573
internal_weight=0 23.1328 20.1193 16.6259 10.5242
internal_count=150 99 51 78 51
shrinkage=0.1


Tree=51
num_leaves=1
num_cat=0
split_feature=
split_gain=
threshold=
decision_type=
left_child=
right_child=
leaf_value=0
leaf_weight=
leaf_count=
internal_value=
internal_weight=
internal_count=
shrinkage=1


Tree=52
num_leaves=5
num_cat=0
split_feature=2 1 2 3
split_gain=12.8739 0.0468883 0.000327446 0.000206224
threshold=3.1500000000000004 3.3500000000000001 5.1500000000000012 1.4500000000000002
decision_type=2 2 2 2
left_child=1 -1 3 -2
right_child=2 -3 -4 -5
leaf_value=0.054091248643548098 -0.056433111131805908 0.064553279302969377 -0.055954529245014983 -0.057211598096031296
leaf_weight=7.1981258988380459 6.8610523492097872 10.580777287483214 6.4570086747407904 6.7510664016008377
leaf_count=20 34 31 34 31
internal_value=0 0.603175 -0.56541 -0.568192
internal_weight=0 17.7789 20.0691 13.6121
internal_count=150 51 99 65
shrinkage=0.1


Tree=53
num_leaves=6
num_cat=0
split_feature=3 2 3 0 2
split_gain=4.08881 6.88414 0.539833 0.0351341 0.000421976
threshold=0.45000000000000007 5.0500000000000007 1.4500000000000002 6.5500000000000007 1.4500000000000002
decision_type=2 2 2 2 2
left_child=4 2 -2 -3 -1
right_child=1 3 -4 -5 -6
leaf_value=-0.056020416445558552 0.060861845423665656 -0.046519421326879584 0.029432345735970891 -0.058524489449783279 -0.057355778935293103
leaf_weight=4.5999718606471998 13.548610895872118 5.2598088383674604 9.1594666838645917 4.5437219887971878 4.8735441863536835
leaf_count=24 37 20 23 22 24
internal_value=0 0.179498 0.481845 -0.520835 -0.567074
internal_weight=0 32.5116 22.7081 9.80353 9.47352
internal_count=150 102 60 42 48
shrinkage=0.1


Tree=54
num_leaves=6
num_cat=0
split_feature=2 2 0 2 2
split_gain=10.7031 0.743959 0.130544 0.00179422 0.000146769
threshold=4.7500000000000009 5.1500000000000012 4.9500000000000011 4.2500000000000009 3.1500000000000004
decision_type=2 2 2 2 2
left_child=2 -2 -1 4 -4
right_child=1 -3 3 -5 -6
leaf_value=-0.037768262764563534 0.028795202499329643 0.066580409613537617 -0.055799974758259069 -0.058433326127592694 -0.05657204169567781
leaf_weight=4.6603358238935497 9.3301041424274462 11.802355498075483 5.7448161095380765 5.1020632982254019 4.3090591430664062
leaf_count=22 21 34 31 21 21
internal_value=0 0.49898 -0.524052 -0.56906 -0.561309
internal_weight=0 21.1325 19.8163 15.1559 10.0539
internal_count=150 55 95 73 52
shrinkage=0.1


Tree=55
num_leaves=1
num_cat=0
split_feature=
split_gain=
threshold=
decision_type=
left_child=
right_child=
leaf_value=0
leaf_weight=
leaf_count=
internal_value=
internal_weight=
internal_count=
shrinkage=1


Tree=56
num_leaves=5
num_cat=0
split_feature=2 0 2 3
split_gain=11.5815 0.0474085 0.000327669 0.000253143
threshold=3.1500000000000004 5.0500000000000007 5.1500000000000012 1.4500000000000002
decision_type=2 2 2 2
left_child=1 -1 3 -2
right_child=2 -3 -4 -5
leaf_value=0.063444104388902828 -0.055809901886298252 0.052746303416327037 -0.055357603429876751 -0.056702377332111024
leaf_weight=9.1964098811149615 6.3346803635358828 7.5380915999412528 5.932196006178855 6.3780427128076553
leaf_count=28 34 23 34 31
internal_value=0 0.586253 -0.559713 -0.562577
internal_weight=0 16.7345 18.6449 12.7127
internal_count=150 51 99 65
shrinkage=0.1


Tree=57
num_leaves=6
num_cat=0
split_feature=2 3 2 2 2
split_gain=3.68836 6.13773 0.140065 0.0954069 0.0004257
threshold=1.8 1.6500000000000001 5.3500000000000005 4.4500000000000011 1.4500000000000002
decision_type=2 2 2 2 2
left_child=4 3 -3 -2 -1
right_child=1 2 -4 -5 -6
leaf_value=-0.055433317641715468 0.056987646313138268 -0.032585972244737187 -0.055297888397318952 0.043155286019267845 -0.056828468210073972
leaf_weight=4.2385903149843198 10.440529108047491 6.180150702595709 4.8432713598012924 9.545189291238783 4.5186149179935455
leaf_count=24 31 20 28 23 24
internal_value=0 0.1734 -0.425647 0.503813 -0.561532
internal_weight=0 31.0091 11.0234 19.9857 8.75721
internal_count=150 102 48 54 48
shrinkage=0.1


Tree=58
num_leaves=6
num_cat=0
split_feature=3 2 0 1 3
split_gain=9.66038 0.594512 0.0823498 0.000143694 4.00318e-06
threshold=1.6500000000000001 4.4500000000000011 6.5500000000000007 3.2500000000000004 1.0500000000000003
decision_type=2 2 2 2 2
left_child=1 3 -2 4 -1
right_child=2 -3 -4 -5 -6
leaf_value=-0.055954723049179061 0.062855638339691697 -0.020789498132613014 0.048711832833134995 -0.055242017966405599 -0.055818354807884801
leaf_weight=4.562424764037134 9.9300871193408984 7.4478595703840247 7.0313734412193289 5.656647026538848 4.0756984278559685
leaf_count=24 26 23 22 33 22
internal_value=0 -0.43698 0.569923 -0.556338 -0.558904
internal_weight=0 21.7426 16.9615 14.2948 8.63812
internal_count=150 102 48 79 46
shrinkage=0.1


Tree=59
num_leaves=1
num_cat=0
split_feature=
split_gain=
threshold=
decision_type=
left_child=
right_child=
leaf_value=0
leaf_weight=
leaf_count=
internal_value=
internal_weight=
internal_count=
shrinkage=1


Tree=60
num_leaves=5
num_cat=0
split_feature=2 1 2 3
split_gain=10.4037 0.0526679 0.000260455 0.000222425
threshold=3.1500000000000004 3.3500000000000001 5.1500000000000012 1.4500000000000002
decision_type=2 2 2 2
left_child=1 -1 3 -2
right_child=2 -3 -4 -5
leaf_value=0.050051313344082027 -0.05527042517954938 0.061839103805675692 -0.054874062293681719 -0.056138422939931432
leaf_weight=6.4109149575233451 5.8582860380411166 9.2727749943733198 5.487432435154914 5.9512479603290558
leaf_count=20 34 31 34 31
internal_value=0 0.570207 -0.554433 -0.557078
internal_weight=0 15.6837 17.297 11.8095
internal_count=150 51 99 65
shrinkage=0.1


Tree=61
num_leaves=6
num_cat=0
split_feature=3 2 3 0 2
split_gain=3.33795 5.61947 0.468534 0.0373228 0.000417434
threshold=0.45000000000000007 5.0500000000000007 1.4500000000000002 6.5500000000000007 1.4500000000000002
decision_type=2 2 2 2 2
left_child=4 2 -2 -3 -1
right_child=1 3 -4 -5 -6
leaf_value=-0.054899069295010462 0.057827480075642292 -0.04461903983409736 0.027431525305523747 -0.057767436576300436 -0.056336683213188146
leaf_weight=3.8967600464820844 12.085534214973455 4.7768605351448041 8.737503230571745 3.9391636699438095 4.1932007372379303
leaf_count=24 37 20 23 22 24
internal_value=0 0.168545 0.450731 -0.505614 -0.556442
internal_weight=0 29.5391 20.823 8.71602 8.08996
internal_count=150 102 60 42 48
shrinkage=0.1


Tree=62
num_leaves=6
num_cat=0
split_feature=2 3 2 1 2
split_gain=8.61277 0.345062 0.323621 0.000161464 2.02139e-05
threshold=4.8500000000000005 1.3500000000000003 5.3500000000000005 3.2500000000000004 3.8500000000000001
decision_type=2 2 2 2 2
left_child=1 3 -2 4 -1
right_child=2 -3 -4 -5 -6
leaf_value=-0.05531422518569859 0.036965126504746502 -0.026050015940434459 0.064163995012450667 -0.054743232568579603 -0.055635368468055349
leaf_weight=4.3117766603827494 8.4499335587024706 5.8962680399417868 9.0702852010726911 5.2118828445672989 3.5934242606163025
leaf_count=25 21 21 30 33 20
internal_value=0 -0.461432 0.510461 -0.551753 -0.554602
internal_weight=0 19.0134 17.5202 13.1171 7.9052
internal_count=150 99 51 78 45
shrinkage=0.1


Tree=63
num_leaves=1
num_cat=0
split_feature=
split_gain=
threshold=
decision_type=
left_child=
right_child=
leaf_value=0
leaf_weight=
leaf_count=
internal_value=
internal_weight=
internal_count=
shrinkage=1


Tree=64
num_leaves=5
num_cat=0
split_feature=2 1 2 3
split_gain=9.36283 0.0538572 0.000245517 0.000246564
threshold=3.1500000000000004 3.3500000000000001 5.1500000000000012 1.4500000000000002
decision_type=2 2 2 2
left_child=1 -1 3 -2
right_child=2 -3 -4 -5
leaf_value=0.048328501368991535 -0.054763507523554238 0.060637337392464498 -0.054403380689054787 -0.055710514897020613
leaf_weight=6.0493753850460079 5.3931604474782961 8.6201674044132215 5.0383974462747565 5.6082498580217361
leaf_count=20 34 31 34 31
internal_value=0 0.555615 -0.549815 -0.552463
internal_weight=0 14.6695 16.0398 11.0014
internal_count=150 51 99 65
shrinkage=0.1


Tree=65
num_leaves=6
num_cat=0
split_feature=2 2 3 0 2
split_gain=3.03047 4.95068 0.469565 0.0414069 0.000428799
threshold=1.8 5.0500000000000007 1.4500000000000002 6.5500000000000007 1.4500000000000002
decision_type=2 2 2 2 2
left_child=4 2 -2 -3 -1
right_child=1 3 -4 -5 -6
leaf_value=-0.054434628262612909 0.056561758868377943 -0.042800074304368926 0.025636831905664299 -0.057123175331571609 -0.055950821768441406
leaf_weight=3.5863764286041251 11.360280901193624 4.547173932194708 8.647411644458769 3.6292982995510101 3.8868310302495956
leaf_count=24 37 20 23 22 24
internal_value=0 0.164033 0.431959 -0.491577 -0.552232
internal_weight=0 28.1842 20.0077 8.17647 7.47321
internal_count=150 102 60 42 48
shrinkage=0.1


Tree=66
num_leaves=6
num_cat=0
split_feature=3 2 0 1 0
split_gain=7.68445 0.562376 0.0871046 9.07951e-05 1.21645e-06
threshold=1.6500000000000001 4.4500000000000011 6.5500000000000007 3.2500000000000004 5.0500000000000007
decision_type=2 2 2 2 2
left_child=1 3 -2 4 -1
right_child=2 -3 -4 -5 -6
leaf_value=-0.054875807331189845 0.059687051590333544 -0.019214334785724534 0.044282172964154584 -0.054269909169794323 -0.054793879387290682
leaf_weight=3.2366044819355029 9.123649060726164 7.1262673735618582 6.1410869359970084 4.7742183730006218 4.118298351764679
leaf_count=20 26 23 22 33 26
internal_value=0 -0.4151 0.534896 -0.546095 -0.548299
internal_weight=0 19.2554 15.2647 12.1291 7.3549
internal_count=150 102 48 79 46
shrinkage=0.1


Tree=67
num_leaves=1
num_cat=0
split_feature=
split_gain=
threshold=
decision_type=
left_child=
right_child=
leaf_value=0
leaf_weight=
leaf_count=
internal_value=
internal_weight=
internal_count=
shrinkage=1


Tree=68
num_leaves=5
num_cat=0
split_feature=2 1 2 3
split_gain=8.43347 0.0576525 0.000183709 0.000227746
threshold=3.1500000000000004 3.3500000000000001 5.1500000000000012 1.4500000000000002
decision_type=2 2 2 2
left_child=1 -1 3 -2
right_child=2 -3 -4 -5
leaf_value=0.046509479084078549 -0.054306123339789694 0.05967442400541443 -0.054034515274727135 -0.055251600039628868
leaf_weight=5.688652932643893 4.9578712433576566 8.0107125490903837 4.6672129034996024 5.240785539150238
leaf_count=20 34 31 34 31
internal_value=0 0.542077 -0.545542 -0.54792
internal_weight=0 13.6994 14.8659 10.1987
internal_count=150 51 99 65
shrinkage=0.1


Tree=69
num_leaves=6
num_cat=0
split_feature=3 2 3 0 2
split_gain=2.7449 4.45481 0.443261 0.0442908 0.000383241
threshold=0.45000000000000007 5.0500000000000007 1.4500000000000002 6.5500000000000007 1.4500000000000002
decision_type=2 2 2 2 2
left_child=4 2 -2 -3 -1
right_child=1 3 -4 -5 -6
leaf_value=-0.054017784798671434 0.05533703932576553 -0.041537415476941168 0.024722333317900282 -0.05681069161495831 -0.05551077081815832
leaf_weight=3.2980057299137107 10.674319446086889 4.3229234963655463 8.4915630817413312 3.3856991976499557 3.5918658077716827
leaf_count=24 37 20 23 22 24
internal_value=0 0.159523 0.41773 -0.482456 -0.547961
internal_weight=0 26.8745 19.1659 7.70862 6.88987
internal_count=150 102 60 42 48
shrinkage=0.1


Tree=70
num_leaves=6
num_cat=0
split_feature=2 2 3 1 2
split_gain=6.84029 0.33651 0.335343 0.000114164 1.22719e-05
threshold=4.8500000000000005 5.3500000000000005 1.3500000000000003 3.2500000000000004 3.8500000000000001
decision_type=2 2 2 2 2
left_child=2 -2 3 4 -1
right_child=1 -3 -4 -5 -6
leaf_value=-0.054379685570661418 0.032953938835000827 0.06203907118009027 -0.024213098808494111 -0.053846494732316133 -0.054650777182617551
leaf_weight=3.6749289482831973 7.9854506552219373 7.926459789276123 5.5900388807058325 4.368611253798008 3.0605478137731552
leaf_count=25 21 30 21 33 20
internal_value=0 0.474426 -0.441886 -0.542446 -0.545029
internal_weight=0 15.9119 16.6941 11.1041 6.73548
internal_count=150 51 99 78 45
shrinkage=0.1


Tree=71
num_leaves=1
num_cat=0
split_feature=
split_gain=
threshold=
decision_type=
left_child=
right_child=
leaf_value=0
leaf_weight=
leaf_count=
internal_value=
internal_weight=
internal_count=
shrinkage=1


Tree=72
num_leaves=6
num_cat=0
split_feature=2 1 1 2 0
split_gain=7.6272 0.2266 0.00863371 0.000286514 5.10961e-05
threshold=1.8 3.1500000000000008 2.6500000000000008 1.4500000000000002 6.3500000000000005
decision_type=2 2 2 2 2
left_child=3 2 -2 -1 -4
right_child=1 -3 4 -5 -6
leaf_value=0.058007554490027563 -0.060022606934754079 -0.025793717960438237 -0.054389908697279714 0.059004279346325232 -0.05388904658410755
leaf_weight=5.6924779266119021 3.6237933114171019 3.153395563364028 4.5326504781842214 5.8455529510974884 3.6990238353610039
leaf_count=24 23 20 31 24 28
internal_value=0 -0.496183 -0.559553 0.585125 -0.541648
internal_weight=0 15.0089 11.8555 11.538 8.23167
internal_count=150 102 82 48 59
shrinkage=0.1


Tree=73
num_leaves=6
num_cat=0
split_feature=2 3 0 2 2
split_gain=2.50144 4.03725 0.132766 0.0871093 0.000411743
threshold=1.8 1.6500000000000001 6.5500000000000007 4.4500000000000011 1.4500000000000002
decision_type=2 2 2 2 2
left_child=4 3 -3 -2 -1
right_child=1 2 -4 -5 -6
leaf_value=-0.053643566784237373 0.052271458642876439 -0.046790113588379534 -0.021008945901754398 0.037781016016970842 -0.055254290809125244
leaf_weight=3.0308777466416386 8.0719219744205528 6.041714705526827 2.984037771821022 8.5354103446006757 3.331426315009594
leaf_count=24 31 26 22 23 24
internal_value=0 0.155667 -0.382665 0.44824 -0.54487
internal_weight=0 25.6331 9.02575 16.6073 6.3623
internal_count=150 102 48 54 48
shrinkage=0.1


Tree=74
num_leaves=6
num_cat=0
split_feature=3 2 0 1 1
split_gain=6.25024 0.498929 0.100909 6.6661e-05 2.09502e-06
threshold=1.6500000000000001 4.4500000000000011 6.5500000000000007 3.2500000000000004 2.9500000000000006
decision_type=2 2 2 2 2
left_child=1 3 -2 4 -1
right_child=2 -3 -4 -5 -6
leaf_value=-0.053937549867707504 0.057597212197702176 -0.018886229061104227 0.040008026336589259 -0.053466158648874322 -0.054054041124842994
leaf_weight=3.4889784082770401 8.4076261073350889 6.8229888081550589 5.3289560675621024 3.9930056631565094 2.7691604793071747
leaf_count=26 26 23 22 33 20
internal_value=0 -0.398394 0.507737 -0.537854 -0.539891
internal_weight=0 17.0741 13.7366 10.2511 6.25814
internal_count=150 102 48 79 46
shrinkage=0.1


Tree=75
num_leaves=1
num_cat=0
split_feature=
split_gain=
threshold=
decision_type=
left_child=
right_child=
leaf_value=0
leaf_weight=
leaf_count=
internal_value=
internal_weight=
internal_count=
shrinkage=1


Tree=76
num_leaves=5
num_cat=0
split_feature=3 1 3 2
split_gain=6.91632 0.126673 0.00767577 0.000245221
threshold=1.0500000000000003 3.2500000000000004 1.3500000000000003 5.1500000000000012
decision_type=2 2 2 2
left_child=1 -1 -2 -4
right_child=2 -3 3 -5
leaf_value=0.037714518101996712 -0.059806277230620764 0.058602575609465052 -0.054397326824175675 -0.053367318422541991
leaf_weight=4.7344192415475863 2.948854722082614 7.5064283162355423 5.5123178139328939 3.9804988652467728
leaf_count=24 21 33 38 34
internal_value=0 0.505237 -0.553498 -0.539654
internal_weight=0 12.2408 12.4417 9.49282
internal_count=150 57 93 72
shrinkage=0.1


Tree=77
num_leaves=6
num_cat=0
split_feature=3 2 3 0 2
split_gain=2.27109 3.71116 0.374557 0.0485037 0.000476899
threshold=0.45000000000000007 5.0500000000000007 1.4500000000000002 6.5500000000000007 1.4500000000000002
decision_type=2 2 2 2 2
left_child=4 2 -2 -3 -1
right_child=1 3 -4 -5 -6
leaf_value=-0.053285064111576214 0.053189141074586069 -0.039547698610276599 0.023851667500164469 -0.056431370218143699 -0.055091843159409508
leaf_weight=2.7693119049072292 9.3955377191305214 3.9329155012965193 8.1067179143428785 2.9990432783961296 3.0920005887746811
leaf_count=24 37 20 23 22 24
internal_value=0 0.15074 0.396006 -0.468523 -0.542382
internal_weight=0 24.4342 17.5023 6.93196 5.86131
internal_count=150 102 60 42 48
shrinkage=0.1


Tree=78
num_leaves=6
num_cat=0
split_feature=2 2 1 2 3
split_gain=5.53255 0.355923 0.327385 0.330117 0.0256742
threshold=4.8500000000000005 5.3500000000000005 3.0500000000000003 4.1500000000000012 0.25000000000000006
decision_type=2 2 2 2 2
left_child=2 -2 3 -1 -4
right_child=1 -3 4 -5 -6
leaf_value=-0.053591305070958134 0.029397534883755912 0.060783479133731638 -0.053320149767178575 -0.012829109563282605 -0.065966454823484608
leaf_weight=3.3518577069044131 7.4897889196872693 6.9807150363922119 3.256288915872573 4.8784770742058754 3.1663612648844719
leaf_count=27 21 30 28 23 21
internal_value=0 0.445384 -0.426341 -0.294298 -0.595548
internal_weight=0 14.4705 14.653 8.23033 6.42265
internal_count=150 51 99 50 49
shrinkage=0.1


Tree=79
num_leaves=1
num_cat=0
split_feature=
split_gain=
threshold=
decision_type=
left_child=
right_child=
leaf_value=0
leaf_weight=
leaf_count=
internal_value=
internal_weight=
internal_count=
shrinkage=1


Tree=80
num_leaves=5
num_cat=0
split_feature=2 1 2 3
split_gain=6.2836 0.0582083 0.000133946 0.000202413
threshold=3.1500000000000004 3.3500000000000001 5.1500000000000012 1.4500000000000002
decision_type=2 2 2 2
left_child=1 -1 3 -2
right_child=2 -3 -4 -5
leaf_value=0.042721274446095088 -0.05325477165506734 0.05739808758889943 -0.053050947583398837 -0.054246862335321028
leaf_weight=4.699933126568796 3.8917830213904363 6.3574137091636658 3.641935668885707 4.3610257431864738
leaf_count=20 34 31 34 31
internal_value=0 0.511597 -0.535561 -0.53779
internal_weight=0 11.0573 11.8947 8.25281
internal_count=150 51 99 65
shrinkage=0.1


Tree=81
num_leaves=6
num_cat=0
split_feature=2 2 3 0 2
split_gain=2.05574 3.2567 0.373159 0.0525121 0.000370164
threshold=1.8 5.0500000000000007 1.4500000000000002 6.5500000000000007 1.4500000000000002
decision_type=2 2 2 2 2
left_child=4 2 -2 -3 -1
right_child=1 3 -4 -5 -6
leaf_value=-0.052990085685914949 0.051932709711004513 -0.037745824468395459 0.022164561554522705 -0.055922046527179359 -0.054650204924837902
leaf_weight=2.5462210103869465 8.8746793866157585 3.7562066242098799 8.0134435296058637 2.7554676383733749 2.8425664454698563
leaf_count=24 37 20 23 22 24
internal_value=0 0.146424 0.378077 -0.454372 -0.538658
internal_weight=0 23.3998 16.8881 6.51167 5.38879
internal_count=150 102 60 42 48
shrinkage=0.1


Tree=82
num_leaves=6
num_cat=0
split_feature=3 3 0 1 2
split_gain=5.00074 0.474626 0.104352 7.88219e-05 1.2862e-05
threshold=1.6500000000000001 1.3500000000000003 6.5500000000000007 3.2500000000000004 3.8500000000000001
decision_type=2 2 2 2 2
left_child=1 3 -2 4 -1
right_child=2 -3 -4 -5 -6
leaf_value=-0.05328510008432235 0.055028415532961998 -0.017482317377442349 0.036088632851718559 -0.052807034968909532 -0.053597406405302063
leaf_weight=2.8744889646768588 7.6978510767221433 6.5476002693176261 4.6762108653783798 3.3167356625199318 2.4364643394947052
leaf_count=25 26 24 22 33 20
internal_value=0 -0.377831 0.47871 -0.531895 -0.534284
internal_weight=0 15.1753 12.3741 8.62769 5.31095
internal_count=150 102 48 78 45
shrinkage=0.1


Tree=83
num_leaves=1
num_cat=0
split_feature=
split_gain=
threshold=
decision_type=
left_child=
right_child=
leaf_value=0
leaf_weight=
leaf_count=
internal_value=
internal_weight=
internal_count=
shrinkage=1


Tree=84
num_leaves=5
num_cat=0
split_feature=3 1 3 2
split_gain=5.72597 0.114674 0.00699438 0.000186147
threshold=1.0500000000000003 3.2500000000000004 1.3500000000000003 5.1500000000000012
decision_type=2 2 2 2
left_child=1 -1 -2 -4
right_child=2 -3 3 -5
leaf_value=0.035922240145402087 -0.059393948014636759 0.05725796246458157 -0.053784129394345903 -0.052815797561967186
leaf_weight=4.1442090496420878 2.5370152518153182 6.4242340326309204 4.8201462030410749 3.3754110932350159
leaf_count=24 21 33 38 34
internal_value=0 0.488916 -0.548057 -0.533853
internal_weight=0 10.5684 10.7326 8.19556
internal_count=150 57 93 72
shrinkage=0.1


Tree=85
num_leaves=6
num_cat=0
split_feature=3 2 1 0 2
split_gain=1.88684 2.95654 0.39869 0.0553061 0.000416458
threshold=0.45000000000000007 5.0500000000000007 2.8500000000000001 6.5500000000000007 1.4500000000000002
decision_type=2 2 2 2 2
left_child=4 2 -2 -3 -1
right_child=1 3 -4 -5 -6
leaf_value=-0.052717373930934397 0.022392261919083969 -0.036519496846859949 0.053924509237842491 -0.055724561269302912 -0.054549466194326872
leaf_weight=2.3358316570520428 8.7377770096063667 3.5859507247805587 7.4105965644121161 2.5771142542362213 2.646443784236908
leaf_count=24 33 20 27 22 24
internal_value=0 0.14374 0.368626 -0.445502 -0.536905
internal_weight=0 22.3114 16.1484 6.16306 4.98228
internal_count=150 102 60 42 48
shrinkage=0.1


Tree=86
num_leaves=6
num_cat=0
split_feature=3 2 0 1 1
split_gain=4.4557 0.462933 0.105639 4.59943e-05 2.66905e-06
threshold=1.6500000000000001 4.4500000000000011 6.5500000000000007 3.2500000000000004 2.9500000000000006
decision_type=2 2 2 2 2
left_child=1 3 -2 4 -1
right_child=2 -3 -4 -5 -6
leaf_value=-0.052962016233169866 0.053707063861889698 -0.016673886829051861 0.034088609009353871 -0.052532483053834622 -0.053110229987072814
leaf_weight=2.7245854213833827 7.3571183979511243 6.3853754550218582 4.3779737800359726 3.0236329436302185 2.1929395869374275
leaf_count=26 26 23 22 33 20
internal_value=0 -0.367203 0.463881 -0.528394 -0.530281
internal_weight=0 14.3265 11.7351 7.94116 4.91753
internal_count=150 102 48 79 46
shrinkage=0.1


Tree=87
num_leaves=1
num_cat=0
split_feature=
split_gain=
threshold=
decision_type=
left_child=
right_child=
leaf_value=0
leaf_weight=
leaf_count=
internal_value=
internal_weight=
internal_count=
shrinkage=1


Tree=88
num_leaves=5
num_cat=0
split_feature=2 1 2 3
split_gain=5.18414 0.0598398 8.05821e-05 0.000121927
threshold=3.1500000000000004 3.3500000000000001 5.1500000000000012 1.4500000000000002
decision_type=2 2 2 2
left_child=1 -1 3 -2
right_child=2 -3 -4 -5
leaf_value=0.040260882425758343 -0.05277664777396697 0.056219523585138147 -0.052605617962740298 -0.053604559292041658
leaf_weight=4.1531876921653765 3.366303086280821 5.4106336385011673 3.1305616348981857 3.7720518782734871
leaf_count=20 34 31 34 31
internal_value=0 0.492893 -0.530286 -0.532141
internal_weight=0 9.56382 10.2689 7.13835
internal_count=150 51 99 65
shrinkage=0.1


Tree=89
num_leaves=6
num_cat=0
split_feature=2 2 1 0 2
split_gain=1.70947 2.66438 0.390363 0.0580339 0.000334781
threshold=1.8 5.0500000000000007 2.8500000000000001 6.5500000000000007 1.4500000000000002
decision_type=2 2 2 2 2
left_child=4 2 -2 -3 -1
right_child=1 3 -4 -5 -6
leaf_value=-0.052476681049477829 0.021062202741188626 -0.035302462759061612 0.052853311462710266 -0.055546472506810565 -0.054190281357771125
leaf_weight=2.1454755812883404 8.4851984232664126 3.42835809290409 7.0894711762666693 2.4126145988702774 2.4329561069607735
leaf_count=24 33 20 27 22 24
internal_value=0 0.139327 0.355333 -0.436643 -0.533873
internal_weight=0 21.4156 15.5747 5.84097 4.57843
internal_count=150 102 60 42 48
shrinkage=0.1


Tree=90
num_leaves=6
num_cat=0
split_feature=2 2 1 2 3
split_gain=3.99384 0.364299 0.360993 0.31749 0.0296798
threshold=4.8500000000000005 5.3500000000000005 3.0500000000000003 4.1500000000000012 0.25000000000000006
decision_type=2 2 2 2 2
left_child=2 -2 3 -1 -4
right_child=1 -3 4 -5 -6
leaf_value=-0.052745167426647394 0.024848281197880299 0.059084649047436204 -0.052485772400071518 -0.0089252394274037996 -0.0677222159664852
leaf_weight=2.6461994647979754 6.8491102904081327 5.6900790333747864 2.5067473202943802 4.4071978405117989 2.609215572476387
leaf_count=27 21 30 28 23 21
internal_value=0 0.403842 -0.400333 -0.25365 -0.602566
internal_weight=0 12.5392 12.1694 7.0534 5.11596
internal_count=150 51 99 50 49
shrinkage=0.1


Tree=91
num_leaves=1
num_cat=0
split_feature=
split_gain=
threshold=
decision_type=
left_child=
right_child=
leaf_value=0
leaf_weight=
leaf_count=
internal_value=
internal_weight=
internal_count=
shrinkage=1


Tree=92
num_leaves=6
num_cat=0
split_feature=3 1 1 2 0
split_gain=4.75281 0.19928 0.0064205 0.000238327 2.23423e-05
threshold=0.45000000000000007 3.1500000000000008 2.6500000000000008 1.4500000000000002 6.3500000000000005
decision_type=2 2 2 2 2
left_child=3 2 -2 -1 -4
right_child=1 -3 4 -5 -6
leaf_value=0.05480040464201328 -0.058653613662217469 -0.021346434010221349 -0.052924275431921075 0.05590806880196876 -0.052522395862732434
leaf_weight=3.8022813349962261 2.7385721355676633 2.2836362421512595 3.1218775883316994 3.9713091850280762 2.4841298162937164
leaf_count=24 23 20 31 24 28
internal_value=0 -0.475216 -0.546849 0.553663 -0.527462
internal_weight=0 10.6282 8.34458 7.77359 5.60601
internal_count=150 102 82 48 59
shrinkage=0.1


Tree=93
num_leaves=6
num_cat=0
split_feature=3 3 0 2 2
split_gain=1.56877 2.46047 0.213356 0.0862577 0.00036104
threshold=0.45000000000000007 1.6500000000000001 6.5500000000000007 4.4500000000000011 1.4500000000000002
decision_type=2 2 2 2 2
left_child=4 3 -3 -2 -1
right_child=1 2 -4 -5 -6
leaf_value=-0.052254849855168331 0.0481010258117665 -0.044250006076345147 -0.006557008754077949 0.031905172309396913 -0.054106566296583253
leaf_weight=1.9674298763275173 5.9681676328182238 5.1336317434906951 2.1226161047816277 7.3238663673400879 2.2653210312128067
leaf_count=24 31 26 22 23 24
internal_value=0 0.1361 -0.33224 0.391772 -0.532459
internal_weight=0 20.5483 7.25625 13.292 4.23275
internal_count=150 102 48 54 48
shrinkage=0.1


Tree=94
num_leaves=6
num_cat=0
split_feature=3 3 0 1 2
split_gain=3.68946 0.425835 0.128679 6.85548e-05 1.4308e-05
threshold=1.6500000000000001 1.3500000000000003 6.5500000000000007 3.2500000000000004 3.8500000000000001
decision_type=2 2 2 2 2
left_child=1 3 -2 4 -1
right_child=2 -3 -4 -5 -6
leaf_value=-0.052536936903543809 0.052646989343219687 -0.015968941265720526 0.029671997469991974 -0.05204786393265573 -0.052903496006379697
leaf_weight=2.2842416837811488 6.834840849041937 6.0585624873638153 3.7893356084823608 2.4899519234895706 1.9947533458471296
leaf_count=25 26 24 22 33 20
internal_value=0 -0.352276 0.444525 -0.524651 -0.527078
internal_weight=0 12.8275 10.6242 6.76895 4.279
internal_count=150 102 48 78 45
shrinkage=0.1


Tree=95
num_leaves=1
num_cat=0
split_feature=
split_gain=
threshold=
decision_type=
left_child=
right_child=
leaf_value=0
leaf_weight=
leaf_count=
internal_value=
internal_weight=
internal_count=
shrinkage=1


Tree=96
num_leaves=5
num_cat=0
split_feature=3 1 3 3
split_gain=4.3579 0.104901 0.00603371 0.000102891
threshold=1.0500000000000003 3.2500000000000004 1.3500000000000003 1.8500000000000003
decision_type=2 2 2 2
left_child=1 -1 -2 -4
right_child=2 -3 3 -5
leaf_value=0.033094312349589178 -0.058850479466713596 0.055894526936449751 -0.053010190333579059 -0.052206211524413175
leaf_weight=3.3446569740772265 2.0872047916054708 5.0869947969913483 3.8549701794981956 2.7113781496882439
leaf_count=24 21 33 38 34
internal_value=0 0.468502 -0.541669 -0.526782
internal_weight=0 8.43165 8.65355 6.56635
internal_count=150 57 93 72
shrinkage=0.1


Tree=97
num_leaves=6
num_cat=0
split_feature=2 2 1 0 2
split_gain=1.42775 2.24667 0.410038 0.0621738 0.000396713
threshold=1.8 5.0500000000000007 2.8500000000000001 6.5500000000000007 1.4500000000000002
decision_type=2 2 2 2 2
left_child=4 2 -2 -3 -1
right_child=1 3 -4 -5 -6
leaf_value=-0.052035820063319027 0.018362289240456225 -0.033338091614982954 0.052345799565123655 -0.055331485765313042 -0.054061501280333407
leaf_weight=1.7910486012697249 7.8245653510093707 3.1552181467413893 6.4998638331890106 2.1689135432243347 2.1007755175232887
leaf_count=24 33 20 27 22 24
internal_value=0 0.131673 0.337827 -0.422976 -0.531293
internal_weight=0 19.6486 14.3244 5.32413 3.89182
internal_count=150 102 60 42 48
shrinkage=0.1


Tree=98
num_leaves=6
num_cat=0
split_feature=2 1 2 2 2
split_gain=3.26049 0.68325 0.578653 0.153271 0.0401141
threshold=4.9500000000000011 3.0500000000000003 4.2500000000000009 5.5500000000000007 1.5500000000000003
decision_type=2 2 2 2 2
left_child=1 2 -1 -2 -3
right_child=3 4 -4 -5 -6
leaf_value=-0.052361052938843612 0.033683656353012417 -0.051983502429990926 0.0050252920235672868 0.05914844602098325 -0.070344924358308608
leaf_weight=2.6388934813439864 5.2745020985603315 2.1824104264378548 5.25853281468153 4.282892718911171 2.6161009818315506
leaf_count=31 21 30 23 25 20
internal_value=0 -0.32233 -0.141501 0.45095 -0.61994
internal_weight=0 12.6959 7.89743 9.55739 4.79851
internal_count=150 104 54 46 50
shrinkage=0.1


Tree=99
num_leaves=1
num_cat=0
split_feature=
split_gain=
threshold=
decision_type=
left_child=
right_child=
leaf_value=0
leaf_weight=
leaf_count=
internal_value=
internal_weight=
internal_count=
shrinkage=1


Tree=100
num_leaves=5
num_cat=0
split_feature=3 1 3 2
split_gain=3.94048 0.111229 0.0053688 9.01939e-05
threshold=1.0500000000000003 3.2500000000000004 1.3500000000000003 5.1500000000000012
decision_type=2 2 2 2
left_child=1 -1 -2 -4
right_child=2 -3 3 -5
leaf_value=0.03121122065153761 -0.058497283917757131 0.055466807892532513 -0.05278968276914725 -0.052003618229873719
leaf_weight=3.1692013144493112 1.9564217999577502 4.6859789192676544 3.6309029161930084 2.441030316054821
leaf_count=24 21 33 38 34
internal_value=0 0.456808 -0.539416 -0.524737
internal_weight=0 7.85518 8.02836 6.07193
internal_count=150 57 93 72
shrinkage=0.1


Tree=101
num_leaves=6
num_cat=0
split_feature=3 3 0 3 2
split_gain=1.29517 1.97137 0.236323 0.0852919 0.000312614
threshold=0.45000000000000007 1.6500000000000001 6.5500000000000007 1.3500000000000003 1.4500000000000002
decision_type=2 2 2 2 2
left_child=4 3 -3 -2 -1
right_child=1 2 -4 -5 -6
leaf_value=-0.051859321253550639 0.046238162146906091 -0.042705431507892438 -0.0010821135218598134 0.029368806010370247 -0.053735242939063725
leaf_weight=1.6437218263745337 5.2716375589370745 4.791237346827983 1.9069684892892838 6.9466510862112045 1.9330354221165178
leaf_count=24 30 26 22 24 24
internal_value=0 0.12745 -0.308553 0.366472 -0.528732
internal_weight=0 18.9165 6.69821 12.2183 3.57676
internal_count=150 102 48 54 48
shrinkage=0.1


Tree=102
num_leaves=6
num_cat=0
split_feature=3 3 0 1 2
split_gain=2.9584 0.409098 0.136856 5.68018e-05 1.66379e-05
threshold=1.6500000000000001 1.3500000000000003 6.5500000000000007 3.2500000000000004 3.8500000000000001
decision_type=2 2 2 2 2
left_child=1 3 -2 4 -1
right_child=2 -3 -4 -5 -6
leaf_value=-0.052118094625764957 0.050600760612508705 -0.014370003704264864 0.025584120265431127 -0.051663433491325718 -0.052543464963245856
leaf_weight=1.9400231428444406 6.2912310510873777 5.7632677182555199 3.3518560379743576 2.052942655980587 1.7480689883232114
leaf_count=25 26 24 22 33 20
internal_value=0 -0.331911 0.419052 -0.52085 -0.523197
internal_weight=0 11.5043 9.64309 5.74103 3.68809
internal_count=150 102 48 78 45
shrinkage=0.1


Tree=103
num_leaves=1
num_cat=0
split_feature=
split_gain=
threshold=
decision_type=
left_child=
right_child=
leaf_value=0
leaf_weight=
leaf_count=
internal_value=
internal_weight=
internal_count=
shrinkage=1


Tree=104
num_leaves=6
num_cat=0
split_feature=2 1 1 2 3
split_gain=3.60901 0.180166 0.00381669 0.000219542 1.36685e-05
threshold=1.8 3.1500000000000008 2.6500000000000008 1.4500000000000002 1.4500000000000002
decision_type=2 2 2 2 2
left_child=3 2 -2 -1 -4
right_child=1 -3 4 -5 -6
leaf_value=0.053579820512617463 -0.057159419631521616 -0.01912262944877471 -0.051907739895708016 0.054782628110718268 -0.052285186570890291
leaf_weight=2.9518585577607164 2.3326831907033903 1.9108684062957759 1.3979739695787428 3.1229112893342972 3.0583513006567955
leaf_count=24 23 20 20 24 39
internal_value=0 -0.462475 -0.538822 0.541982 -0.521668
internal_weight=0 8.69988 6.78901 6.07477 4.45633
internal_count=150 102 82 48 59
shrinkage=0.1


Tree=105
num_leaves=6
num_cat=0
split_feature=2 2 2 0 2
split_gain=1.27429 1.72506 0.533696 0.136761 0.000328352
threshold=5.1500000000000012 1.8 4.7500000000000009 5.7500000000000009 1.4500000000000002
decision_type=2 2 2 2 2
left_child=1 4 3 -3 -1
right_child=-2 2 -4 -5 -6
leaf_value=-0.051700661683044949 -0.05632794759066731 0.031015777050169432 0.0046595059060041012 0.056067045446686496 -0.053700470212388052
leaf_weight=1.509151685982949 3.1484652385115615 4.5787117183208448 6.2458914294838896 4.1584353148937225 1.800671689212322
leaf_count=24 34 24 21 23 24
internal_value=0 0.125483 0.269816 0.429389 -0.527886
internal_weight=0 18.2929 14.983 8.73715 3.30982
internal_count=150 116 68 47 48
shrinkage=0.1


Tree=106
num_leaves=6
num_cat=0
split_feature=2 1 2 2 3
split_gain=2.68663 0.379003 0.370999 0.275313 0.0345664
threshold=4.8500000000000005 3.0500000000000003 5.3500000000000005 4.1500000000000012 0.25000000000000006
decision_type=2 2 2 2 2
left_child=1 3 -2 -1 -3
right_child=2 4 -4 -5 -6
leaf_value=-0.05196604227013743 0.019894009346362179 -0.05168576199057421 0.057936401438335818 -0.0059644611129970361 -0.070935393263862057
leaf_weight=1.9503367394208924 6.0524111390113813 1.742138206958771 4.4471051841974258 3.9077787399291992 2.0080997385084629
leaf_count=27 21 28 30 23 21
internal_value=0 -0.371706 0.36007 -0.212797 -0.619932
internal_weight=0 9.60835 10.4995 5.85812 3.75024
internal_count=150 99 51 50 49
shrinkage=0.1


Tree=107
num_leaves=1
num_cat=0
split_feature=
split_gain=
threshold=
decision_type=
left_child=
right_child=
leaf_value=0
leaf_weight=
leaf_count=
internal_value=
internal_weight=
internal_count=
shrinkage=1


Tree=108
num_leaves=5
num_cat=0
split_feature=3 1 3 3
split_gain=3.28286 0.105356 0.00375806 6.64328e-05
threshold=1.0500000000000003 3.2500000000000004 1.3500000000000003 1.8500000000000003
decision_type=2 2 2 2
left_child=1 -1 -2 -4
right_child=2 -3 3 -5
leaf_value=0.029400619780275784 -0.057565878398043779 0.054864705762192927 -0.05243542356918468 -0.051711543713648479
leaf_weight=2.737481877207756 1.6873013712465761 3.9975306391716003 3.1304556243121624 2.1307056285440922
leaf_count=24 21 33 38 34
internal_value=0 0.445147 -0.534593 -0.521423
internal_weight=0 6.73501 6.94846 5.26116
internal_count=150 57 93 72
shrinkage=0.1


Tree=109
num_leaves=6
num_cat=0
split_feature=2 3 2 0 2
split_gain=1.14499 1.54173 0.485188 0.141511 0.000321299
threshold=5.1500000000000012 0.45000000000000007 4.7500000000000009 5.7500000000000009 1.4500000000000002
decision_type=2 2 2 2 2
left_child=1 4 3 -3 -1
right_child=-2 2 -4 -5 -6
leaf_value=-0.051536447101814702 -0.055841899408507895 0.029283830499265823 0.0046222765645304136 0.05554656872725694 -0.05360227978272946
leaf_weight=1.3719275109469955 2.892967388033866 4.3784411847591382 6.2383447512984267 3.8607923164963722 1.6684720888733862
leaf_count=24 34 24 21 23 24
internal_value=0 0.120658 0.256608 0.415902 -0.526701
internal_weight=0 17.518 14.4776 8.23923 3.0404
internal_count=150 116 68 47 48
shrinkage=0.1


Tree=110
num_leaves=6
num_cat=0
split_feature=2 1 2 2 2
split_gain=2.36525 0.662299 0.496047 0.163117 0.0370771
threshold=4.9500000000000011 3.0500000000000003 4.2500000000000009 5.5500000000000007 1.5500000000000003
decision_type=2 2 2 2 2
left_child=1 2 -1 -2 -3
right_child=3 4 -4 -5 -6
leaf_value=-0.051852348393637386 0.029453071254617366 -0.051474248546609681 0.0061461725536461724 0.057918319234893684 -0.071319608535889562
leaf_weight=2.1046375967562216 4.7242147102951986 1.6453447826206686 4.9264457896351814 3.5079533383250237 2.2005132772028446
leaf_count=31 21 30 23 25 20
internal_value=0 -0.294646 -0.112147 0.415829 -0.628293
internal_weight=0 10.8769 7.03108 8.23217 3.84586
internal_count=150 104 54 46 50
shrinkage=0.1


Tree=111
num_leaves=1
num_cat=0
split_feature=
split_gain=
threshold=
decision_type=
left_child=
right_child=
leaf_value=0
leaf_weight=
leaf_count=
internal_value=
internal_weight=
internal_count=
shrinkage=1


Tree=112
num_leaves=5
num_cat=0
split_feature=2 1 2 3
split_gain=2.9891 0.0561352 4.12634e-05 3.66376e-05
threshold=3.1500000000000004 3.3500000000000001 5.1500000000000012 1.4500000000000002
decision_type=2 2 2 2
left_child=1 -1 3 -2
right_child=2 -3 -4 -5
leaf_value=0.034745241804898831 -0.051807212756026323 0.054049791232783639 -0.051555524301999472 -0.052365789274037788
leaf_weight=2.7829091027379036 2.1900404915213585 3.2836934849619865 1.906681317836046 2.5316932871937752
leaf_count=20 34 31 34 31
internal_value=0 0.451943 -0.519482 -0.521067
internal_weight=0 6.0666 6.62842 4.72173
internal_count=150 51 99 65
shrinkage=0.1


Tree=113
num_leaves=6
num_cat=0
split_feature=3 2 2 0 2
split_gain=1.06224 1.40736 0.40682 0.143024 0.000256349
threshold=1.8500000000000003 1.8 4.7500000000000009 5.7500000000000009 1.4500000000000002
decision_type=2 2 2 2 2
left_child=1 4 3 -3 -1
right_child=-2 2 -4 -5 -6
leaf_value=-0.051407432527292476 -0.053511811345006446 0.027931301218772714 0.0057871603060733866 0.055092307342151994 -0.053333081013994456
leaf_weight=1.2595212124288147 2.8797747120261183 4.2117263376712781 5.990464374423027 3.592365637421608 1.5324243456125257
leaf_count=24 34 24 21 23 24
internal_value=0 0.122835 0.253882 0.40434 -0.524644
internal_weight=0 16.5865 13.7946 7.80409 2.79195
internal_count=150 116 68 47 48
shrinkage=0.1


Tree=114
num_leaves=6
num_cat=0
split_feature=3 0 0 2 1
split_gain=2.15726 0.36067 0.167002 0.000142594 1.26486e-05
threshold=1.6500000000000001 5.9500000000000011 6.5500000000000007 3.5500000000000003 3.2500000000000004
decision_type=2 2 2 2 2
left_child=1 3 -2 4 -1
right_child=2 -3 -4 -5 -6
leaf_value=-0.051632137455243358 0.048315227865899514 -0.013283806951572578 0.018230456321990777 -0.05259485787910554 -0.051210885344264802
leaf_weight=1.3420910239219686 5.6167580559849721 5.3707486726343632 2.7478018775582314 1.5678902976214883 1.5201326571404932
leaf_count=22 26 27 22 20 33
internal_value=0 -0.307064 0.384322 -0.518283 -0.514084
internal_weight=0 9.80086 8.36456 4.43011 2.86222
internal_count=150 102 48 75 55
shrinkage=0.1


Tree=115
num_leaves=1
num_cat=0
split_feature=
split_gain=
threshold=
decision_type=
left_child=
right_child=
leaf_value=0
leaf_weight=
leaf_count=
internal_value=
internal_weight=
internal_count=
shrinkage=1


Tree=116
num_leaves=6
num_cat=0
split_feature=3 1 1 2 3
split_gain=2.74499 0.163615 0.00291578 0.000162131 9.77875e-06
threshold=0.45000000000000007 3.1500000000000008 2.6500000000000008 1.4500000000000002 1.4500000000000002
decision_type=2 2 2 2 2
left_child=3 2 -2 -1 -4
right_child=1 -3 4 -5 -6
leaf_value=0.052683621052074997 -0.056522095764381157 -0.01695329635827587 -0.051461540194506328 0.053857719510782824 -0.051822521436445806
leaf_weight=2.2748703211545944 1.9613840654492376 1.5848584435880182 1.0839242674410345 2.4351213127374649 2.4391224570572376
leaf_count=24 23 20 20 24 39
internal_value=0 -0.452538 -0.534319 0.532906 -0.517115
internal_weight=0 7.06929 5.48443 4.70999 3.52305
internal_count=150 102 82 48 59
shrinkage=0.1


Tree=117
num_leaves=5
num_cat=0
split_feature=2 3 3 2
split_gain=1.00183 1.2726 0.44271 0.000244921
threshold=5.1500000000000012 0.45000000000000007 1.4500000000000002 1.4500000000000002
decision_type=2 2 2 2
left_child=1 3 -3 -1
right_child=-2 2 -4 -5
leaf_value=-0.051286782257812386 -0.055594911390707151 0.046826572195335515 0.009652690950481501 -0.053246256836328436
leaf_weight=1.1542323231697111 2.5458118580281726 5.2911400273442259 8.1201839298009855 1.4259490147233007
leaf_count=24 34 37 31 24
internal_value=0 0.119454 0.243188 -0.523697
internal_weight=0 15.9915 13.4113 2.58018
internal_count=150 116 68 48
shrinkage=0.1


Tree=118
num_leaves=6
num_cat=0
split_feature=2 1 1 0 2
split_gain=1.92603 1.20843 0.0788185 0.0436123 0.0370594
threshold=5.0500000000000007 2.8500000000000001 3.0500000000000003 6.5500000000000007 1.5500000000000003
decision_type=2 2 2 2 2
left_child=1 -1 -3 -2 -4
right_child=3 2 4 -5 -6
leaf_value=0.012820615768512487 0.038560413912694762 -0.04108609800370424 -0.051222150724824334 0.05552173800376952 -0.072644997451910623
leaf_weight=4.9850577414035815 3.4961926490068427 2.7956494316458702 1.370018854737282 2.6765195056796074 1.9666884019970892
leaf_count=34 20 24 30 22 20
internal_value=0 -0.237462 -0.534717 0.459149 -0.63849
internal_weight=0 11.1174 6.13236 6.17271 3.33671
internal_count=150 108 74 42 50
shrinkage=0.1


Tree=119
num_leaves=1
num_cat=0
split_feature=
split_gain=
threshold=
decision_type=
left_child=
right_child=
leaf_value=0
leaf_weight=
leaf_count=
internal_value=
internal_weight=
internal_count=
shrinkage=1


Tree=120
num_leaves=5
num_cat=0
split_feature=3 1 3 3
split_gain=2.5302 0.0905187 0.00286735 4.35973e-05
threshold=1.0500000000000003 3.2500000000000004 1.3500000000000003 1.8500000000000003
decision_type=2 2 2 2
left_child=1 -1 -2 -4
right_child=2 -3 3 -5
leaf_value=0.027621337003234044 -0.056994251265286677 0.054108600126122189 -0.05198902864938594 -0.05133276809966919
leaf_weight=2.1887027844786644 1.3688679188489912 3.1429772600531578 2.5531069450080395 1.6773572750389574
leaf_count=24 21 33 38 34
internal_value=0 0.432353 -0.530161 -0.517288
internal_weight=0 5.33168 5.59933 4.23046
internal_count=150 57 93 72
shrinkage=0.1


Tree=121
num_leaves=6
num_cat=0
split_feature=3 2 2 0 2
split_gain=0.913652 1.16449 0.347032 0.141459 0.000282672
threshold=1.8500000000000003 1.8 4.7500000000000009 5.7500000000000009 1.4500000000000002
decision_type=2 2 2 2 2
left_child=1 4 3 -3 -1
right_child=-2 2 -4 -5 -6
leaf_value=-0.051162721480424514 -0.053189247632470543 0.025837865377540778 0.0058242326558221313 0.054434184680394071 -0.053357033504585233
leaf_weight=1.0478679239749937 2.5189761221408835 3.8186154663562757 5.8840468525886536 3.1624827161431313 1.3349897861480711
leaf_count=24 34 24 21 23 24
internal_value=0 0.118205 0.237138 0.387922 -0.523921
internal_weight=0 15.248 12.8651 6.9811 2.38286
internal_count=150 116 68 47 48
shrinkage=0.1


Tree=122
num_leaves=6
num_cat=0
split_feature=3 0 0 2 1
split_gain=1.75409 0.339237 0.190993 0.000110897 9.76243e-06
threshold=1.6500000000000001 5.9500000000000011 6.5500000000000007 3.5500000000000003 3.2500000000000004
decision_type=2 2 2 2 2
left_child=1 3 -2 4 -1
right_child=2 -3 -4 -5 -6
leaf_value=-0.051390487089330222 0.047057797418850855 -0.012122164649751584 0.01309171338453588 -0.05230079651492562 -0.050986936187591383
leaf_weight=1.1526989750564123 5.2329755946993819 5.0996282882988453 2.4215770438313484 1.3983481526374815 1.2490084804594515
leaf_count=22 26 27 22 20 33
internal_value=0 -0.289757 0.363124 -0.515928 -0.511806
internal_weight=0 8.89968 7.65455 3.80006 2.40171
internal_count=150 102 48 75 55
shrinkage=0.1


Tree=123
num_leaves=1
num_cat=0
split_feature=
split_gain=
threshold=
decision_type=
left_child=
right_child=
leaf_value=0
leaf_weight=
leaf_count=
internal_value=
internal_weight=
internal_count=
shrinkage=1


Tree=124
num_leaves=5
num_cat=0
split_feature=3 1 3 3
split_gain=2.29848 0.0925605 0.0024401 3.53414e-05
threshold=1.0500000000000003 3.2500000000000004 1.3500000000000003 1.8500000000000003
decision_type=2 2 2 2
left_child=1 -1 -2 -4
right_child=2 -3 3 -5
leaf_value=0.026143793286440536 -0.056638298418416382 0.0538335559006346 -0.051846862714826393 -0.051233881783725004
leaf_weight=2.0723512917757034 1.2749745249748228 2.8918062336742878 2.3709007501602177 1.5590739138424394
leaf_count=24 21 33 38 34
internal_value=0 0.422741 -0.528369 -0.516037
internal_weight=0 4.96416 5.20495 3.92997
internal_count=150 57 93 72
shrinkage=0.1


Tree=125
num_leaves=5
num_cat=0
split_feature=2 2 3 2
split_gain=0.87678 1.0437 0.398667 0.000211705
threshold=5.1500000000000012 1.8 1.4500000000000002 1.4500000000000002
decision_type=2 2 2 2
left_child=1 3 -3 -1
right_child=-2 2 -4 -5
leaf_value=-0.051067148006521838 -0.055424235445093922 0.045632887291283737 0.0088434477191178008 -0.053050147661620306
leaf_weight=0.96198178455233885 2.2493897154927245 4.7300317957997304 7.8074831515550613 1.2226177267730234
leaf_count=24 34 37 31 24
internal_value=0 0.116087 0.22723 -0.521769
internal_weight=0 14.7221 12.5375 2.1846
internal_count=150 116 68 48
shrinkage=0.1


Tree=126
num_leaves=6
num_cat=0
split_feature=2 1 1 0 2
split_gain=1.58469 1.14132 0.0855921 0.0481144 0.0355916
threshold=5.0500000000000007 2.8500000000000001 3.0500000000000003 6.5500000000000007 1.5500000000000003
decision_type=2 2 2 2 2
left_child=1 -1 -3 -2 -4
right_child=3 2 4 -5 -6
leaf_value=0.013842979456187527 0.036203576702618791 -0.039868012123050668 -0.051006992733543303 0.055030312216048385 -0.073666306505590057
leaf_weight=4.7370425239205343 3.2058570608496675 2.5854051895439625 1.1340694166719916 2.3543600514531136 1.7831005547195671
leaf_count=34 20 24 30 22 20
internal_value=0 -0.221395 -0.53116 0.441754 -0.648573
internal_weight=0 10.2396 5.50258 5.56022 2.91717
internal_count=150 108 74 42 50
shrinkage=0.1


Tree=127
num_leaves=1
num_cat=0
split_feature=
split_gain=
threshold=
decision_type=
left_child=
right_child=
leaf_value=0
leaf_weight=
leaf_count=
internal_value=
internal_weight=
internal_count=
shrinkage=1


Tree=128
num_leaves=5
num_cat=0
split_feature=2 0 3 3
split_gain=2.10665 0.0525906 2.50587e-05 1.63609e-05
threshold=3.1500000000000004 5.0500000000000007 1.8500000000000003 1.4500000000000002
decision_type=2 2 2 2
left_child=1 -1 3 -2
right_child=2 -3 -4 -5
leaf_value=0.053011446410803902 -0.051396980357567304 0.031288858979014227 -0.051125653984153266 -0.051827299172867228
leaf_weight=2.4277941696345806 1.6895634382963183 2.06034230068326 1.4269019290804861 1.852056238800287
leaf_count=28 35 23 34 30
internal_value=0 0.430394 -0.514795 -0.51622
internal_weight=0 4.48814 4.96852 3.54162
internal_count=150 51 99 65
shrinkage=0.1


Tree=129
num_leaves=5
num_cat=0
split_feature=2 3 3 2
split_gain=0.79216 0.94453 0.400333 0.00019772
threshold=5.1500000000000012 0.45000000000000007 1.4500000000000002 1.4500000000000002
decision_type=2 2 2 2
left_child=1 3 -3 -1
right_child=-2 2 -4 -5
leaf_value=-0.050980699231281512 -0.055041952018500796 0.045408121274400526 0.0078591254192134415 -0.052973229868241489
leaf_weight=0.88355782441795172 2.0703443549573413 4.4846240356564504 7.7396666929125786 1.1413073409348724
leaf_count=24 34 37 31 24
internal_value=0 0.111559 0.216344 -0.521038
internal_weight=0 14.2492 12.2243 2.02487
internal_count=150 116 68 48
shrinkage=0.1


Tree=130
num_leaves=6
num_cat=0
split_feature=3 3 0 1 1
split_gain=1.42668 0.318798 0.21876 3.05227e-05 2.85241e-06
threshold=1.6500000000000001 1.3500000000000003 6.5500000000000007 2.9500000000000006 3.4500000000000006
decision_type=2 2 2 2 2
left_child=1 3 -2 -1 -5
right_child=2 -3 -4 4 -6
leaf_value=-0.051562917169711092 0.045847484068227973 -0.010942790101947993 0.0074877814775115891 -0.051053539127042462 -0.050792261174300538
leaf_weight=1.5383732989430412 4.8869519010186204 4.8238806873559952 2.1366848945617676 1.0987160634249447 0.67424969561398018
leaf_count=28 26 24 22 28 22
internal_value=0 -0.27344 0.341779 -0.51237 -0.509542
internal_weight=0 8.13522 7.02364 3.31134 1.77297
internal_count=150 102 48 78 50
shrinkage=0.1


Tree=131
num_leaves=1
num_cat=0
split_feature=
split_gain=
threshold=
decision_type=
left_child=
right_child=
leaf_value=0
leaf_weight=
leaf_count=
internal_value=
internal_weight=
internal_count=
shrinkage=1


Tree=132
num_leaves=5
num_cat=0
split_feature=3 1 3 3
split_gain=1.94383 0.08577 0.00202919 2.83942e-05
threshold=1.0500000000000003 3.2500000000000004 1.3500000000000003 1.8500000000000003
decision_type=2 2 2 2
left_child=1 -1 -2 -4
right_child=2 -3 3 -5
leaf_value=0.024732691411232296 -0.056335289202873277 0.053454153981387621 -0.051635029803981526 -0.05104384465515719
leaf_weight=1.7875446453690527 1.1045946311205623 2.4853529520332813 2.0922835171222691 1.3281340859830377
leaf_count=24 21 33 38 34
internal_value=0 0.414387 -0.526089 -0.514055
internal_weight=0 4.2729 4.52501 3.42042
internal_count=150 57 93 72
shrinkage=0.1


Tree=133
num_leaves=6
num_cat=0
split_feature=3 2 2 0 2
split_gain=0.753526 0.872043 0.261513 0.144654 0.00017711
threshold=1.8500000000000003 1.8 4.7500000000000009 5.7500000000000009 1.4500000000000002
decision_type=2 2 2 2 2
left_child=1 4 3 -3 -1
right_child=-2 2 -4 -5 -6
leaf_value=-0.050889119979947696 -0.052823375233435776 0.022398010825051846 0.0063156002797890151 0.053712293073146102 -0.05285691027463512
leaf_weight=0.80510508827865024 2.1036621369421491 3.3340352252125722 5.6981017962098122 2.6458699181675911 1.059037225320935
leaf_count=24 34 24 21 23 24
internal_value=0 0.11507 0.216457 0.362533 -0.52007
internal_weight=0 13.5421 11.678 5.97991 1.86414
internal_count=150 116 68 47 48
shrinkage=0.1


Tree=134
num_leaves=6
num_cat=0
split_feature=2 1 1 0 2
split_gain=1.28982 1.09757 0.092345 0.0520226 0.0337017
threshold=5.0500000000000007 2.8500000000000001 3.0500000000000003 6.5500000000000007 1.5500000000000003
decision_type=2 2 2 2 2
left_child=1 -1 -3 -2 -4
right_child=3 2 4 -5 -6
leaf_value=0.015262235012460984 0.033713805353102755 -0.038680108272427627 -0.050837340589275595 0.054437628234669314 -0.074530285655327197
leaf_weight=4.5185778923332673 2.9493459649384031 2.4222177304327488 0.94739499129354976 2.0554985329508781 1.6389822047203777
leaf_count=34 20 24 30 22 20
internal_value=0 -0.204725 -0.527111 0.422251 -0.658515
internal_weight=0 9.52717 5.00859 5.00484 2.58638
internal_count=150 108 74 42 50
shrinkage=0.1


Tree=135
num_leaves=1
num_cat=0
split_feature=
split_gain=
threshold=
decision_type=
left_child=
right_child=
leaf_value=0
leaf_weight=
leaf_count=
internal_value=
internal_weight=
internal_count=
shrinkage=1


Tree=136
num_leaves=6
num_cat=0
split_feature=3 1 2 2 3
split_gain=1.77621 0.133588 0.00129904 9.54304e-05 1.23205e-05
threshold=0.45000000000000007 3.1500000000000008 4.2500000000000009 1.4500000000000002 1.8500000000000003
decision_type=2 2 2 2 2
left_child=3 2 -2 -1 -4
right_child=1 -3 4 -5 -6
leaf_value=0.051717502731340431 -0.055125572605225798 -0.014126841471853502 -0.051434208692733435 0.052826574261461971 -0.050958076787452282
leaf_weight=1.4880413636565211 1.3484658487141135 1.1733250692486761 1.7620725408196452 1.6209679618477819 0.78584455139935006
leaf_count=24 23 20 37 24 22
internal_value=0 -0.437079 -0.526157 0.522957 -0.512874
internal_weight=0 5.06971 3.89638 3.10901 2.54792
internal_count=150 102 82 48 59
shrinkage=0.1


Tree=137
num_leaves=5
num_cat=0
split_feature=2 3 3 2
split_gain=0.699929 0.782115 0.367997 0.000150372
threshold=5.1500000000000012 0.45000000000000007 1.4500000000000002 1.4500000000000002
decision_type=2 2 2 2
left_child=1 3 -3 -1
right_child=-2 2 -4 -5
leaf_value=-0.050818157539980861 -0.054897221020083903 0.044781337245134764 0.0072372411223066138 -0.052705707131719307
leaf_weight=0.7397079337388266 1.8398692943155772 4.0146751478314382 7.465507335960865 0.98282776400446881
leaf_count=24 34 37 31 24
internal_value=0 0.109387 0.203666 -0.518951
internal_weight=0 13.2027 11.4802 1.72254
internal_count=150 116 68 48
shrinkage=0.1


Tree=138
num_leaves=6
num_cat=0
split_feature=3 0 0 2 1
split_gain=1.16124 0.300445 0.248417 7.16745e-05 6.7208e-06
threshold=1.6500000000000001 5.9500000000000011 6.5500000000000007 3.5500000000000003 3.2500000000000004
decision_type=2 2 2 2 2
left_child=1 3 -2 4 -1
right_child=2 -3 -4 -5 -6
leaf_value=-0.051052839469213532 0.044695270886345097 -0.0099879015372491848 0.0016832288087144692 -0.051883365279360542 -0.050657352853084196
leaf_weight=0.87793305143713973 4.5815406888723373 4.6144660376012325 1.8994731381535528 1.1342014037072656 0.84160394594073296
leaf_count=22 26 27 22 20 33
internal_value=0 -0.257611 0.320892 -0.512663 -0.508593
internal_weight=0 7.4682 6.48101 2.85374 1.71954
internal_count=150 102 48 75 55
shrinkage=0.1


Tree=139
num_leaves=1
num_cat=0
split_feature=
split_gain=
threshold=
decision_type=
left_child=
right_child=
leaf_value=0
leaf_weight=
leaf_count=
internal_value=
internal_weight=
internal_count=
shrinkage=1


Tree=140
num_leaves=5
num_cat=0
split_feature=3 1 3 3
split_gain=1.6394 0.0806072 0.00135253 2.14856e-05
threshold=1.0500000000000003 3.2500000000000004 1.3500000000000003 1.8500000000000003
decision_type=2 2 2 2
left_child=1 -1 -2 -4
right_child=2 -3 3 -5
leaf_value=0.023182740621170265 -0.055568047615547601 0.053184073771308828 -0.051451300677675262 -0.050900561433981029
leaf_weight=1.5467882566154005 0.9513331409543756 2.1270990818738937 1.8421467859297993 1.1509292442351577
leaf_count=24 21 33 38 34
internal_value=0 0.405528 -0.522835 -0.512395
internal_weight=0 3.67389 3.94441 2.99308
internal_count=150 57 93 72
shrinkage=0.1


Tree=141
num_leaves=5
num_cat=0
split_feature=2 2 1 2
split_gain=0.658731 0.720808 0.388843 0.000176613
threshold=5.1500000000000012 1.8 2.8500000000000001 1.4500000000000002
decision_type=2 2 2 2
left_child=1 3 -3 -1
right_child=-2 2 -4 -5
leaf_value=-0.050739809839523399 -0.054777620051493087 0.0044128229864736877 0.042549786865512772 -0.052869327911403245
leaf_weight=0.67081386595964321 1.7426062896847732 6.6132150590419752 4.4877695366740227 0.92854505404829968
leaf_count=24 34 38 30 24
internal_value=0 0.107877 0.198304 -0.519762
internal_weight=0 12.7003 11.101 1.59936
internal_count=150 116 68 48
shrinkage=0.1


Tree=142
num_leaves=6
num_cat=0
split_feature=2 1 1 0 2
split_gain=1.06396 1.03151 0.0997453 0.0562462 0.0315936
threshold=5.0500000000000007 2.8500000000000001 3.0500000000000003 6.5500000000000007 1.5500000000000003
decision_type=2 2 2 2 2
left_child=1 -1 -3 -2 -4
right_child=3 2 4 -5 -6
leaf_value=0.01604116531460946 0.031377967511004613 -0.037359275450996578 -0.050691817026822829 0.054062634441870754 -0.075465133948848837
leaf_weight=4.3101658523082715 2.7308923862874517 2.2668523676693439 0.78355740383267425 1.8224407434463499 1.5008159000426529
leaf_count=34 20 24 30 22 20
internal_value=0 -0.190181 -0.522205 0.404574 -0.669677
internal_weight=0 8.86139 4.55123 4.55333 2.28437
internal_count=150 108 74 42 50
shrinkage=0.1


Tree=143
num_leaves=1
num_cat=0
split_feature=
split_gain=
threshold=
decision_type=
left_child=
right_child=
leaf_value=0
leaf_weight=
leaf_count=
internal_value=
internal_weight=
internal_count=
shrinkage=1


Tree=144
num_leaves=5
num_cat=0
split_feature=2 0 3 3
split_gain=1.50675 0.0481393 1.60531e-05 6.94465e-06
threshold=3.1500000000000004 5.0500000000000007 1.8500000000000003 1.4500000000000002
decision_type=2 2 2 2
left_child=1 -1 3 -2
right_child=2 -3 -4 -5
leaf_value=0.052317827914253337 -0.051112613757545257 0.028248912041702254 -0.050822483823247437 -0.051432457650771882
leaf_weight=1.7752745673060419 1.2811008952558047 1.5622199624776838 1.0537865720689295 1.4440432917326687
leaf_count=28 35 23 34 30
internal_value=0 0.410516 -0.511539 -0.512821
internal_weight=0 3.33749 3.77893 2.72514
internal_count=150 51 99 65
shrinkage=0.1


Tree=145
num_leaves=6
num_cat=0
split_feature=3 2 2 0 2
split_gain=0.619969 0.653653 0.214206 0.142882 0.000131753
threshold=1.8500000000000003 1.8 4.7500000000000009 5.7500000000000009 1.4500000000000002
decision_type=2 2 2 2 2
left_child=1 4 3 -3 -1
right_child=-2 2 -4 -5 -6
leaf_value=-0.050681904865487119 -0.052581513770743306 0.019643075917622183 0.0057491201312084858 0.053138921272585772 -0.052601926716330044
leaf_weight=0.6166718192398537 1.7631303034722812 2.9812327921390516 5.5813413895666599 2.2231629751622677 0.85003822483122349
leaf_count=24 34 24 21 23 24
internal_value=0 0.1084 0.193575 0.339515 -0.517947
internal_weight=0 12.2524 10.7857 5.2044 1.46671
internal_count=150 116 68 47 48
shrinkage=0.1


Tree=146
num_leaves=6
num_cat=0
split_feature=3 0 0 2 1
split_gain=0.987468 0.279929 0.271125 5.31945e-05 5.44462e-06
threshold=1.6500000000000001 6.5500000000000007 5.9500000000000011 3.5500000000000003 3.2500000000000004
decision_type=2 2 2 2 2
left_child=2 -2 3 4 -1
right_child=1 -3 -4 -5 -6
leaf_value=-0.050922938590370365 0.044068991657157275 -0.0035919640934659151 -0.0098027565296572011 -0.051680098123711937 -0.05053532498484975
leaf_weight=0.7658851779997351 4.365521963685751 1.71700107678771 4.414148923009634 1.0254593621939418 0.687842957675457
leaf_count=22 26 22 27 20 33
internal_value=0 0.30615 -0.246656 -0.511286 -0.507395
internal_weight=0 6.08252 6.89334 2.47919 1.45373
internal_count=150 48 102 75 55
shrinkage=0.1


Tree=147
num_leaves=1
num_cat=0
split_feature=
split_gain=
threshold=
decision_type=
left_child=
right_child=
leaf_value=0
leaf_weight=
leaf_count=
internal_value=
internal_weight=
internal_count=
shrinkage=1


Tree=148
num_leaves=6
num_cat=0
split_feature=3 1 2 2 3
split_gain=1.38282 0.119598 0.000968055 7.88907e-05 7.82974e-06
threshold=0.45000000000000007 3.1500000000000008 4.2500000000000009 1.4500000000000002 1.8500000000000003
decision_type=2 2 2 2 2
left_child=3 2 -2 -1 -4
right_child=1 -3 4 -5 -6
leaf_value=0.051301734590277218 -0.054678898582860583 -0.012734593826295075 -0.051184450164007148 0.052445558427627131 -0.050761337140090783
leaf_weight=1.1398636102676394 1.1469652112573387 0.99917483702301957 1.4359081424772742 1.2802224345505235 0.62891250662505616
leaf_count=24 23 20 37 24 22
internal_value=0 -0.429497 -0.523495 0.519068 -0.510556
internal_weight=0 4.21096 3.21179 2.42009 2.06482
internal_count=150 102 82 48 59
shrinkage=0.1


Tree=149
num_leaves=6
num_cat=0
split_feature=2 0 2 2 1
split_gain=0.584664 0.594847 0.46315 0.457372 0.0147752
threshold=5.1500000000000012 4.9500000000000011 1.8 4.7500000000000009 2.8500000000000001
decision_type=2 2 2 2 2
left_child=1 -1 -3 4 -4
right_child=-2 2 3 -5 -6
leaf_value=-0.055451486054385483 -0.054629366678349257 -0.052207374779881167 0.054646609847120158 0.0056191897155603489 0.042710536272701001
leaf_weight=1.2272013351321209 1.5595427025109536 0.8622712753713121 2.2974100634455663 5.6309005543589592 1.8904367536306379
leaf_count=22 34 29 23 21 21
internal_value=0 0.104853 0.180611 0.24232 0.492585
internal_weight=0 11.9082 10.681 9.81875 4.18785
internal_count=150 116 94 65 44
shrinkage=0.1


Tree=150
num_leaves=5
num_cat=0
split_feature=2 1 1 3
split_gain=0.881504 0.751442 0.105742 0.0106603
threshold=5.1500000000000012 2.8500000000000001 3.1500000000000008 0.25000000000000006
decision_type=2 2 2 2
left_child=1 -1 -3 -4
right_child=-2 2 3 -5
leaf_value=0.01302681649685304 0.05469521911484343 -0.03064833572442361 -0.050562516564211762 -0.067999557644604636
leaf_weight=5.4615875333547574 2.4740579873323449 2.9209239520132542 0.51257508248090733 1.1095898887142537
leaf_count=39 34 33 24 20
internal_value=0 -0.119687 -0.420177 -0.624898
internal_weight=0 10.0047 4.54309 1.62216
internal_count=150 116 77 44
shrinkage=0.1


Tree=151
num_leaves=1
num_cat=0
split_feature=
split_gain=
threshold=
decision_type=
left_child=
right_child=
leaf_value=0
leaf_weight=
leaf_count=
internal_value=
internal_weight=
internal_count=
shrinkage=1


Tree=152
num_leaves=5
num_cat=0
split_feature=3 1 3 3
split_gain=1.27482 0.0739211 0.00100009 1.38945e-05
threshold=1.0500000000000003 3.2500000000000004 1.3500000000000003 1.8500000000000003
decision_type=2 2 2 2
left_child=1 -1 -2 -4
right_child=2 -3 3 -5
leaf_value=0.020616239736624083 -0.055131132364032345 0.052756833348162127 -0.05121472939174454 -0.050721503727328782
leaf_weight=1.240505635738373 0.78646866604685806 1.6910853646695612 1.5078392438590529 0.91941238567233086
leaf_count=24 21 33 38 34
internal_value=0 0.391565 -0.520321 -0.510279
internal_weight=0 2.93159 3.21372 2.42725
internal_count=150 57 93 72
shrinkage=0.1


Tree=153
num_leaves=6
num_cat=0
split_feature=3 0 2 2 1
split_gain=0.545661 0.54247 0.425132 0.419923 0.0149111
threshold=1.8500000000000003 4.9500000000000011 1.8 4.7500000000000009 2.8500000000000001
decision_type=2 2 2 2 2
left_child=1 -1 -3 4 -4
right_child=-2 2 3 -5 -6
leaf_value=-0.054302604692806594 -0.052395765394068462 -0.052175619964762249 0.054282067926176125 0.0059156806822979677 0.041896554019635046
leaf_weight=1.1620550788938988 1.572406359016896 0.80042493902146705 2.1614769734442221 5.507495628669858 1.7664085663855074
leaf_count=22 34 29 23 21 21
internal_value=0 0.10445 0.177957 0.237316 0.487122
internal_weight=0 11.3979 10.2358 9.43538 3.92789
internal_count=150 116 94 65 44
shrinkage=0.1


Tree=154
num_leaves=5
num_cat=0
split_feature=3 1 3 0
split_gain=0.813099 0.614021 0.451854 0.00920815
threshold=1.8500000000000003 3.0500000000000003 1.3500000000000003 5.2500000000000009
decision_type=2 2 2 2
left_child=1 2 -1 -3
right_child=-2 3 -4 -5
leaf_value=-0.051076993850763155 0.052839353013081548 -0.050526815713106743 0.012630839193046731 -0.065207162164571925
leaf_weight=1.3551682978868465 2.4417674615979204 0.6133293975144628 6.2377272993326187 1.4084310308098791
leaf_count=36 34 31 28 21
internal_value=0 -0.117799 0.0126036 -0.607537
internal_weight=0 9.61466 7.5929 2.02176
internal_count=150 116 64 52
shrinkage=0.1


Tree=155
num_leaves=1
num_cat=0
split_feature=
split_gain=
threshold=
decision_type=
left_child=
right_child=
leaf_value=0
leaf_weight=
leaf_count=
internal_value=
internal_weight=
internal_count=
shrinkage=1


Tree=156
num_leaves=6
num_cat=0
split_feature=2 1 3 2 1
split_gain=1.16503 0.0422592 1.09072e-05 5.37543e-06 3.96124e-06
threshold=3.1500000000000004 3.3500000000000001 1.8500000000000003 4.7500000000000009 2.8500000000000001
decision_type=2 2 2 2 2
left_child=1 -1 3 4 -2
right_child=2 -3 -4 -5 -6
leaf_value=0.026991728462959993 -0.051090125117241418 0.052240754836594516 -0.050652737344487636 -0.051271953949849347 -0.050738930504841698
leaf_weight=1.3165611922740938 0.81884665600955553 1.3350729979574678 0.8334930073469875 0.86379920691251744 0.52843410708010197
leaf_count=20 24 31 34 21 20
internal_value=0 0.397044 -0.50961 -0.510772 -0.509524
internal_weight=0 2.65163 3.04457 2.21108 1.34728
internal_count=150 51 99 65 44
shrinkage=0.1


Tree=157
num_leaves=6
num_cat=0
split_feature=2 0 2 2 1
split_gain=0.499581 0.488768 0.372918 0.405519 0.0148135
threshold=5.1500000000000012 4.9500000000000011 1.8 4.7500000000000009 2.8500000000000001
decision_type=2 2 2 2 2
left_child=1 -1 -3 4 -4
right_child=-2 2 3 -5 -6
leaf_value=-0.052943263894337927 -0.054349994743964861 -0.051974621117442645 0.05393729245051563 0.0053302556060446258 0.04116729534564207
leaf_weight=1.1139037990942586 1.3596580959856517 0.72857739962637313 2.0077186040580259 5.5672033429145813 1.6590293049812315
leaf_count=22 34 29 23 21 21
internal_value=0 0.0987882 0.169029 0.223375 0.481595
internal_weight=0 11.0764 9.96253 9.23395 3.66675
internal_count=150 116 94 65 44
shrinkage=0.1


Tree=158
num_leaves=5
num_cat=0
split_feature=2 1 1 3
split_gain=0.738576 0.652512 0.100763 0.00739867
threshold=5.1500000000000012 2.8500000000000001 3.1500000000000008 0.25000000000000006
decision_type=2 2 2 2
left_child=1 -1 -3 -4
right_child=-2 2 3 -5
leaf_value=0.012791224653577633 0.05430589176067712 -0.028957476540229194 -0.050464577282586853 -0.066208797978781986
leaf_weight=5.2257971726357919 2.1379372403025636 2.7596921622753143 0.42237323522567738 1.0175370872020719
leaf_count=39 34 33 24 20
internal_value=0 -0.107957 -0.401463 -0.615905
internal_weight=0 9.4254 4.1996 1.43991
internal_count=150 116 77 44
shrinkage=0.1


Tree=159
num_leaves=1
num_cat=0
split_feature=
split_gain=
threshold=
decision_type=
left_child=
right_child=
leaf_value=0
leaf_weight=
leaf_count=
internal_value=
internal_weight=
internal_count=
shrinkage=1


Tree=160
num_leaves=6
num_cat=0
split_feature=3 1 2 2 3
split_gain=1.07618 0.0943301 0.000540679 5.96394e-05 5.34293e-06
threshold=0.45000000000000007 3.1500000000000008 4.2500000000000009 1.4500000000000002 1.8500000000000003
decision_type=2 2 2 2 2
left_child=3 2 -2 -1 -4
right_child=1 -3 4 -5 -6
leaf_value=0.051012325834856632 -0.053889323872110012 -0.013053486425625106 -0.050988083769748782 0.052139155065240778 -0.050592687793496474
leaf_weight=0.87995446287095536 0.92811837047338563 0.82192120514810063 1.1663725450634954 1.0074424818158147 0.48339182697236527
leaf_count=24 23 20 37 24 22
internal_value=0 -0.42553 -0.519585 0.516138 -0.508722
internal_weight=0 3.3998 2.57788 1.8874 1.64976
internal_count=150 102 82 48 59
shrinkage=0.1


Tree=161
num_leaves=6
num_cat=0
split_feature=3 0 2 2 1
split_gain=0.469479 0.44974 0.337172 0.376708 0.0155606
threshold=1.8500000000000003 4.9500000000000011 1.8 4.7500000000000009 2.8500000000000001
decision_type=2 2 2 2 2
left_child=1 -1 -3 4 -4
right_child=-2 2 3 -5 -6
leaf_value=-0.051702137633681172 -0.052213967447326731 -0.051829074930128262 0.053816708672096231 0.0055565468499792483 0.040320303718787379
leaf_weight=1.0656361253932107 1.3727383390069015 0.66641860362142236 1.9036462977528557 5.4572300314903259 1.5496710203588007
leaf_count=22 34 29 23 21 21
internal_value=0 0.0992417 0.167814 0.219127 0.477602
internal_weight=0 10.6426 9.57697 8.91055 3.45332
internal_count=150 116 94 65 44
shrinkage=0.1


Tree=162
num_leaves=5
num_cat=0
split_feature=3 1 3 0
split_gain=0.682612 0.550323 0.393008 0.00661359
threshold=1.8500000000000003 3.0500000000000003 1.3500000000000003 5.2500000000000009
decision_type=2 2 2 2
left_child=1 2 -1 -3
right_child=-2 3 -4 -5
leaf_value=-0.050945072191883968 0.052555471258360409 -0.050447207269856589 0.011851044944980446 -0.063850641959777812
leaf_weight=1.1915382780134658 2.1014906149357566 0.51434472762048233 6.0928769335150719 1.2950277291238306
leaf_count=36 34 31 28 21
internal_value=0 -0.106811 0.0157926 -0.600405
internal_weight=0 9.09379 7.28442 1.80937
internal_count=150 116 64 52
shrinkage=0.1


Tree=163
num_leaves=1
num_cat=0
split_feature=
split_gain=
threshold=
decision_type=
left_child=
right_child=
leaf_value=0
leaf_weight=
leaf_count=
internal_value=
internal_weight=
internal_count=
shrinkage=1


Tree=164
num_leaves=5
num_cat=0
split_feature=3 1 3 3
split_gain=0.984521 0.0625979 0.000562698 1.09118e-05
threshold=1.0500000000000003 3.2500000000000004 1.3500000000000003 1.8500000000000003
decision_type=2 2 2 2
left_child=1 -1 -2 -4
right_child=2 -3 3 -5
leaf_value=0.019219233164192551 -0.054329165310872722 0.052380162007192588 -0.051048350986829097 -0.05055633786854772
leaf_weight=1.000579755753279 0.61962804850190911 1.3205452822148798 1.2535780165344474 0.70384738035500038
leaf_count=24 21 33 38 34
internal_value=0 0.380853 -0.517028 -0.508714
internal_weight=0 2.32113 2.57705 1.95743
internal_count=150 57 93 72
shrinkage=0.1


Tree=165
num_leaves=6
num_cat=0
split_feature=2 0 2 2 1
split_gain=0.427971 0.403759 0.302969 0.360645 0.0153377
threshold=5.1500000000000012 4.9500000000000011 1.8 4.7500000000000009 2.8500000000000001
decision_type=2 2 2 2 2
left_child=1 -1 -3 4 -4
right_child=-2 2 3 -5 -6
leaf_value=-0.050749435873252952 -0.054079340969102878 -0.051804305483696501 0.053506366223894944 0.0050327930167682715 0.039634633674188867
leaf_weight=1.0111704999580968 1.1887773331254727 0.61939945444464573 1.7509064935147747 5.5037600211799145 1.4631549268960951
leaf_count=22 34 29 23 21 21
internal_value=0 0.0927406 0.157743 0.205757 0.471915
internal_weight=0 10.3484 9.33722 8.71782 3.21406
internal_count=150 116 94 65 44
shrinkage=0.1


Tree=166
num_leaves=5
num_cat=0
split_feature=2 1 1 3
split_gain=0.621502 0.564925 0.0951573 0.00486785
threshold=5.1500000000000012 2.8500000000000001 3.1500000000000008 0.25000000000000006
decision_type=2 2 2 2
left_child=1 -1 -3 -4
right_child=-2 2 3 -5
leaf_value=0.012502943693020206 0.053957689218862792 -0.027286190037676506 -0.050383561952394733 -0.064229989450204444
leaf_weight=5.009465564042328 1.8506294768303639 2.6182756908237939 0.34788943547755458 0.93976771645247925
leaf_count=39 34 33 24 20
internal_value=0 -0.0972462 -0.382321 -0.604891
internal_weight=0 8.9154 3.90593 1.28766
internal_count=150 116 77 44
shrinkage=0.1


Tree=167
num_leaves=1
num_cat=0
split_feature=
split_gain=
threshold=
decision_type=
left_child=
right_child=
leaf_value=0
leaf_weight=
leaf_count=
internal_value=
internal_weight=
internal_count=
shrinkage=1


Tree=168
num_leaves=6
num_cat=0
split_feature=3 1 2 2 3
split_gain=0.911368 0.0804801 0.000307224 5.3209e-05 4.17523e-06
threshold=0.45000000000000007 3.1500000000000008 4.2500000000000009 1.4500000000000002 1.8500000000000003
decision_type=2 2 2 2 2
left_child=3 2 -2 -1 -4
right_child=1 -3 4 -5 -6
leaf_value=0.050855423143896274 -0.053217091211969984 -0.013407905428504285 -0.050879612899047605 0.05201200579462633 -0.050499578898349919
leaf_weight=0.73875354975461949 0.80443578399717885 0.73073684982955445 1.0180464833974836 0.86178367026150227 0.40374035574495776
leaf_count=24 23 20 37 24 22
internal_value=0 -0.422035 -0.516553 0.514782 -0.507717
internal_weight=0 2.95696 2.22622 1.60054 1.42179
internal_count=150 102 82 48 59
shrinkage=0.1


Tree=169
num_leaves=6
num_cat=0
split_feature=0 3 3 0 2
split_gain=0.45561 0.496087 0.417184 0.0934415 7.58105e-05
threshold=6.5500000000000007 1.6500000000000001 0.45000000000000007 5.8500000000000005 1.4500000000000002
decision_type=2 2 2 2 2
left_child=1 2 4 -4 -1
right_child=-2 -3 3 -5 -6
