#@ TextLoader{
#@   header+
#@   sep=tab
#@   col=VectorName:TX:0
#@   col=VectorData:R4:1-784
#@ }
VectorName	Dim0	Dim1	Dim2	Dim3	Dim4	Dim5	Dim6	Dim7	Dim8	Dim9	Dim10	Dim11	Dim12	Dim13	Dim14	Dim15	Dim16	Dim17	Dim18	Dim19	Dim20	Dim21	Dim22	Dim23	Dim24	Dim25	Dim26	Dim27	Dim28	Dim29	Dim30	Dim31	Dim32	Dim33	Dim34	Dim35	Dim36	Dim37	Dim38	Dim39	Dim40	Dim41	Dim42	Dim43	Dim44	Dim45	Dim46	Dim47	Dim48	Dim49	Dim50	Dim51	Dim52	Dim53	Dim54	Dim55	Dim56	Dim57	Dim58	Dim59	Dim60	Dim61	Dim62	Dim63	Dim64	Dim65	Dim66	Dim67	Dim68	Dim69	Dim70	Dim71	Dim72	Dim73	Dim74	Dim75	Dim76	Dim77	Dim78	Dim79	Dim80	Dim81	Dim82	Dim83	Dim84	Dim85	Dim86	Dim87	Dim88	Dim89	Dim90	Dim91	Dim92	Dim93	Dim94	Dim95	Dim96	Dim97	Dim98	Dim99	Dim100	Dim101	Dim102	Dim103	Dim104	Dim105	Dim106	Dim107	Dim108	Dim109	Dim110	Dim111	Dim112	Dim113	Dim114	Dim115	Dim116	Dim117	Dim118	Dim119	Dim120	Dim121	Dim122	Dim123	Dim124	Dim125	Dim126	Dim127	Dim128	Dim129	Dim130	Dim131	Dim132	Dim133	Dim134	Dim135	Dim136	Dim137	Dim138	Dim139	Dim140	Dim141	Dim142	Dim143	Dim144	Dim145	Dim146	Dim147	Dim148	Dim149	Dim150	Dim151	Dim152	Dim153	Dim154	Dim155	Dim156	Dim157	Dim158	Dim159	Dim160	Dim161	Dim162	Dim163	Dim164	Dim165	Dim166	Dim167	Dim168	Dim169	Dim170	Dim171	Dim172	Dim173	Dim174	Dim175	Dim176	Dim177	Dim178	Dim179	Dim180	Dim181	Dim182	Dim183	Dim184	Dim185	Dim186	Dim187	Dim188	Dim189	Dim190	Dim191	Dim192	Dim193	Dim194	Dim195	Dim196	Dim197	Dim198	Dim199	Dim200	Dim201	Dim202	Dim203	Dim204	Dim205	Dim206	Dim207	Dim208	Dim209	Dim210	Dim211	Dim212	Dim213	Dim214	Dim215	Dim216	Dim217	Dim218	Dim219	Dim220	Dim221	Dim222	Dim223	Dim224	Dim225	Dim226	Dim227	Dim228	Dim229	Dim230	Dim231	Dim232	Dim233	Dim234	Dim235	Dim236	Dim237	Dim238	Dim239	Dim240	Dim241	Dim242	Dim243	Dim244	Dim245	Dim246	Dim247	Dim248	Dim249	Dim250	Dim251	Dim252	Dim253	Dim254	Dim255	Dim256	Dim257	Dim258	Dim259	Dim260	Dim261	Dim262	Dim263	Dim264	Dim265	Dim266	Dim267	Dim268	Dim269	Dim270	Dim271	Dim272	Dim273	Dim274	Dim275	Dim276	Dim277	Dim278	Dim279	Dim280	Dim281	Dim282	Dim283	Dim284	Dim285	Dim286	Dim287	Dim288	Dim289	Dim290	Dim291	Dim292	Dim293	Dim294	Dim295	Dim296	Dim297	Dim298	Dim299	Dim300	Dim301	Dim302	Dim303	Dim304	Dim305	Dim306	Dim307	Dim308	Dim309	Dim310	Dim311	Dim312	Dim313	Dim314	Dim315	Dim316	Dim317	Dim318	Dim319	Dim320	Dim321	Dim322	Dim323	Dim324	Dim325	Dim326	Dim327	Dim328	Dim329	Dim330	Dim331	Dim332	Dim333	Dim334	Dim335	Dim336	Dim337	Dim338	Dim339	Dim340	Dim341	Dim342	Dim343	Dim344	Dim345	Dim346	Dim347	Dim348	Dim349	Dim350	Dim351	Dim352	Dim353	Dim354	Dim355	Dim356	Dim357	Dim358	Dim359	Dim360	Dim361	Dim362	Dim363	Dim364	Dim365	Dim366	Dim367	Dim368	Dim369	Dim370	Dim371	Dim372	Dim373	Dim374	Dim375	Dim376	Dim377	Dim378	Dim379	Dim380	Dim381	Dim382	Dim383	Dim384	Dim385	Dim386	Dim387	Dim388	Dim389	Dim390	Dim391	Dim392	Dim393	Dim394	Dim395	Dim396	Dim397	Dim398	Dim399	Dim400	Dim401	Dim402	Dim403	Dim404	Dim405	Dim406	Dim407	Dim408	Dim409	Dim410	Dim411	Dim412	Dim413	Dim414	Dim415	Dim416	Dim417	Dim418	Dim419	Dim420	Dim421	Dim422	Dim423	Dim424	Dim425	Dim426	Dim427	Dim428	Dim429	Dim430	Dim431	Dim432	Dim433	Dim434	Dim435	Dim436	Dim437	Dim438	Dim439	Dim440	Dim441	Dim442	Dim443	Dim444	Dim445	Dim446	Dim447	Dim448	Dim449	Dim450	Dim451	Dim452	Dim453	Dim454	Dim455	Dim456	Dim457	Dim458	Dim459	Dim460	Dim461	Dim462	Dim463	Dim464	Dim465	Dim466	Dim467	Dim468	Dim469	Dim470	Dim471	Dim472	Dim473	Dim474	Dim475	Dim476	Dim477	Dim478	Dim479	Dim480	Dim481	Dim482	Dim483	Dim484	Dim485	Dim486	Dim487	Dim488	Dim489	Dim490	Dim491	Dim492	Dim493	Dim494	Dim495	Dim496	Dim497	Dim498	Dim499	Dim500	Dim501	Dim502	Dim503	Dim504	Dim505	Dim506	Dim507	Dim508	Dim509	Dim510	Dim511	Dim512	Dim513	Dim514	Dim515	Dim516	Dim517	Dim518	Dim519	Dim520	Dim521	Dim522	Dim523	Dim524	Dim525	Dim526	Dim527	Dim528	Dim529	Dim530	Dim531	Dim532	Dim533	Dim534	Dim535	Dim536	Dim537	Dim538	Dim539	Dim540	Dim541	Dim542	Dim543	Dim544	Dim545	Dim546	Dim547	Dim548	Dim549	Dim550	Dim551	Dim552	Dim553	Dim554	Dim555	Dim556	Dim557	Dim558	Dim559	Dim560	Dim561	Dim562	Dim563	Dim564	Dim565	Dim566	Dim567	Dim568	Dim569	Dim570	Dim571	Dim572	Dim573	Dim574	Dim575	Dim576	Dim577	Dim578	Dim579	Dim580	Dim581	Dim582	Dim583	Dim584	Dim585	Dim586	Dim587	Dim588	Dim589	Dim590	Dim591	Dim592	Dim593	Dim594	Dim595	Dim596	Dim597	Dim598	Dim599	Dim600	Dim601	Dim602	Dim603	Dim604	Dim605	Dim606	Dim607	Dim608	Dim609	Dim610	Dim611	Dim612	Dim613	Dim614	Dim615	Dim616	Dim617	Dim618	Dim619	Dim620	Dim621	Dim622	Dim623	Dim624	Dim625	Dim626	Dim627	Dim628	Dim629	Dim630	Dim631	Dim632	Dim633	Dim634	Dim635	Dim636	Dim637	Dim638	Dim639	Dim640	Dim641	Dim642	Dim643	Dim644	Dim645	Dim646	Dim647	Dim648	Dim649	Dim650	Dim651	Dim652	Dim653	Dim654	Dim655	Dim656	Dim657	Dim658	Dim659	Dim660	Dim661	Dim662	Dim663	Dim664	Dim665	Dim666	Dim667	Dim668	Dim669	Dim670	Dim671	Dim672	Dim673	Dim674	Dim675	Dim676	Dim677	Dim678	Dim679	Dim680	Dim681	Dim682	Dim683	Dim684	Dim685	Dim686	Dim687	Dim688	Dim689	Dim690	Dim691	Dim692	Dim693	Dim694	Dim695	Dim696	Dim697	Dim698	Dim699	Dim700	Dim701	Dim702	Dim703	Dim704	Dim705	Dim706	Dim707	Dim708	Dim709	Dim710	Dim711	Dim712	Dim713	Dim714	Dim715	Dim716	Dim717	Dim718	Dim719	Dim720	Dim721	Dim722	Dim723	Dim724	Dim725	Dim726	Dim727	Dim728	Dim729	Dim730	Dim731	Dim732	Dim733	Dim734	Dim735	Dim736	Dim737	Dim738	Dim739	Dim740	Dim741	Dim742	Dim743	Dim744	Dim745	Dim746	Dim747	Dim748	Dim749	Dim750	Dim751	Dim752	Dim753	Dim754	Dim755	Dim756	Dim757	Dim758	Dim759	Dim760	Dim761	Dim762	Dim763	Dim764	Dim765	Dim766	Dim767	Dim768	Dim769	Dim770	Dim771	Dim772	Dim773	Dim774	Dim775	Dim776	Dim777	Dim778	Dim779	Dim780	Dim781	Dim782	Dim783
EigenVector0	0	0	0	0	0	0	0	0	0	0	0	0	0	0	0	0	0	0	0	0	0	0	0	0	0	0	0	0	0	0	0	0	0	0	0	0	0	0	0	0	0	0	0	0	0	0	0	0	0	0	0	0	0	0	0	0	0	0	0	0	0	0	0	0	0	0	0	0	0	0	0	0	0	0	0	0	0	0	0	0	0	0	0	0	0	0	0	0	0	0	0	0	-0.000223780546	-0.000223780546	-0.000117276992	0.00038434568	0.0011509934	0.000925706641	-1.12870939E-05	-0.003779042	-0.00523369666	-0.002946161	-0.001068195	-0.0009905369	-0.00212138752	-0.002592949	-0.00141029793	-0.00169901329	0	0	0	0	0	0	0	0	0.000688047148	0.000688047148	0.00124839484	0.0014681794	0.0024544592	0.004403018	0.008023287	0.0113363462	0.0183012486	0.0197672267	0.0132182343	-0.00396380248	-0.0216559283	-0.0375786833	-0.041591648	-0.033042606	-0.0213808455	-0.0134174312	-0.00638361275	-0.00185811834	0	0	0	0	0	0	0	0	0.00030307172	0.00057085295	0.0017295311	0.003310689	0.00747783855	0.0166782029	0.0299497172	0.04608271	0.0562591478	0.0536527075	0.0400383025	0.0120794838	-0.0118582789	-0.03229554	-0.0462107	-0.04378983	-0.0358969867	-0.0241151024	-0.011405739	-0.0020686218	-0.000331555	0	0	0	0	0	0	0	0.00030307172	0.000749516767	0.00272962	0.006696703	0.0178541932	0.03954985	0.0662974	0.08165101	0.07833975	0.05856272	0.031138856	0.0154664209	0.002527211	-0.0124620106	-0.0275104158	-0.0342815742	-0.0319887474	-0.0281723719	-0.0192641132	-0.00602336	-0.0014674894	-0.00067222846	0	0	0	0	0	0	0.000653153751	0.00175530522	0.00515181152	0.0148593476	0.0395630449	0.0738789141	0.0965644345	0.0894639939	0.0638981	0.0282807518	0.00351666124	-0.00315873814	-0.000700109755	-5.58304819E-05	-0.00650400156	-0.01016431	-0.012458412	-0.0152899548	-0.0151486164	-0.01131454	-0.00258623087	-0.0006944423	0	0	0	0	0	0	0.000526449643	0.00281876628	0.0100780083	0.03307128	0.0696801245	0.100291006	0.09842569	0.06300375	0.01491026	-0.0204649717	-0.0383576937	-0.0344813168	-0.0158079453	0.001436586	0.004883515	0.00345156132	0.006658318	0.007049613	-0.000410958863	-0.008390498	-0.00253638532	-0.000712894369	0	0	0	0	-0.0004612516	-0.0004612516	0.00123469834	0.00566054927	0.0241219345	0.0598138571	0.09744986	0.106001846	0.06809801	0.0005970492	-0.04646927	-0.0685823858	-0.06523504	-0.0440735668	-0.021607874	-0.00938487053	-0.00748518	-0.00262537552	0.0100951316	0.0249824058	0.018427169	0.0030918296	4.2068863E-05	-0.000321248226	0	0	0	0	-0.0004612516	-0.0004612516	0.000279701053	0.0130325947	0.0424475744	0.08478454	0.110023804	0.08426325	0.0113641405	-0.060229592	-0.09078718	-0.08420933	-0.06187495	-0.0334557071	-0.0153328255	-0.0127415042	-0.0237881746	-0.0203673076	-0.00244233874	0.0283901989	0.0389547832	0.0201809574	0.005959871	-0.000321248226	0	0	0	0	0	0	0.00126331416	0.026562877	0.06470455	0.105398834	0.100176506	0.0368886851	-0.0444599949	-0.100695319	-0.100573651	-0.07454825	-0.0425576419	-0.01894075	-0.008074033	-0.0118288873	-0.0336518548	-0.0460222252	-0.02272826	0.0218080878	0.0534852035	0.0411063954	0.0131428195	-0.000321248226	0	0	0	0	0	0	0.00516004162	0.0401704647	0.08507922	0.107806355	0.0670670047	-0.0187724326	-0.0897881761	-0.113607571	-0.08766881	-0.05039129	-0.021147605	-0.006748004	-0.00444134464	-0.0141004613	-0.04621914	-0.06529579	-0.04532931	0.0129090128	0.06569811	0.06377938	0.0248701237	0.000863090449	0	0	0	0	0	7.7779674E-05	0.008814024	0.0530173443	0.09398889	0.09203111	0.0254513	-0.0616347231	-0.109389521	-0.10186632	-0.0624581277	-0.0183072928	-0.004845213	-0.00310547277	-0.00443967	-0.0222866312	-0.05713156	-0.07965135	-0.0636098757	0.007970326	0.07243164	0.07856055	0.03423883	0.001067923	0	0	0	0	0	7.7779674E-05	0.0115036424	0.06322674	0.09334813	0.06654612	-0.00928902347	-0.08477853	-0.10442362	-0.07730337	-0.0323116779	-0.00643541431	-0.00195918232	-0.00296971668	-0.009665065	-0.0323319063	-0.07209021	-0.0935762748	-0.06951205	0.0115289222	0.0821409	0.08690288	0.03982881	0.00110468781	0	0	0	0	0	7.7779674E-05	0.0149176093	0.0654157251	0.07797761	0.0437972136	-0.03415811	-0.08779344	-0.08710287	-0.0485133044	-0.014243776	-0.00274012075	-0.00158601324	-0.004088857	-0.01917951	-0.05164314	-0.09171301	-0.101949096	-0.0580678433	0.03301923	0.094877556	0.09035827	0.0380260646	0.00091561157	0	0	0	0	0	-6.443192E-05	0.0142954309	0.0567879081	0.0644267	0.0281469859	-0.0395698361	-0.07755748	-0.06547546	-0.02858379	-0.007911257	-0.00174429128	-0.00375907635	-0.0129561257	-0.0376901962	-0.0797391757	-0.107852213	-0.09487876	-0.027677631	0.06293516	0.104447193	0.0852972344	0.0323456749	0.000863090449	0	0	0	0	0	-0.000263408729	0.006783958	0.039665278	0.0498606861	0.0154692372	-0.025556894	-0.0539441071	-0.04377668	-0.0171868112	-0.00739832642	-0.006456318	-0.0145407747	-0.0353573076	-0.06770105	-0.103980429	-0.109266244	-0.0622286536	0.0236690175	0.0938186347	0.104036927	0.06918576	0.0210601334	0.000394339964	0	0	0	0	0	-0.0003893352	-0.004569731	0.0208067745	0.03207263	0.0182694513	-0.003107673	-0.0241898354	-0.0255807657	-0.0148465522	-0.0128682368	-0.0190361645	-0.0385210067	-0.06642993	-0.0967669	-0.10545256	-0.0749275461	-0.00270122429	0.07554446	0.108946346	0.09075128	0.04787598	0.0119647989	0.000394339964	0	0	0	-0.000675244955	-0.000675244955	-0.00120619545	-0.0122959716	-0.0009836432	0.0141044157	0.0217509679	0.0196850784	0.00168967294	-0.012087605	-0.0158588775	-0.0234119669	-0.0434055179	-0.06361428	-0.08220738	-0.0891592	-0.06882347	-0.008070546	0.06726219	0.108051509	0.0995639041	0.06119125	0.02306811	0.00434468547	0	0	0	0	-0.000675244955	-0.000675244955	-0.00121702615	-0.0143460166	-0.0194122083	-0.0107992142	0.0102268308	0.0203507189	0.0154477963	0.00191840623	-0.0208525229	-0.0377495326	-0.05344337	-0.06331551	-0.0602047928	-0.0423422828	0.00466287741	0.07072304	0.106881961	0.101359218	0.0684059039	0.0299123265	0.00770726753	0.00207331846	0	0	0	0	0	0	0	-0.0107625965	-0.0259850435	-0.03212832	-0.018196499	-0.00160521828	0.003870985	-0.002571714	-0.0122271078	-0.02088927	-0.02743639	-0.02490119	-0.008751675	0.0325197242	0.0816888139	0.102646336	0.09410236	0.06496936	0.030034747	0.008138331	0.0019786153	0.000144363526	0	-0.00063082343	0	0	0	0	0	-0.004983024	-0.018053202	-0.03393237	-0.0429907851	-0.0301595833	-0.0175462216	-0.01245099	-0.007783659	0.0009717214	0.0111836242	0.0309666246	0.0604523942	0.08483525	0.0925093	0.07722461	0.0506385081	0.021986153	0.007031613	0.00251088152	0.000600348751	-0.000130181084	-0.000597011356	-0.000630823546	0	0	0	0	0	-0.000691214635	-0.005400566	-0.0168070085	-0.0321198963	-0.04194862	-0.0335788839	-0.0214256	-0.00431069732	0.0195520725	0.0412540063	0.060856197	0.06797326	0.06488967	0.04990636	0.02883314	0.0121107865	0.004354339	0.00175202009	0.000915210752	-1.355462E-05	-0.000130181143	0	0	0	0	0	0	0	-1.90449045E-05	-0.0005997789	-0.00190330227	-0.0037819955	-0.00606364524	-0.00549920835	-0.00204551965	0.00342511968	0.0121953813	0.0203196276	0.0221757255	0.0215082783	0.0163218714	0.008228217	0.0033621022	0.00141547539	0.0004497577	0.000394339964	0	0	0	0	0	0	0	0	0	0	0	0	0	0	0	0	-0.0003617274	-0.0003617274	0.000883103232	0.000883103232	0.000883103232	0.000883103232	0.000883103232	0	0	0	0	0	0	0	0	0	0	0	0	0	0	0	0	0	0	0	0	0	0	0	0	0	0	0	0	0	0	0	0	0	0	0	0	0	0	0	0	0	0	0	0	0	0	0	0	0	0	0	0	0	0	0	0	0	0	0	0	0	0	0	0	0	0	0
EigenVector1	0	0	0	0	0	0	0	0	0	0	0	0	0	0	0	0	0	0	0	0	0	0	0	0	0	0	0	0	0	0	0	0	0	0	0	0	0	0	0	0	0	0	0	0	0	0	0	0	0	0	0	0	0	0	0	0	0	0	0	0	0	0	0	0	0	0	0	0	0	0	0	0	0	0	0	0	0	0	0	0	0	0	0	0	0	0	0	0	0	0	0	0	-0.000617227342	-0.000617227342	-0.0007334008	-0.001290515	-0.00193345349	-0.00375444046	-0.00364770321	-0.00645578839	-0.004909427	-0.001220867	0.000846849347	0.00260329153	0.003542592	0.00340353418	0.002019244	0.00249913265	0	0	0	0	0	0	0	0	0.0003386612	0.0003386612	-0.00123574887	-0.00126327993	-0.00158475363	-0.00358395558	-0.007015768	-0.011470831	-0.02339517	-0.0407730825	-0.0471258163	-0.04001862	-0.01967657	0.006500243	0.0253262389	0.0331222937	0.0282112379	0.0185599979	0.009484985	0.00277479342	0	0	0	0	0	0	0	0	0.000561596244	0.000431817345	-0.000923218031	-0.0009969549	-0.00301140035	-0.009137699	-0.0192697588	-0.03648355	-0.06074091	-0.07922041	-0.07986714	-0.0593163148	-0.0253121015	0.0104928212	0.0448453538	0.0654017255	0.0639028	0.04517372	0.0215512421	0.005649554	0.00164744619	0	0	0	0	0	0	0	0.000561596244	0.0005713587	-0.0006189397	-0.000752042	-0.00602327473	-0.0175023433	-0.0367610119	-0.0542126633	-0.06668932	-0.05824191	-0.04006267	-0.0158581212	0.0063205203	0.0197386984	0.0515822358	0.0890179351	0.103781782	0.08609326	0.0504515842	0.0183885861	0.00215538451	0.000701264245	0	0	0	0	0	0	0.000294953585	-0.0008002418	-0.00170505431	-0.00374009879	-0.01165801	-0.0260010138	-0.0395017676	-0.04313962	-0.0312690772	-0.00536541827	0.0162071884	0.03186661	0.026630139	0.0218732655	0.0325724557	0.06523904	0.106866777	0.118708938	0.0876787156	0.0403335132	0.00586076453	0.0007236779	0	0	0	0	0	0	6.642383E-05	-0.0004560625	-0.002865972	-0.006656089	-0.0111101419	-0.0224482026	-0.0223880559	-0.0102046728	0.0155775072	0.0488577522	0.0614181571	0.06104237	0.0391192734	0.0105771264	-0.00485394849	0.01980225	0.07625337	0.121886171	0.115179367	0.06367905	0.0126992213	0.0007327005	0	0	0	0	-0.000630368246	-0.000630368246	-0.000469818449	-0.0012921032	-0.004527935	-0.00365987513	-0.00261436682	-0.006549459	0.0033753505	0.0231540389	0.0456600748	0.06822372	0.07116486	0.06387681	0.0326344222	-0.007859513	-0.03766041	-0.0276997518	0.0305214133	0.10591086	0.12894778	0.0835268646	0.0204441659	0.0003241381	0	0	0	0	-0.000630368246	-0.0006303682	-0.000266744319	-0.00184358831	0.00226935	0.00900227949	0.012704663	0.0182934143	0.0270342529	0.0373037122	0.05402819	0.0637844	0.0583196357	0.0426807366	0.014550061	-0.0172881372	-0.0554732345	-0.058336515	-0.00772984326	0.08656338	0.130866289	0.0976308063	0.028182	0.0003241381	0	0	0	0	0	0	0.0003361986	0.00228675082	0.0128311813	0.02693357	0.03723827	0.03527585	0.03445018	0.0364142545	0.04597597	0.04123376	0.03430993	0.0203801822	0.00746528758	-0.0222432669	-0.05644563	-0.0685585141	-0.0310924556	0.06565157	0.1253493	0.1056468	0.03356342	0.0003241381	0	0	0	0	0	0	0.001048755	0.008505498	0.0287812967	0.0501359142	0.0611660331	0.0389411226	0.0185015164	0.01940233	0.0203417428	0.0200501569	0.0151138147	0.00712406356	-0.0008718497	-0.020692667	-0.0510638542	-0.0643361658	-0.0331156477	0.0541104	0.114113048	0.102833487	0.0333152525	6.71284142E-05	0	0	0	0	0	-0.000354696647	0.00344042736	0.02308568	0.0564744435	0.0766345859	0.0663276538	0.0217788946	-0.00564511726	-0.004915279	0.00120297109	0.00780568132	0.00669208448	0.00376382517	-0.00284321932	-0.0183727555	-0.04886341	-0.0567631945	-0.0246173274	0.0497527644	0.101499088	0.09144932	0.0307290368	6.505257E-05	0	0	0	0	0	-0.000354696647	0.007852676	0.0462950319	0.08514731	0.09234301	0.0469885	-0.005340974	-0.0331503227	-0.0252325665	-0.009086029	0.00169205945	0.00514626363	0.00357965543	-0.0008145095	-0.0174871814	-0.0375071131	-0.0391938649	-0.00455347262	0.0554564223	0.08982416	0.07411486	0.0254002884	6.467999E-05	0	0	0	0	0	-0.000354696647	0.0151983136	0.07319757	0.111342728	0.08956399	0.021216847	-0.03781807	-0.0548665933	-0.03203719	-0.0113436971	-0.0005381754	0.00174171559	0.00101086136	-0.00252397242	-0.0120736621	-0.0227392148	-0.0139282867	0.0141344275	0.0589281842	0.07228563	0.0539359562	0.0160456859	6.65961052E-05	0	0	0	0	0	-0.000205000266	0.025225617	0.09970819	0.126646355	0.08212947	-0.007914462	-0.0685851	-0.06780114	-0.0317795724	-0.0110504162	-0.0027525574	0.000735451642	0.00326577853	0.004505682	0.00478077773	-0.002071259	0.0112224892	0.0307106581	0.05834685	0.0513921566	0.0304550715	0.009081828	6.71283851E-05	0	0	0	0	0	0.000434067071	0.03879292	0.1204399	0.135115191	0.07167391	-0.0305303838	-0.08464407	-0.0721310452	-0.0287393089	-0.0078265965	0.0008673445	0.00738516357	0.01833296	0.0270453934	0.0307601076	0.0275718048	0.030471988	0.0391955636	0.0413521528	0.03091162	0.0137990508	0.003736228	-0.0005414478	0	0	0	0	0	0.000894812751	0.0470295623	0.128517434	0.141596973	0.06963947	-0.0322139822	-0.0801984146	-0.06059964	-0.0199654382	0.0055776774	0.0199100859	0.036169298	0.0514673032	0.05665805	0.0508663468	0.03854082	0.0295630656	0.0244572368	0.0185247529	0.010531324	0.00394210033	0.000119035343	-0.0005414478	0	0	0	-0.0008375748	-0.0008375748	0.00136838178	0.04886895	0.123410612	0.144800425	0.0824807659	-0.0137893716	-0.0615159459	-0.0427186936	0.002470455	0.0381007865	0.06053486	0.07533314	0.07733125	0.06388786	0.0397072025	0.0212950632	0.00484131742	-0.0005657608	0.000455607544	-0.00197952986	-0.00264732377	-0.001105214	0	0	0	0	-0.0008375748	-0.0008375748	0.0004756158	0.0420165025	0.106145166	0.139903128	0.104774907	0.0331404023	-0.015925169	-0.009611802	0.0270746332	0.06286414	0.0798600242	0.08153403	0.05995429	0.0264859423	-0.0007813521	-0.0158959758	-0.0205080155	-0.0134035293	-0.009022349	-0.00633520866	-0.00249840412	-0.00129075581	0	0	0	0	0	0	0	0.026810715	0.07696359	0.120851263	0.123113237	0.07612437	0.02897337	0.0100899572	0.02054326	0.0432979949	0.0432512239	0.0245924387	-0.004249743	-0.0323445946	-0.04083907	-0.0407864042	-0.0289336164	-0.0183959976	-0.009631188	-0.0040248693	-0.00130339956	0.0001288499	0	-0.000582959445	0	0	0	0	0	0.0111185489	0.0387447365	0.07980843	0.105167672	0.09597901	0.05802423	0.0142366933	-0.008522879	-0.0226624478	-0.0374995433	-0.0558492728	-0.06800298	-0.06428657	-0.0513208173	-0.036452055	-0.0225851	-0.0104069151	-0.00403039251	-0.00231019687	-0.0009017301	0.0004649049	-0.0009811592	-0.0005829596	0	0	0	0	0	0.00200720783	0.0100766411	0.0292885285	0.05202941	0.0645740554	0.05073687	0.0146913519	-0.0273587015	-0.06071005	-0.0746158138	-0.0754769146	-0.06446205	-0.04883166	-0.0299387537	-0.0169033669	-0.007453042	-0.00348749757	-0.00154923	-0.00140703085	0.000248282624	0.000464904762	0	0	0	0	0	0	0	0.00108218135	0.00186298555	0.00376667152	0.00584476953	0.00952347647	0.01084873	0.00251175184	-0.0112847872	-0.023556916	-0.0259932131	-0.0255029183	-0.019291291	-0.0111914771	-0.005934193	-0.002533572	-0.00119932462	-0.000615007943	-0.0005414478	0	0	0	0	0	0	0	0	0	0	0	0	0	0	0	0	-0.0007927078	-0.0007927078	0.000200813723	0.000200813723	0.000200813723	0.000200813723	0.000200813723	0	0	0	0	0	0	0	0	0	0	0	0	0	0	0	0	0	0	0	0	0	0	0	0	0	0	0	0	0	0	0	0	0	0	0	0	0	0	0	0	0	0	0	0	0	0	0	0	0	0	0	0	0	0	0	0	0	0	0	0	0	0	0	0	0	0	0
EigenVector2	0	0	0	0	0	0	0	0	0	0	0	0	0	0	0	0	0	0	0	0	0	0	0	0	0	0	0	0	0	0	0	0	0	0	0	0	0	0	0	0	0	0	0	0	0	0	0	0	0	0	0	0	0	0	0	0	0	0	0	0	0	0	0	0	0	0	0	0	0	0	0	0	0	0	0	0	0	0	0	0	0	0	0	0	0	0	0	0	0	0	0	0	-0.000660022	-0.000660022	-0.000928515859	-0.00228374312	-0.00225876132	-0.00230029249	-0.00215830165	-0.00342773041	-0.00332847051	-0.00240082829	-0.001202964	-0.000276682258	0.00142454414	0.00152910838	0.000627844071	0.000403734884	0	0	0	0	0	0	0	0	-0.000474855653	-0.000474855653	0.0007938223	-1.20328622E-07	-0.00103231892	-0.00430768542	-0.00657129334	-0.008823571	-0.0183435138	-0.0294232462	-0.0476727448	-0.05168113	-0.04465146	-0.02920662	-0.020693114	-0.0076904553	-0.000198994225	0.00366885285	0.003461271	0.00224329112	0	0	0	0	0	0	0	0	0.0007452779	-0.00112835935	0.000128551837	-0.000513948	-0.0020896527	-0.00837507751	-0.0143964989	-0.026127331	-0.0458224341	-0.07180691	-0.08609843	-0.08445873	-0.07836107	-0.0517228469	-0.0302815363	-0.0165942889	-0.00234521413	0.00336901867	0.004201681	0.000552837446	-0.00128182687	0	0	0	0	0	0	0	0.0007452779	-0.00142367778	0.00165260874	0.00116429792	-0.00607289	-0.009159421	-0.0278286133	-0.06040225	-0.0890536755	-0.104953878	-0.09808121	-0.08422757	-0.07497256	-0.0536339171	-0.0444119871	-0.0279357638	-0.00766957831	0.00841534	0.0151603324	0.00621911231	0.00120204559	-0.0007505143	0	0	0	0	0	0	0.000292880432	-0.000393229	0.0009364472	0.00157903344	-0.00413351366	-0.0209020562	-0.059493795	-0.09477703	-0.103987396	-0.09975663	-0.07869013	-0.0600422956	-0.0507495962	-0.0419639349	-0.04516993	-0.042023994	-0.019155385	0.00472310558	0.0179746468	0.0143346312	0.00388460536	-0.0006922417	0	0	0	0	0	0	-4.774771E-05	0.00208804966	0.00439940253	0.007132656	-0.0111130048	-0.04607709	-0.08347729	-0.101860337	-0.0971407443	-0.06883336	-0.04355118	-0.0266538486	-0.0243723318	-0.0336572565	-0.04879786	-0.05803635	-0.0451619625	-0.01247218	0.0169409066	0.0228342041	0.004904346	0.000405458733	0	0	0	0	0.00047688678	0.00047688678	-0.000691813533	0.0036311585	0.00909402	0.0009784115	-0.0266472511	-0.06994197	-0.0997244641	-0.09904666	-0.07129554	-0.0311495345	-0.0112488633	-0.0143804792	-0.0232576188	-0.03255531	-0.0611268841	-0.07752407	-0.07090346	-0.0279863384	0.0121242721	0.0225393083	0.00922941	0.0008427145	0	0	0	0	0.00047688678	0.000476886431	0.000255125662	0.007601346	0.005945651	-0.00527203549	-0.0441710651	-0.0899840742	-0.103622943	-0.0851409361	-0.03494649	0.00142581563	0.008421638	-0.0008409441	-0.012957735	-0.024772888	-0.05775849	-0.09142675	-0.09808368	-0.0545512177	0.009939889	0.0288672764	0.0130841117	0.0008427145	0	0	0	0	0	0	0.000109788081	0.00446005771	0.00525702257	-0.0160298068	-0.063526	-0.101015113	-0.09472575	-0.0524516143	-0.0144819971	0.008260163	0.004042452	0.00275357557	-0.007005667	-0.0111894617	-0.0443790331	-0.08693159	-0.108186908	-0.08099782	-0.00630171644	0.0318657272	0.0110338172	0.0008427145	0	0	0	0	0	0	0.000826277945	0.0054656337	0.00283869123	-0.0284833312	-0.0815092847	-0.10632477	-0.07245607	-0.0283874683	-0.002722421	0.00684682932	-0.001517669	-0.00553156249	-0.00759906834	-0.00406909036	-0.0311915353	-0.07755629	-0.113129117	-0.0982227251	-0.0201980639	0.0325308628	0.0112614883	0.000476520625	0	0	0	0	0	0.0006640913	0.0007606633	0.006292765	0.001694029	-0.03620188	-0.0960137	-0.102163456	-0.05082045	-0.0145791573	0.000402557576	0.000967747532	-0.0001439173	-0.00471475162	-0.00442649238	-0.002582599	-0.0230508354	-0.0713751838	-0.117206939	-0.1054113	-0.0333077833	0.0240220912	0.0145549215	0.0007256158	0	0	0	0	0	0.0006640913	0.0003394623	0.00730774831	0.002620544	-0.04900133	-0.102967314	-0.0928794742	-0.0402885675	-0.0059204	-0.0003593968	-0.00169353071	-0.00131195155	-0.000456016045	0.00181017956	0.000191740226	-0.0188404545	-0.06970652	-0.112877555	-0.0996837541	-0.0294238441	0.0191070326	0.0141290883	0.0007703253	0	0	0	0	0	0.0006640913	0.00337620242	0.01413789	-8.83369648E-06	-0.0567108579	-0.104755916	-0.0847238153	-0.0295913648	-0.00660544029	0.00076287135	0.00119216123	5.51329467E-05	0.00294746622	0.008746284	0.000452913548	-0.0211011879	-0.070861	-0.110359542	-0.09417024	-0.0248096157	0.0155358044	0.009231906	0.0005403914	0	0	0	0	0	0.0005959078	0.00698371744	0.0200406574	-0.00262581115	-0.05671381	-0.103911452	-0.0765970349	-0.0275882948	-0.0113843251	-0.00170541287	-0.000790079357	-0.00225005765	0.001325473	0.00466365833	0.0009938229	-0.0289030485	-0.0853769	-0.11500749	-0.08110205	-0.01794005	0.009640797	0.0047903927	0.000476521062	0	0	0	0	0	0.000111077279	0.0121619049	0.0227942429	-0.00612886576	-0.0584187545	-0.0969760045	-0.07933155	-0.0290670935	-0.008916455	-0.00721786451	-0.004938182	-0.00342618744	0.00228164042	0.003994908	-0.007949007	-0.05340102	-0.109538183	-0.111797035	-0.06316949	-0.009090464	0.009434644	0.00408684462	0.0002783714	0	0	0	0	0	-0.000603461638	0.0114889788	0.0236583818	0.00228548748	-0.0482179746	-0.08890511	-0.0823503658	-0.0367853381	-0.01744726	-0.008807953	-0.004870929	0.003639295	0.00769790774	-0.00688266056	-0.0409817733	-0.095991455	-0.124437042	-0.09345273	-0.03663057	-0.003860699	0.008566557	0.00254578679	0.0002783714	0	0	0	0.00173757481	0.00173757481	-8.003706E-05	0.0142822834	0.0185544882	0.00735848	-0.0364510044	-0.07658526	-0.07396113	-0.0444759056	-0.03299664	-0.0230874456	-0.01124369	-0.008082915	-0.0251902323	-0.0598229319	-0.0908770561	-0.12305095	-0.107561015	-0.0578607135	-0.0158179943	0.003520316	0.007820056	0.00263127	0	0	0	0	0.00173757481	0.00173757481	0.0009691134	0.01288091	0.0187690835	0.004599744	-0.0292903632	-0.06508794	-0.0684064552	-0.0584477745	-0.04897269	-0.0430186465	-0.0448162034	-0.05872197	-0.07906251	-0.09610284	-0.112994336	-0.107771896	-0.06727782	-0.02248013	0.002226795	0.00696333	0.005207305	0.001427519	0	0	0	0	0	0	0	0.009030929	0.0177420322	0.009147774	-0.0201653969	-0.0483463332	-0.0600188971	-0.0615693219	-0.06321213	-0.072674334	-0.08496337	-0.0930277258	-0.100578263	-0.106718309	-0.09963803	-0.06701213	-0.0257376414	-0.00113063771	0.00746200141	0.00354236551	0.00245868578	-0.00117864669	0	0.000483807147	0	0	0	0	0	0.006100795	0.0149799529	0.0157776866	-0.00289206067	-0.0278596	-0.0439959653	-0.05324355	-0.06090927	-0.07816175	-0.08781764	-0.09140317	-0.08930957	-0.07912545	-0.0482961759	-0.0146452514	0.00250511663	0.007228568	0.00270651025	-0.000777746551	3.24218781E-05	-0.00144407665	-0.000797264045	0.00048380738	0	0	0	0	0	0.0027832652	0.00747620268	0.0103340587	0.008244546	-0.007868922	-0.0307321753	-0.0487309732	-0.06182573	-0.0638895854	-0.06621412	-0.0561642833	-0.0398519151	-0.0221724641	0.0008360892	0.009930903	0.005193793	0.00281196437	6.66938877E-06	0.00108311209	-0.00124058034	-0.00144407642	0	0	0	0	0	0	0	0.0025953704	0.00287891622	0.00400425354	0.00274882349	0.00168718339	-0.00262601324	-0.007385699	-0.0134182638	-0.01558939	-0.0139755849	-0.01085082	-0.004924539	0.000763008	0.00420837849	0.00217011664	-2.61392415E-05	0.000430945976	0.0002783714	0	0	0	0	0	0	0	0	0	0	0	0	0	0	0	0	0.00249786233	0.00249786233	-0.000309318624	-0.000309318624	-0.000309318624	-0.000309318624	-0.000309318624	0	0	0	0	0	0	0	0	0	0	0	0	0	0	0	0	0	0	0	0	0	0	0	0	0	0	0	0	0	0	0	0	0	0	0	0	0	0	0	0	0	0	0	0	0	0	0	0	0	0	0	0	0	0	0	0	0	0	0	0	0	0	0	0	0	0	0
EigenVector3	0	0	0	0	0	0	0	0	0	0	0	0	0	0	0	0	0	0	0	0	0	0	0	0	0	0	0	0	0	0	0	0	0	0	0	0	0	0	0	0	0	0	0	0	0	0	0	0	0	0	0	0	0	0	0	0	0	0	0	0	0	0	0	0	0	0	0	0	0	0	0	0	0	0	0	0	0	0	0	0	0	0	0	0	0	0	0	0	0	0	0	0	0.00261945254	0.00261945254	0.003078101	0.003901956	0.00258119963	0.002626052	0.00160898606	0.00376049872	0.00258304458	0.00114762236	0.0012848333	0.00181232987	0.00129794062	0.00112784142	6.612215E-06	0.000456588721	0	0	0	0	0	0	0	0	-0.00147651241	-0.00147651241	0.00182272168	0.00309651671	0.00499237748	0.0101885339	0.01476513	0.01463632	0.0123339957	0.000473679684	-0.0171593223	-0.032407634	-0.05064474	-0.0549161248	-0.0437431522	-0.0310822185	-0.013826035	-0.004462339	-0.001662854	8.782947E-06	0	0	0	0	0	0	0	0	-0.000957803859	0.00183905545	0.00341707165	0.00599528756	0.01246969	0.02336003	0.0308412742	0.0261410866	0.00741541153	-0.02631381	-0.0525790937	-0.07226929	-0.09329475	-0.102647364	-0.09941305	-0.0855203643	-0.0541127734	-0.0189632084	-0.00522117224	-0.002699968	-0.00165932742	0	0	0	0	0	0	0	-0.000957803859	0.00207568053	0.005082903	0.0118501261	0.0274067223	0.03752808	0.0325774364	0.0189362857	-0.0166071542	-0.0397613943	-0.0467210934	-0.0485241972	-0.0469167456	-0.0588464476	-0.0748517	-0.087080434	-0.07791709	-0.0416721851	-0.0125980191	-0.003641476	-0.00106338877	-0.000395446143	0	0	0	0	0	0	0.000111879854	0.00383828417	0.0109428708	0.0238968637	0.0415731221	0.04754508	0.03321218	0.000627911068	-0.0301089939	-0.0307493359	-0.009004974	0.01836854	0.0332610048	0.0310583748	0.000251207879	-0.0434513651	-0.06408893	-0.05669808	-0.0301115718	-0.00678710872	-0.00133556384	-0.00047105152	0	0	0	0	0	0	0.000700775767	0.00529790577	0.01542542	0.0394078828	0.0534997	0.0453022346	0.0215416513	-0.0158507228	-0.0182865262	0.00761562353	0.0475468	0.0873887	0.100764327	0.107376166	0.07346643	0.019527493	-0.0355180167	-0.0485743247	-0.0368314832	-0.0110714883	-0.00354371825	-0.00132375723	0	0	0	0	0.00115909427	0.00115909427	0.00259060878	0.008501881	0.0288081188	0.0529306754	0.06077123	0.0376089849	-0.0020728088	-0.0315897427	-0.00584377674	0.0366227254	0.08228094	0.107967995	0.118866213	0.1266847	0.113511212	0.0698836	-0.000163737044	-0.0289619081	-0.02885885	-0.0110248085	-0.003338385	-0.00109336758	0	0	0	0	0.00115909427	0.00115909427	0.00142036437	0.021327449	0.04916888	0.0677867	0.0554894544	0.0169236455	-0.038493298	-0.0311938766	0.013348097	0.0557240881	0.07474369	0.0851827562	0.09247271	0.102958485	0.108187854	0.09006892	0.0294915885	-0.0156943239	-0.0178458132	-0.004598011	-0.0003323783	-0.00109336758	0	0	0	0	0	0	0.00107029337	0.03552873	0.06019865	0.07030283	0.0371415876	-0.0172272455	-0.0462478474	-0.009756137	0.03586307	0.0603737347	0.06007545	0.057324633	0.0568011738	0.07530342	0.09233509	0.08866932	0.0312117822	-0.0105339577	-0.0024920986	0.0122022834	0.00573687535	-0.00109336758	0	0	0	0	0	0	0.003108759	0.0483027473	0.07094762	0.0618464276	0.00726844557	-0.0398053043	-0.0344877355	0.0115094846	0.0515423566	0.05669785	0.04038957	0.0310430489	0.02972649	0.0517135821	0.0746892	0.075748615	0.02485205	-0.01735048	0.00470451172	0.0284084752	0.0170142446	-0.0006151815	0	0	0	0	0	0.000843121961	0.009300131	0.06309353	0.07792081	0.038018804	-0.0152260093	-0.04141219	-0.00739421928	0.0349015854	0.0482593626	0.03145797	0.019326549	0.0118122054	0.0165165942	0.0423525423	0.06483874	0.0538206	0.00759724528	-0.0306179672	0.004959948	0.0484452322	0.0307305586	-0.0008387261	0	0	0	0	0	0.000843121961	0.0166981257	0.07834517	0.06770251	0.0187795162	-0.03796459	-0.0289017837	0.01470431	0.0484998859	0.0401391648	0.02040113	0.009847819	0.00568710733	0.0136904716	0.0433466546	0.06163881	0.0339593329	-0.0122520067	-0.035231743	0.00995226	0.06038056	0.0395745337	-0.0008788495	0	0	0	0	0	0.000843121961	0.0225263983	0.07603513	0.0501484275	0.00462991465	-0.03559618	-0.009848252	0.041136492	0.04892153	0.02570046	0.0107449377	0.00647258945	0.008466626	0.02120746	0.050269872	0.05424558	0.0151203843	-0.0224738084	-0.0318988338	0.0298620313	0.06827034	0.0395389646	-0.0006725007	0	0	0	0	0	0.00115835678	0.0248591881	0.06552051	0.034956865	-0.00628396776	-0.0252306461	0.00937467	0.0511162244	0.0433947481	0.0174702369	0.009216883	0.0149635579	0.0239097252	0.0434024222	0.0651537	0.0470810458	-0.00116752926	-0.02960068	-0.0126224793	0.0481195562	0.06498353	0.0382355377	-0.000615181634	0	0	0	0	0	0.00214836281	0.0263245534	0.0493842028	0.02460217	-0.008062335	-3.11770855E-05	0.0397071429	0.06809267	0.0497772172	0.03025874	0.0269520618	0.0385559723	0.05489802	0.0732719	0.06594015	0.0307033882	-0.01316904	-0.0217838679	0.0149306236	0.057558246	0.05600091	0.0284167677	0.000413486356	0	0	0	0	0	0.001463065	0.0125762513	0.0287092868	0.0100727342	0.0006237578	0.0241402481	0.07723672	0.108151831	0.09069757	0.07275882	0.0678764954	0.07974748	0.09078599	0.07663829	0.0446797051	-0.000222735267	-0.02430797	-0.009779019	0.0380858481	0.0589529127	0.0426078029	0.0176544171	0.000413486356	0	0	0	0.00159474334	0.00159474334	0.00204271963	0.00331673026	0.00334193045	-0.008938026	-0.008782327	0.03404556	0.09802379	0.147283375	0.146184623	0.133522	0.12411952	0.111914471	0.09105191	0.05495413	0.0101671107	-0.0222196132	-0.0157498028	0.01771346	0.0499818474	0.0443290733	0.0239768	0.00666313944	0	0	0	0	0.00159474334	0.00159474334	0.00168818771	-0.0007849456	-0.0146394372	-0.0318312123	-0.0401712842	0.003703351	0.06893158	0.129862249	0.151526317	0.141501963	0.118258968	0.08728929	0.04921979	0.009259648	-0.0181268714	-0.0128516434	0.008228239	0.03668523	0.0383547843	0.0258962288	0.009786383	0.004814207	0	0	0	0	0	0	0	-0.00224813819	-0.0203189533	-0.0466218926	-0.06959484	-0.0646161	-0.0262129065	0.0196985975	0.0455285758	0.05078658	0.03466934	0.00714148069	-0.0157118	-0.028385615	-0.0143527025	0.00453245547	0.0273447931	0.0322965719	0.02354349	0.0122697745	0.00311358	0.0009736455	0	0.00177286263	0	0	0	0	0	-0.00179198652	-0.0138229718	-0.0427370854	-0.07418396	-0.09681296	-0.103209987	-0.08413816	-0.06872633	-0.0600738227	-0.0575519465	-0.0539294146	-0.0467903465	-0.02354265	-0.002475579	0.0164509639	0.0205237	0.0156665463	0.0103459414	0.00647147465	0.002225021	0.000546433264	0.000261675159	0.00177286274	0	0	0	0	0	-0.0005674995	-0.005130538	-0.0171629731	-0.0457031466	-0.07502571	-0.10139703	-0.1169945	-0.117901437	-0.102381445	-0.0793027356	-0.0541804656	-0.0259616114	-0.0063265455	0.006589284	0.009124683	0.008652931	0.00585952867	0.00410870928	0.00189465482	0.0008865301	0.000546433264	0	0	0	0	0	0	0	-0.000353423762	-0.000740766	-0.00282609113	-0.006659573	-0.0147704761	-0.0266187917	-0.0331066437	-0.03743995	-0.0336232521	-0.0260778312	-0.0137577234	-0.006034843	-0.000319071027	0.00182530913	0.002480396	0.00216881162	0.000401441182	0.000413486356	0	0	0	0	0	0	0	0	0	0	0	0	0	0	0	0	0.00115182088	0.00115182088	0.0003424049	0.0003424049	0.0003424049	0.0003424049	0.0003424049	0	0	0	0	0	0	0	0	0	0	0	0	0	0	0	0	0	0	0	0	0	0	0	0	0	0	0	0	0	0	0	0	0	0	0	0	0	0	0	0	0	0	0	0	0	0	0	0	0	0	0	0	0	0	0	0	0	0	0	0	0	0	0	0	0	0	0
EigenVector4	0	0	0	0	0	0	0	0	0	0	0	0	0	0	0	0	0	0	0	0	0	0	0	0	0	0	0	0	0	0	0	0	0	0	0	0	0	0	0	0	0	0	0	0	0	0	0	0	0	0	0	0	0	0	0	0	0	0	0	0	0	0	0	0	0	0	0	0	0	0	0	0	0	0	0	0	0	0	0	0	0	0	0	0	0	0	0	0	0	0	0	0	0.0005434398	0.0005434398	0.00123455364	0.00409876555	0.008469892	0.0138466153	0.01564878	0.0219252519	0.0174751375	0.00880206	0.00330393785	0.00170888589	0.000122118465	-0.0007369008	1.4545634E-06	0.000116459145	0	0	0	0	0	0	0	0	0.000717466348	0.000717466348	-0.001364625	-0.0019603034	-0.00262286444	-0.00177403924	-0.00136345462	0.00435029063	0.0216216817	0.0436183	0.06227156	0.0671174452	0.041383706	0.00509730354	-0.0180579629	-0.0205735117	-0.0173135828	-0.0100850314	-0.00286675082	-0.000235011117	0	0	0	0	0	0	0	0	-0.0001471632	-0.002374486	-0.003317821	-0.00533653842	-0.01080704	-0.0183554757	-0.02178854	-0.0140745519	0.00408087764	0.0281042065	0.0372950472	0.0117302518	-0.0147767114	-0.0331059732	-0.0420387164	-0.0381809175	-0.023273306	-0.0113837188	-0.00588194653	-0.000275064755	0.000754816	0	0	0	0	0	0	0	-0.0001471632	-0.002644451	-0.006204043	-0.0109876227	-0.0247353967	-0.0442771241	-0.04847166	-0.0257079564	0.00706952438	0.0154478373	-0.0161048938	-0.05549618	-0.07501357	-0.08153302	-0.07376537	-0.05532376	-0.0227209684	0.00173216	0.00078086165	-0.0001578106	-0.000836411258	-0.000698144	0	0	0	0	0	0	-0.000447844068	-0.00311919535	-0.0109098842	-0.0214481149	-0.0472400524	-0.06257539	-0.04231998	0.0166684389	0.0371657461	0.00676242635	-0.04185	-0.08189505	-0.09536117	-0.08463717	-0.07955727	-0.0768454149	-0.0504462868	-0.00145331409	0.01615016	0.008361628	0.0017231676	-0.000699723663	0	0	0	0	0	0	-0.000264702656	-0.004816413	-0.017066028	-0.0381901078	-0.0588245019	-0.0415704846	0.02598536	0.07889616	0.048701223	-0.009523928	-0.0604745261	-0.08895948	-0.08902937	-0.06534126	-0.06394887	-0.07207903	-0.06535355	-0.0233734269	0.0176569484	0.0227212328	0.00792941451	-0.000429587	0	0	0	0	0.0017347266	0.0017347266	-0.00119889143	-0.008350876	-0.03242713	-0.05537707	-0.0476507246	0.0153264245	0.0885898	0.08757996	0.01499353	-0.05818505	-0.08722233	-0.08905688	-0.06717483	-0.047872588	-0.0518301651	-0.07122421	-0.0674157962	-0.0381646045	0.0181968566	0.0343301557	0.0155822365	-2.28421122E-05	0	0	0	0	0.0017347266	0.0017347266	0.0007845603	-0.0139148766	-0.0393967	-0.0466367155	-0.009368326	0.06995041	0.09132155	0.0464064553	-0.04022527	-0.095061034	-0.101430267	-0.08256619	-0.04255995	-0.0265383627	-0.03440393	-0.05010476	-0.06941568	-0.0431557968	0.000794078864	0.0398884565	0.0229677279	-2.28421122E-05	0	0	0	0	0	0	-0.000555242	-0.0241869353	-0.0384559035	-0.0208893456	0.0354313143	0.08265763	0.0613436438	-0.0111467894	-0.0852442756	-0.107146248	-0.0839677751	-0.04949847	-0.0240345187	-0.00595228933	-0.0120682744	-0.0380678	-0.06465139	-0.0435842574	-0.00232984964	0.0408030562	0.0217942949	-2.28421122E-05	0	0	0	0	0	0	-0.00406172127	-0.0254940558	-0.0278876275	0.00388243049	0.05584643	0.06425586	0.019140305	-0.05496601	-0.10039065	-0.08412335	-0.0411371849	-0.0265299622	-0.0174271669	-0.00964826252	-0.0201534387	-0.03825919	-0.048719544	-0.03188737	0.00306202914	0.030370608	0.0153583726	-0.0005773305	0	0	0	0	0	0.00140987989	-0.0009272008	-0.0104323626	-0.006558552	0.01887307	0.03770693	0.0216930788	-0.019166626	-0.07866707	-0.08022887	-0.0360261351	-0.0185794644	-0.0150194149	-0.0139221046	-0.0172502585	-0.03701666	-0.0379120372	-0.028947955	-0.005194152	0.01710998	0.0181047656	0.00858733	-0.001166574	0	0	0	0	0	0.00140987989	0.00737259164	0.00727850059	0.006125796	0.004769227	0.010901927	-0.0118215941	-0.0496219	-0.069412224	-0.0381015	-0.012388532	-0.007625527	-0.00594802434	-0.013021253	-0.0259609725	-0.05163574	-0.0328724533	0.004572514	0.0214522667	0.0294568948	0.00481016049	-0.00164758961	-0.00127233565	0	0	0	0	0	0.00140987989	0.0162720755	0.0266004372	0.0001655877	-0.0193913318	-0.017561106	-0.0340510681	-0.0485014059	-0.0413950942	-0.0118508684	-0.004155035	-0.003588239	-0.006494875	-0.0230417531	-0.042390462	-0.0497918352	-0.001955307	0.0487352759	0.05204285	0.0259551834	-0.0134564182	-0.0250126682	-0.000728418643	0	0	0	0	0	0.00130305521	0.0221042614	0.0363022871	-0.012746851	-0.0382722579	-0.0394850336	-0.0304088369	-0.0236170664	-0.0111307716	-0.00151938619	-0.00145100465	-0.006564839	-0.0153636169	-0.0368557051	-0.0547372736	-0.0179939643	0.0420976	0.09191746	0.06469275	0.003660478	-0.0396142565	-0.0306418836	-0.000577330531	0	0	0	0	0	0.00118689006	0.0292198472	0.0309353061	-0.0238217972	-0.06121228	-0.0462856665	-0.0073015606	0.00724922353	0.009076204	0.005846323	0.00182656269	-0.00709161	-0.0205957387	-0.03393144	-0.01568197	0.0388522521	0.095560275	0.1095098	0.0349068567	-0.03308228	-0.05709566	-0.0257016532	-0.000778701855	0	0	0	0	0	-9.15766941E-05	0.0205839146	0.0229109656	-0.029720949	-0.0688589141	-0.03436477	0.019945845	0.05396244	0.0383664928	0.030170368	0.0201712437	0.004408345	-0.004399932	0.009920064	0.0446788	0.0961981341	0.12543799	0.06655021	-0.0261830315	-0.064682655	-0.0572324	-0.0187056512	-0.000778701855	0	0	0	-0.000186368488	-0.000186368488	-0.000919255	0.00869793	0.007347955	-0.03486364	-0.0596260764	-0.02395658	0.033970654	0.08451286	0.0819782	0.06352578	0.038430728	0.0345145464	0.04155887	0.05890067	0.09485735	0.118719183	0.07472382	-0.0227338634	-0.07582981	-0.07461702	-0.038226746	-0.007976515	0	0	0	0	-0.000186368488	-0.000186368488	-0.000897827966	0.0008211934	0.0007786482	-0.04251856	-0.07118121	-0.0386336558	0.02151951	0.06929572	0.08093192	0.06825912	0.0623367168	0.0535337478	0.06673337	0.08959856	0.0945244953	0.0487239175	-0.0293764267	-0.08312846	-0.08738298	-0.050600078	-0.0143450322	-0.00506638456	0	0	0	0	0	0	0	-0.005781211	-0.009419929	-0.03990616	-0.07992508	-0.0927383453	-0.05063991	-0.0111947209	0.0102949431	0.0271815229	0.02919972	0.0332704857	0.0402007177	0.03269115	-0.00206098775	-0.0550932363	-0.09958454	-0.0951656	-0.0549039543	-0.0159860235	-0.00400452642	-0.0016230609	0	0.0006478567	0	0	0	0	0	-0.00466833543	-0.0160661265	-0.03875727	-0.07219056	-0.109595276	-0.118446141	-0.09602031	-0.0682809055	-0.0501174666	-0.0318544433	-0.0290581621	-0.0371813178	-0.0595657	-0.0915256441	-0.109292127	-0.0881397054	-0.0448224954	-0.0138196591	-0.00521041267	-0.001425682	-0.00127593835	6.50880756E-05	0.000647856737	0	0	0	0	0	-0.00118616084	-0.006471674	-0.0209590681	-0.0528599843	-0.08567757	-0.12484014	-0.143414825	-0.12809208	-0.112197265	-0.09671165	-0.09359685	-0.102755688	-0.106467783	-0.09320501	-0.0580112673	-0.02550925	-0.008971756	-0.003430666	-0.00101212633	-0.0013445993	-0.00127593847	0	0	0	0	0	0	0	-0.0008826214	-0.00105447974	-0.00245691743	-0.006450247	-0.0134390481	-0.0305284113	-0.0518728271	-0.06943119	-0.08108384	-0.08133872	-0.06946737	-0.05722918	-0.03932963	-0.0184122548	-0.007341531	-0.00268166582	-0.0008768577	-0.000778701855	0	0	0	0	0	0	0	0	0	0	0	0	0	0	0	0	0.000580184336	0.000580184336	-0.00243637851	-0.00243637851	-0.00243637851	-0.00243637851	-0.00243637851	0	0	0	0	0	0	0	0	0	0	0	0	0	0	0	0	0	0	0	0	0	0	0	0	0	0	0	0	0	0	0	0	0	0	0	0	0	0	0	0	0	0	0	0	0	0	0	0	0	0	0	0	0	0	0	0	0	0	0	0	0	0	0	0	0	0	0
EigenVector5	0	0	0	0	0	0	0	0	0	0	0	0	0	0	0	0	0	0	0	0	0	0	0	0	0	0	0	0	0	0	0	0	0	0	0	0	0	0	0	0	0	0	0	0	0	0	0	0	0	0	0	0	0	0	0	0	0	0	0	0	0	0	0	0	0	0	0	0	0	0	0	0	0	0	0	0	0	0	0	0	0	0	0	0	0	0	0	0	0	0	0	0	0.0005907921	0.0005907921	-0.0008601604	-0.00421523768	-0.006848481	-0.007433603	-0.00654157158	-0.0104712239	-0.0149744824	-0.0103388866	-0.003921953	-0.00343993213	-0.00346165267	-0.00301745581	-0.00136091025	-0.0016962504	0	0	0	0	0	0	0	0	-0.0017394661	-0.0017394661	-0.00315779541	-0.00425542146	-0.00482259365	-0.009881989	-0.019524863	-0.0265139285	-0.032771863	-0.0432269126	-0.06575769	-0.0934163854	-0.102947004	-0.101460271	-0.0774970055	-0.0462611876	-0.0284330063	-0.0133671807	-0.00450725	-0.000390343921	0	0	0	0	0	0	0	0	0.00155517226	-0.00118553068	-0.004368017	-0.008531354	-0.0175858364	-0.030503558	-0.04661511	-0.0600547232	-0.06846549	-0.06967475	-0.0785010755	-0.0934591442	-0.09505299	-0.10655424	-0.111366026	-0.099782154	-0.06021874	-0.0285713952	-0.009594793	-0.0005157881	-0.0009049641	0	0	0	0	0	0	0	0.00155517226	-0.000815735257	-0.00532852	-0.0154131539	-0.033186838	-0.05683246	-0.07044133	-0.06787241	-0.05011709	-0.0406305678	-0.03620326	-0.0189601425	-0.0162437186	-0.03861854	-0.07531882	-0.110198207	-0.110706136	-0.0631469	-0.01916984	-0.00347147463	-0.00126423489	-0.0006123082	0	0	0	0	0	0	0.00141248375	-0.00138340355	-0.0105464356	-0.02900568	-0.0610139668	-0.0803636461	-0.0572365932	-0.02683998	0.00164171623	0.03425829	0.0482782945	0.0596073344	0.06158186	0.0601108633	0.0145488223	-0.06082939	-0.110877141	-0.09511645	-0.0458127446	-0.007997977	-0.001815387	-0.0005701049	0	0	0	0	0	0	0.00048880215	-0.00405853	-0.0187817216	-0.0549911745	-0.08532381	-0.0568741746	-0.0141642159	0.0324283652	0.05816926	0.07914397	0.08602943	0.09790665	0.118315622	0.119325332	0.0927803442	0.0194822047	-0.06426652	-0.09359328	-0.06371212	-0.0128131993	-0.00329610077	0.0002535897	0	0	0	0	0.00211641565	0.00211641565	0.0001654448	-0.0102182375	-0.04114292	-0.07877718	-0.06506473	-0.0140444646	0.04512442	0.07448777	0.0814227	0.0780822262	0.08244356	0.110069305	0.137501121	0.143441811	0.124439813	0.07646673	-0.00995978247	-0.07344761	-0.06328957	-0.0277012829	-0.007184295	0.00061032566	0	0	0	0	0.00211641565	0.00211641542	0.00164418807	-0.0217800643	-0.0624995641	-0.0746991262	-0.0189858545	0.0436641462	0.08789996	0.08241388	0.06150836	0.05429843	0.06275375	0.0915318653	0.105453447	0.113165818	0.108833216	0.08542799	0.0247824583	-0.04314012	-0.0473784953	-0.0314729176	-0.0103206187	0.00061032566	0	0	0	0	0	0	-0.000810826255	-0.03480988	-0.0712925	-0.04537985	0.0301661659	0.07996123	0.08294595	0.0567347929	0.0228061769	0.0331003331	0.04708422	0.05605974	0.05206156	0.06691866	0.0652862862	0.0588496067	0.0220418982	-0.01440893	-0.0327208	-0.0212105773	-0.0151022514	0.00061032566	0	0	0	0	0	0	-0.00294029131	-0.0449536778	-0.0584426075	0.0032104766	0.0624481142	0.07661285	0.04926061	0.0100254016	0.00264842762	0.0144344	0.0216060746	0.023674842	0.0240771249	0.0260795243	0.0250559635	0.0187451076	0.01667399	0.003373653	-0.01887778	-0.0151082957	-0.01888161	-0.002782787	0	0	0	0	0	0.002606245	-0.00316930586	-0.0421231575	-0.023096757	0.0204452686	0.0537419878	0.0369184464	-0.00022578369	-0.0198708158	-0.0109543232	0.009538855	0.0101560885	0.007880597	0.007103797	-0.0008629204	-0.00462054228	-0.0162444431	-0.00253226049	0.01711912	-0.00619343249	-0.0101599162	-0.0168425	-0.002299766	0	0	0	0	0	0.002606245	0.0005690563	-0.0169562958	0.00558411563	0.0171229057	0.02358171	-0.00423215749	-0.0319456533	-0.03219893	-0.0121162087	0.00319469324	0.007080401	0.00612938264	-0.00136843114	-0.0159419719	-0.0307435058	-0.0392860919	-0.007864735	0.0310142674	0.0103811435	-0.0125147328	-0.019911183	-0.0022130697	0	0	0	0	0	0.002606245	0.0143060563	0.0135996258	0.00486852927	-0.0042287237	-0.020422928	-0.0313822627	-0.0417378731	-0.0261325352	-0.00590097532	0.000810980855	0.004023687	0.00371708954	-0.0113670575	-0.0361867547	-0.0555187725	-0.0468391962	0.0124252653	0.04687796	0.0117817158	-0.01826408	-0.0212127082	-0.0026589355	0	0	0	0	0	0.00303510926	0.027226992	0.0381129161	-0.000127987674	-0.0332503729	-0.06410448	-0.05751566	-0.0411418825	-0.0151904114	-0.0025769046	-0.00211699284	-0.004018818	-0.0131167723	-0.034154173	-0.058433678	-0.06405066	-0.0222931989	0.0487513244	0.05826235	0.00322089926	-0.03332787	-0.0281358	-0.002782787	0	0	0	0	0	0.00430601742	0.03992447	0.0540383831	-0.0062204	-0.0584196448	-0.09330905	-0.0727938563	-0.0303384531	-0.00293079834	-0.0049506207	-0.009316596	-0.0199214425	-0.0376813151	-0.0605205074	-0.07238584	-0.0452663451	0.014794779	0.0832089558	0.05110066	-0.0115665859	-0.039498385	-0.0204943921	-0.000886604	0	0	0	0	0	0.00204296643	0.0385081545	0.06521908	0.00235346355	-0.0688336641	-0.111011013	-0.0784979	-0.03192579	-0.005352798	-0.0145129189	-0.0278499313	-0.0425886549	-0.0689746	-0.07769168	-0.0564057343	-0.003451645	0.06421796	0.08171209	0.021831505	-0.0335843749	-0.0373653546	-0.0183781311	-0.000886604	0	0	0	9.504552E-05	9.504552E-05	0.00150347408	0.03705624	0.06734236	0.0218537617	-0.0506926775	-0.09032988	-0.08473398	-0.0482049249	-0.0456347577	-0.0470254868	-0.06694983	-0.08532415	-0.08525522	-0.0575638525	-0.01108799	0.0452979	0.07203756	0.038298972	-0.0222707856	-0.0448215827	-0.0288062	-0.008848684	0	0	0	0	9.504552E-05	9.504552E-05	0.0002572862	0.0230646431	0.0517849177	0.0370919481	-0.0107424334	-0.058245074	-0.07828301	-0.07929817	-0.08272328	-0.09188871	-0.09195773	-0.0797152445	-0.0494854152	-0.00427346537	0.03626892	0.0574943721	0.0312574841	-0.02141426	-0.0472505242	-0.0383914858	-0.0188980475	-0.00548803667	0	0	0	0	0	0	0	0.008839997	0.0296404734	0.0405228846	0.0162353646	-0.0199902058	-0.0556251444	-0.07888433	-0.0825669	-0.08722444	-0.06906298	-0.0398773663	-0.0141817443	0.0224278439	0.0339817479	0.0161613729	-0.0157048367	-0.03877139	-0.0320248678	-0.0165838	-0.00593579561	0.000113207148	0	0.000434026617	0	0	0	0	0	0.002092585	0.008991453	0.02432272	0.0293120742	0.01856722	-0.0106064193	-0.032568004	-0.04196298	-0.04605338	-0.030219283	-0.000723677455	0.0190590359	0.02305335	0.00540756062	-0.0165825412	-0.026983222	-0.0228275973	-0.0132875275	-0.006984091	-0.00184799323	0.0009077771	0.00038346462	0.0004340267	0	0	0	0	0	0.00138558669	0.00302336644	0.00526598049	0.0107457452	0.0201457981	0.0309011117	0.035649538	0.03372554	0.0252799	0.03836705	0.0386583172	0.02116766	0.00953936	-0.00450369	-0.0120558757	-0.0122168763	-0.008944984	-0.00423691329	-0.002636699	0.000546368945	0.000907777	0	0	0	0	0	0	0	0.00202006521	0.00158655667	0.00343754957	0.0073983334	0.0123284031	0.0302583762	0.04885249	0.06486015	0.0727763847	0.05688746	0.03840846	0.01714723	0.00376465637	0.0018638199	-0.00109057082	-0.00124311121	-0.00100083335	-0.000886604	0	0	0	0	0	0	0	0	0	0	0	0	0	0	0	0	0.0003770803	0.0003770803	0.00182625034	0.00182625034	0.00182625034	0.00182625034	0.00182625034	0	0	0	0	0	0	0	0	0	0	0	0	0	0	0	0	0	0	0	0	0	0	0	0	0	0	0	0	0	0	0	0	0	0	0	0	0	0	0	0	0	0	0	0	0	0	0	0	0	0	0	0	0	0	0	0	0	0	0	0	0	0	0	0	0	0	0
EigenVector6	0	0	0	0	0	0	0	0	0	0	0	0	0	0	0	0	0	0	0	0	0	0	0	0	0	0	0	0	0	0	0	0	0	0	0	0	0	0	0	0	0	0	0	0	0	0	0	0	0	0	0	0	0	0	0	0	0	0	0	0	0	0	0	0	0	0	0	0	0	0	0	0	0	0	0	0	0	0	0	0	0	0	0	0	0	0	0	0	0	0	0	0	-0.00159573217	-0.00159573217	-0.001880712	-0.00365777127	-0.00560576934	-0.00866274349	-0.00283251912	0.00391595671	0.005053629	0.00454817666	0.00375077757	0.00197670143	-0.0019943607	-0.00371393259	-0.00182610226	-0.00194889179	0	0	0	0	0	0	0	0	-0.00051384134	-0.00051384134	-0.00143342162	-0.001816051	-0.00350551354	-0.007318279	-0.0127932262	-0.0179875139	-0.0270398222	-0.0251553077	0.0106270444	0.05792463	0.07275101	0.06960706	0.0464883037	0.0195314959	-0.000963517756	-0.008438974	-0.009339309	-0.004121041	0	0	0	0	0	0	0	0	0.0001242795	-0.0004449642	-0.00179131806	-0.001676253	-0.00530452654	-0.018512845	-0.0387573726	-0.06306351	-0.0634882	-0.0298411716	0.0192687716	0.0613646954	0.08518638	0.090824835	0.06422097	0.0282057021	-0.00430326257	-0.0158441551	-0.0122815929	-0.00156027626	0.0005264225	0	0	0	0	0	0	0	0.0001242795	-9.976921E-05	-0.000939943246	-0.000288786861	-0.0110820225	-0.03212809	-0.0694931746	-0.070711	-0.0376898162	0.0201330334	0.07446455	0.08398217	0.07064432	0.06049084	0.0492881127	0.0149831586	-0.012592853	-0.0298833121	-0.0377043	-0.00959098	-0.00337368366	-0.0006036335	0	0	0	0	0	0	0.00042441042	-0.002360362	-0.00272488687	-0.00143085688	-0.015304843	-0.04216762	-0.0511400551	-0.0127158305	0.0499648824	0.09957764	0.10918089	0.0602759719	0.027476145	0.0163340531	0.0310151484	0.0265238937	-0.0122565329	-0.0299819652	-0.0418860465	-0.0290001221	-0.00741907675	-0.000610838353	0	0	0	0	0	0	0.000529807236	-0.000583687332	0.000473718916	0.003752548	-0.008631448	-0.03195614	-0.009714324	0.0357046835	0.09468924	0.113977611	0.08703776	0.0296903644	-0.00602266	-0.0150111793	0.0109378072	0.02676676	0.00625505764	-0.0211024247	-0.0293838978	-0.03360386	-0.0100814849	-0.0004558789	0	0	0	0	-0.000472475338	-0.000472475338	-0.00151563983	0.0009394993	0.006505906	0.0145825511	0.00200107368	-0.0220529549	0.00494450843	0.0480125472	0.0807824	0.06629906	0.0226542857	-0.0173425972	-0.0303872619	-0.019125903	0.0120179467	0.0231207777	0.0042087296	-0.0184091721	-0.01953713	-0.0201924331	-0.008217423	-0.000104196843	0	0	0	0	-0.000472475338	-0.000472475018	0.000349537557	0.006102801	0.027899364	0.04006793	0.00560349924	-0.0234455	-0.0143571487	0.0249808133	0.0345657356	0.0126897711	-0.0169261266	-0.0281175878	-0.0322870761	-0.00326346816	0.0362009853	0.0352963321	-0.009666806	-0.03797216	-0.0123059414	-0.0139015159	-0.000326196285	-0.000104196843	0	0	0	0	0	0	0.00164533046	0.02128039	0.0589466058	0.0483320132	-0.0180430785	-0.0573019125	-0.046676442	0.004894694	0.0110900784	-0.009092775	-0.026031293	-0.020116685	-0.0105480477	0.0109483516	0.0455719046	0.04075525	-0.034909796	-0.06557367	-0.0210445076	0.007680076	0.006482943	-0.000104196843	0	0	0	0	0	0	0.008195234	0.0388440862	0.07807631	0.0255264509	-0.0629401654	-0.09515556	-0.0537678674	0.00777059048	0.0155236386	-0.00431918353	-0.0137358392	-0.006987622	0.002592066	0.0276846886	0.0508281365	0.0355242379	-0.0512317531	-0.09480456	-0.0423845835	0.0293717962	0.026940072	0.0007301435	0	0	0	0	0	0.0006783538	0.0170469917	0.06754964	0.0763963237	-0.0147773894	-0.122688651	-0.114718758	-0.0418217741	0.0312471054	0.0271869563	0.00723733	-0.00129912782	-0.001258948	0.003902927	0.0283077918	0.0587795042	0.0303552952	-0.0665586	-0.122320972	-0.04964028	0.0501842238	0.04037303	0.000328540482	0	0	0	0	0	0.0006783538	0.0258607138	0.09626739	0.0633169	-0.06929519	-0.1505887	-0.109541409	-0.0035921582	0.0493771434	0.0253479145	0.008460292	-0.0008260295	4.730672E-06	0.00568003953	0.0316390358	0.05172499	0.010297887	-0.09025698	-0.1334882	-0.0440717377	0.06295444	0.0447588637	0.000256457744	0	0	0	0	0	0.0006783538	0.0367957875	0.09769865	0.0267518	-0.109464616	-0.158912957	-0.0841504559	0.0291666072	0.05077614	0.0205531735	0.00181011076	-0.00158825517	-0.00383977685	0.00228052726	0.02881809	0.0339123681	-0.0246497933	-0.109785855	-0.116842747	-0.0177637991	0.07110245	0.0410825275	0.0006271685	0	0	0	0	0	0.000592242868	0.0381326042	0.0774156451	0.00175745354	-0.118464619	-0.14231576	-0.0588372946	0.0448884219	0.04700547	0.0144695044	-0.0006008451	-0.008971913	-0.01185874	-0.007591376	0.00609924737	0.004831113	-0.05138566	-0.09592353	-0.0679386258	0.0183154847	0.0661205649	0.02973709	0.0007301435	0	0	0	0	0	5.16957552E-05	0.0239994284	0.0525193252	0.00490195164	-0.09397302	-0.116491236	-0.0496521927	0.03234601	0.02879504	0.00194159069	-0.0162661225	-0.0291653723	-0.04050902	-0.03857552	-0.0102903014	-0.002309382	-0.03347544	-0.0494723022	-0.0166525263	0.040436592	0.0500228032	0.01514621	-0.00167259981	0	0	0	0	0	-0.000241865637	0.008398734	0.04069408	0.0121996962	-0.04860691	-0.08741418	-0.05334772	-0.004235086	-0.00780995749	-0.0268909577	-0.0489430837	-0.06951205	-0.0636224151	-0.0257617868	0.0270560179	0.0346091241	0.000616881764	-0.009003663	0.0103071686	0.03400573	0.0271629747	0.0061398875	-0.00167259981	0	0	0	-0.00151976652	-0.00151976652	-0.00254372437	-0.0130907558	0.0227404926	0.0261511374	0.002399525	-0.0404376127	-0.0519768745	-0.0313647166	-0.03469255	-0.0499885976	-0.06650475	-0.0574971	-0.01139958	0.0546887331	0.1026651	0.0787924752	0.0280288029	0.00125434226	0.00616974058	0.01040407	0.00726605952	0.00123577972	0	0	0	0	-0.00151976652	-0.00151976652	-0.00282094	-0.0230747145	-0.004223521	0.0307985	0.0427638851	0.0178812854	-0.00126352359	-0.005680812	-0.0123799946	-0.0189694948	0.0009488388	0.0520186834	0.113254733	0.157861084	0.139609784	0.0605793819	0.000216965	-0.0186291076	-0.00859168451	-0.00315160281	0.0008827632	-0.00133457629	0	0	0	0	0	0	0	-0.0214842223	-0.02772973	0.007937154	0.04961448	0.04589335	0.0340162	0.04344802	0.0573372245	0.06846908	0.113717556	0.161637172	0.173449442	0.13777034	0.05812741	-0.0223712679	-0.0497645549	-0.0385258347	-0.0119694062	-0.004257658	-0.00174939784	0.00012413942	0	-0.00176171015	0	0	0	0	0	-0.0130502731	-0.0280426126	-0.0242151842	0.008807958	0.0289151743	0.03751408	0.047410246	0.0716228858	0.0942644	0.117351696	0.118524015	0.0792177841	0.00196665712	-0.05760849	-0.0756938	-0.0546655543	-0.0196636021	-0.00592622627	-0.005495988	-0.00158516783	0.0007622208	0.00249685161	-0.00176171015	0	0	0	0	0	-0.00362116564	-0.0100000016	-0.02051601	-0.0161784776	-2.6239366E-05	0.0146932332	0.0318149142	0.0493943468	0.0473437421	0.0199530385	-0.0234379675	-0.06420478	-0.0830837563	-0.0679846257	-0.0404169559	-0.0173109621	-0.007742273	-0.0042098877	-0.002705572	0.000455500267	0.0007622208	0	0	0	0	0	0	0	-0.00290508382	-0.00331844552	-0.00531542348	-0.003343544	-0.00256612874	-0.00272461819	-0.0112243723	-0.0226632226	-0.031122582	-0.0476209633	-0.054632172	-0.0521051623	-0.0360340364	-0.0181623343	-0.007581861	-0.004238065	-0.00182319409	-0.00167259981	0	0	0	0	0	0	0	0	0	0	0	0	0	0	0	0	-0.000655341	-0.000655341	-0.00143255782	-0.00143255782	-0.00143255782	-0.00143255782	-0.00143255782	0	0	0	0	0	0	0	0	0	0	0	0	0	0	0	0	0	0	0	0	0	0	0	0	0	0	0	0	0	0	0	0	0	0	0	0	0	0	0	0	0	0	0	0	0	0	0	0	0	0	0	0	0	0	0	0	0	0	0	0	0	0	0	0	0	0	0
EigenVector7	0	0	0	0	0	0	0	0	0	0	0	0	0	0	0	0	0	0	0	0	0	0	0	0	0	0	0	0	0	0	0	0	0	0	0	0	0	0	0	0	0	0	0	0	0	0	0	0	0	0	0	0	0	0	0	0	0	0	0	0	0	0	0	0	0	0	0	0	0	0	0	0	0	0	0	0	0	0	0	0	0	0	0	0	0	0	0	0	0	0	0	0	-0.00151942344	-0.00151942344	-0.002525114	-0.00431588339	-0.00593115576	-0.00728701148	-0.00721555343	-0.005909256	-0.006707708	-0.00047262467	0.0008263278	-0.00288816285	-0.00618762849	-0.006147619	-0.00297207618	-0.00369990221	0	0	0	0	0	0	0	0	-0.00109894469	-0.00109894469	-0.00018712059	-6.549593E-05	-0.00137054233	-0.007359296	-0.0133633642	-0.0154048381	-0.0222020317	-0.0231666863	-0.0108505776	0.0047608125	-0.003315457	-0.00715660956	-0.01008506	-0.0165832024	-0.0142595312	-0.0109533612	-0.006452204	-0.00228132168	0	0	0	0	0	0	0	0	-0.0004061993	0.000850417768	0.000361132581	0.00104246312	-0.0042682495	-0.0133551108	-0.0268471055	-0.0396189578	-0.0497544967	-0.0305181146	-0.0123283435	-0.0192809328	-0.0212766211	-0.00625902461	0.005965293	0.008315553	-0.008101984	-0.007009171	2.77207455E-05	0.0008228671	0.002242649	0	0	0	0	0	0	0	-0.0004061993	0.0008040176	0.001192835	0.0007628414	-0.00746502774	-0.0217831042	-0.03920062	-0.0470184237	-0.0238972083	0.0160429664	0.0210724678	0.004237832	-0.0187978689	-0.0168507248	-0.00129127945	0.0102530671	0.0123202018	0.00269294716	0.008179467	0.003691492	0.00242073182	0.00178332522	0	0	0	0	0	0	-0.0007442996	0.00267559383	0.004630488	0.0012826554	-0.0132968063	-0.0390013829	-0.0501864441	-0.0276119336	0.0327941552	0.06826854	0.0554058179	0.0304363761	0.00031812716	-0.0120315664	-0.0190600622	-0.009730447	0.0121712824	0.0233876351	0.02222487	0.01255901	0.006490491	0.00193773443	0	0	0	0	0	0	-0.0005219757	0.00401977357	0.004455701	-0.00578215253	-0.0412905477	-0.06493442	-0.0370917059	0.0400184877	0.08685456	0.106151469	0.07949135	0.03653306	0.002912416	-0.0143163456	-0.0330980755	-0.0439311936	-0.009157473	0.03506581	0.0426600836	0.026041748	0.0155952675	0.00327198766	0	0	0	0	0.00165616767	0.00165616767	0.00216772337	0.004880312	0.00287970249	-0.0289577674	-0.068144	-0.0542539023	0.0257501453	0.10467875	0.121354409	0.09331444	0.050026	0.0200626925	0.005750235	-0.01599579	-0.0457116254	-0.06982383	-0.0426059067	0.03372691	0.06510299	0.04868665	0.0237805918	0.002233007	0	0	0	0	0.00165616767	0.00165616756	0.000434495218	0.00345980353	-0.0123395	-0.05890556	-0.06388832	-0.005808307	0.07785995	0.119956315	0.116236113	0.08416445	0.0474947579	0.01349557	-0.001844228	-0.0116930539	-0.04684115	-0.0948206037	-0.0874290839	0.006281591	0.08021421	0.07474888	0.037290886	0.002233007	0	0	0	0	0	0	-0.0016311137	-0.008704695	-0.0347490869	-0.0683319643	-0.0344808958	0.03569764	0.109641738	0.115399919	0.0969338343	0.0523193	0.02628256	0.014623208	-0.00367640937	-0.0159360413	-0.0458075367	-0.103096582	-0.132341847	-0.03014478	0.07733141	0.09915382	0.0502912179	0.002233007	0	0	0	0	0	0	-0.007075344	-0.0163250379	-0.04958864	-0.06134652	-0.0155645087	0.0710060149	0.118220881	0.107360005	0.06266953	0.0258307047	0.0199780669	0.0141086513	-0.000520094531	-0.0137917846	-0.0467677638	-0.115283139	-0.1529417	-0.053355854	0.069213286	0.11221531	0.0614055544	0.00216423324	0	0	0	0	0	-0.00237228069	-0.0157404337	-0.0297000557	-0.0568646155	-0.05305581	0.01567874	0.0917274	0.121487163	0.07730684	0.03194796	0.0188568849	0.0171518084	0.008577298	-0.00150180212	-0.00279311859	-0.0364935249	-0.112792745	-0.15194121	-0.0519321077	0.06272986	0.1067484	0.0673092157	0.00284617278	0	0	0	0	0	-0.00237228069	-0.0236960072	-0.03930841	-0.0576428473	-0.0437815376	0.04678285	0.103602163	0.112212427	0.06019446	0.0311286822	0.014768214	0.0116176568	0.00375906541	-0.005459924	-0.00624986133	-0.039311897	-0.115252346	-0.142347246	-0.0450521968	0.07321796	0.107288249	0.0682699	0.002968572	0	0	0	0	0	-0.00237228069	-0.03112556	-0.04584216	-0.0610693544	-0.0356789827	0.06654285	0.111761466	0.09457963	0.04431319	0.02535543	0.0107709048	0.006580673	-3.44449181E-05	-0.0043929955	-0.0102279466	-0.0561779775	-0.117137924	-0.115507983	-0.0213138424	0.08625657	0.09608616	0.05522771	0.002339089	0	0	0	0	0	-0.002499769	-0.0365194678	-0.0547818579	-0.06925742	-0.0227304231	0.07755349	0.104456358	0.07513985	0.0303655155	0.0181769133	0.00638932036	-0.00233440916	-0.00775731076	-0.0129407989	-0.0251994729	-0.06413963	-0.09828536	-0.07000333	0.0176279061	0.08946307	0.07703362	0.0409726538	0.00216423324	0	0	0	0	0	-0.00317695388	-0.0414072834	-0.0619639568	-0.07051171	-0.010069103	0.09242362	0.10577178	0.06608593	0.0240895189	0.006813671	0.00310041965	5.79715052E-05	-0.0152947074	-0.0329946	-0.0432958454	-0.0605854653	-0.06406248	-0.0265267473	0.0433517657	0.08204855	0.0602700859	0.024406122	0.00368167227	0	0	0	0	0	-0.001581893	-0.0478260666	-0.06544469	-0.06627748	-0.007011203	0.09525109	0.115122341	0.075042434	0.02752723	0.00710162055	-0.000373969437	-0.0156504139	-0.0293353051	-0.0357927755	-0.0355469137	-0.0356232971	-0.0284853224	0.009671111	0.0572576672	0.06979504	0.0458791554	0.01046135	0.00368167227	0	0	0	-0.0006095608	-0.0006095608	-0.002553022	-0.049631618	-0.0595251061	-0.06622706	-0.0185001567	0.07075454	0.10171032	0.07152673	0.0375797153	0.009347458	-0.006707004	-0.0289417822	-0.0288797319	-0.0225637667	-0.01896293	-0.009168668	-0.000355981116	0.0364716835	0.0597656928	0.0487051271	0.017283462	0.000208603742	0	0	0	0	-0.0006095608	-0.0006095608	-0.00191930332	-0.03549837	-0.0502493232	-0.06839411	-0.0349444337	0.01907104	0.057734888	0.0509181	0.0186922	9.00288942E-05	-0.0143110892	-0.0171673913	-0.0134852482	-0.003756806	0.00210084184	0.004177524	0.0195710342	0.04396793	0.0474480055	0.0258667134	0.004064438	-0.000343926949	0	0	0	0	0	0	0	-0.02186164	-0.04073002	-0.0582700558	-0.05730171	-0.0328681357	-0.0018644029	0.0149926916	-0.00152702141	-0.0202495642	-0.0181504358	-0.01311781	-0.00166778243	0.0182464644	0.0127737271	0.01676763	0.0298085734	0.0353689827	0.0242450014	0.008419248	0.00258151954	-0.00186408078	0	1.58338389E-05	0	0	0	0	0	-0.006577661	-0.02584234	-0.0453182869	-0.06373697	-0.06370454	-0.0435667969	-0.0127073647	0.00366095919	0.00326043926	0.0102592241	0.0205593277	0.0129906517	0.00742538366	0.0131188575	0.0158814788	0.0232091956	0.02024636	0.0105921943	0.007778416	-0.000677356	-0.002902763	0.0003874567	1.58338571E-05	0	0	0	0	0	0.000152855835	-0.007235319	-0.0181540437	-0.0305502713	-0.0405688062	-0.0378529467	-0.01651931	0.0214703865	0.0361779481	0.0236624423	0.02098353	0.01963916	0.0209977683	0.02064668	0.02417993	0.0168102141	0.011402783	0.00614943635	0.00227722665	-0.003105321	-0.002902763	0	0	0	0	0	0	0	0.00134923856	9.137059E-05	0.0010315351	-0.0009934135	0.000435716531	-0.00568997	-0.006719798	0.00236425316	0.00577427866	0.0151013993	0.0254475363	0.0290883332	0.0217158776	0.016688386	0.0110328114	0.00641446654	0.003905593	0.00368167227	0	0	0	0	0	0	0	0	0	0	0	0	0	0	0	0	-0.000227519835	-0.000227519835	0.000972615846	0.000972615846	0.000972615846	0.000972615846	0.000972615846	0	0	0	0	0	0	0	0	0	0	0	0	0	0	0	0	0	0	0	0	0	0	0	0	0	0	0	0	0	0	0	0	0	0	0	0	0	0	0	0	0	0	0	0	0	0	0	0	0	0	0	0	0	0	0	0	0	0	0	0	0	0	0	0	0	0	0
EigenVector8	0	0	0	0	0	0	0	0	0	0	0	0	0	0	0	0	0	0	0	0	0	0	0	0	0	0	0	0	0	0	0	0	0	0	0	0	0	0	0	0	0	0	0	0	0	0	0	0	0	0	0	0	0	0	0	0	0	0	0	0	0	0	0	0	0	0	0	0	0	0	0	0	0	0	0	0	0	0	0	0	0	0	0	0	0	0	0	0	0	0	0	0	0.0003311554	0.0003311554	-0.00110920065	-0.00498236949	-0.00935898349	-0.0108430283	-0.009000548	-0.006055149	-0.00299602631	0.00137436483	0.0015679443	-0.000493035652	-0.000281429762	9.587714E-05	-0.00065845903	-0.001281218	0	0	0	0	0	0	0	0	-0.00127637549	-0.00127637549	-0.00138527493	-0.00145435147	-0.00325664924	-0.009827252	-0.01584927	-0.0203697942	-0.0303569511	-0.0348706841	-0.02925625	-0.00741873076	0.005182527	-0.012183588	-0.0238782372	-0.0267573055	-0.0246787369	-0.0195570458	-0.0111434739	-0.00182977039	0	0	0	0	0	0	0	0	-0.00160464039	-0.00110630586	-0.00232998584	-0.00367787061	-0.0124254655	-0.0221875347	-0.03081432	-0.0330446549	-0.0113493493	0.008065027	0.0210137125	0.0290497728	0.0374086052	0.0310860928	0.005048079	-0.0141162062	-0.03467614	-0.0350903161	-0.0242681857	-0.007916967	-0.00119069964	0	0	0	0	0	0	0	-0.00160464039	-0.00282380963	-0.0061396095	-0.0121675935	-0.0234660711	-0.03200828	-0.0354672931	0.0010740147	0.04191291	0.07656613	0.0889288262	0.06640578	0.04588123	0.0286496431	0.0297327358	0.0160855111	-0.006742157	-0.0191609822	-0.0297044367	-0.0136745283	-0.002798468	-0.0013992996	0	0	0	0	0	0	-0.00473797228	-0.00340285548	-0.007506063	-0.0187476873	-0.02829826	-0.03384847	-0.00218281127	0.0444018655	0.10155721	0.125797257	0.08579167	0.0390499048	0.01032425	-0.002270458	0.01174109	0.036199	0.0209345184	0.000276339153	-0.01675231	-0.0134547111	-0.0031057687	-0.00166860793	0	0	0	0	0	0	-0.00403543469	-0.003515436	-0.0101012476	-0.0256327819	-0.030003503	-0.00779268937	0.0513675	0.117598109	0.155423	0.102564104	0.02960725	-0.0204200465	-0.04765315	-0.04745712	-0.00216773385	0.0293003041	0.0332760364	0.009383924	-0.0121715441	-0.0111572463	-0.002270147	-0.004709854	0	0	0	0	-0.00027759673	-0.00027759673	-0.00348337763	-0.00638813	-0.0178512279	-0.02849259	-0.01511763	0.0448558964	0.126314387	0.164117888	0.119159915	0.03603435	-0.0435595438	-0.07333519	-0.06858879	-0.04768046	-0.0232084468	0.0224070512	0.035118565	0.002266939	-0.009217199	-0.0060056583	0.002435479	-0.00389461056	0	0	0	0	-0.00027759673	-0.000277596468	-0.0042660567	-0.0154963611	-0.02831268	-0.02516366	0.0185810681	0.108134612	0.154306084	0.110616453	0.0418031774	-0.0368714072	-0.09947613	-0.0797184557	-0.05374221	-0.03281888	0.00227476959	0.0132834148	0.0185903125	-0.01469393	-0.0170093868	-0.00120454037	0.00400633924	-0.00389461056	0	0	0	0	0	0	-0.005140978	-0.025436772	-0.02960937	-0.00221548183	0.07625235	0.138874725	0.115663335	0.0300862622	-0.04098757	-0.0852483	-0.07925734	-0.0483283475	-0.0303161386	-0.00668289931	0.03585206	0.03233277	0.003652225	-0.0463803448	-0.0309007932	0.0114786308	0.0101137143	-0.00389461056	0	0	0	0	0	0	-0.00976235	-0.0306773651	-0.01316117	0.04224564	0.107193492	0.110945545	0.0472753271	-0.03600995	-0.0843811855	-0.08310967	-0.0496713519	-0.02058824	-0.00656566629	0.0143348081	0.0559635237	0.0536637455	-0.00585218	-0.0783490539	-0.0496741831	0.0188669059	0.0213315021	0.002367735	0	0	0	0	0	-0.00323051447	-0.018868573	-0.0303410944	0.02224553	0.0794883147	0.101321794	0.04813773	-0.0165401511	-0.06640236	-0.0762543455	-0.0388207	-0.020015493	-0.008210591	0.00705723325	0.0317072645	0.07406722	0.0685212538	-0.000953618437	-0.103195377	-0.06700315	0.02345842	0.0326819532	0.00368458	0	0	0	0	0	-0.00323051447	-0.025468953	-0.0155278686	0.04433722	0.08169706	0.06692369	-0.009973073	-0.0594922155	-0.05866218	-0.033467494	-0.00557501055	-0.00644568447	-0.002142505	0.0102925766	0.0514316447	0.09709351	0.07479796	-0.0220957212	-0.113709174	-0.07601629	0.0163133442	0.03683372	0.00392093929	0	0	0	0	0	-0.00323051447	-0.03017492	0.004260677	0.0544955544	0.07028781	0.0104822088	-0.04675236	-0.0605503172	-0.0297973361	-0.00223696372	-0.000530144549	0.000507706	0.0050850627	0.0275315251	0.0780898258	0.107838519	0.0546069853	-0.0499856	-0.121848151	-0.07920927	0.0189890154	0.036518544	0.0027053887	0	0	0	0	0	-0.004062046	-0.0291221682	0.0103795445	0.0533201769	0.03291734	-0.0333468579	-0.06658621	-0.03620436	-0.002843498	0.00727654155	0.00727009	0.0122678988	0.02505824	0.05853332	0.0996589139	0.0865420252	-0.000606729	-0.09296413	-0.119167253	-0.05116931	0.0261974279	0.0304530077	0.002367735	0	0	0	0	0	-0.006534164	-0.0252815224	0.015462311	0.0419709273	0.009863572	-0.051804252	-0.0564333163	-0.0114829093	0.00758359255	0.0151970265	0.023521129	0.0340969749	0.0607759468	0.09291887	0.0859883651	0.0357068963	-0.0578562431	-0.124637619	-0.105200976	-0.0230472814	0.0363853276	0.0224145632	0.003626091	0	0	0	0	0	-0.00350814941	-0.0147017771	0.0212504938	0.030237915	-0.005772468	-0.0521576181	-0.03434168	0.008662864	0.0310752541	0.038399104	0.044564005	0.05607693	0.07334848	0.07133876	0.0414377972	-0.03273096	-0.109409675	-0.126716718	-0.05120452	0.0121081574	0.04032027	0.008891259	0.003626091	0	0	0	-0.0007179032	-0.0007179032	-0.003621242	-0.0123237018	0.00985271949	0.02569646	-0.009826139	-0.0401695147	-0.0180193409	0.029291844	0.0544315353	0.04905688	0.04364672	0.0504504479	0.04733345	0.0159980524	-0.0357335657	-0.104828708	-0.127450019	-0.0657519251	0.003864709	0.03813643	0.0255488753	0.002524516	0	0	0	0	-0.0007179032	-0.0007179032	-0.00157661492	-0.0169568341	-0.0131550273	0.0154791111	0.0109359641	-0.0214195512	-0.0221881382	0.008188087	0.0173249356	0.0139177032	0.00284095178	-0.0117615648	-0.03238206	-0.0742408559	-0.102073818	-0.107411385	-0.06061988	0.00493053533	0.03864296	0.0304738022	0.00788217	0.004355074	0	0	0	0	0	0	0	-0.0149908727	-0.0291674938	0.005831796	0.0177851114	-0.0143340826	-0.0541237779	-0.0476670824	-0.0535581969	-0.06826214	-0.083504	-0.0947894752	-0.09456181	-0.09340699	-0.0738001838	-0.0350286029	0.0118997479	0.0393862426	0.03173267	0.008976302	0.00355953164	0.00311336922	0	0.00431788	0	0	0	0	0	-0.0077373283	-0.0265389569	-0.0126013681	0.0118001932	0.00501556	-0.0217979	-0.04147948	-0.0510542654	-0.06406574	-0.07076726	-0.0520959646	-0.0285680853	-0.0135750975	0.00374439615	0.0302897822	0.03799072	0.0284153149	0.009960381	0.00444638543	0.00118626712	0.00202299771	-0.00146747415	0.004317881	0	0	0	0	0	0.000184329954	-0.008323923	-0.0168334488	-0.00351453549	0.008741595	0.0197058152	0.0165748056	0.02016332	0.0157396346	0.02742063	0.0398284346	0.0479165725	0.0471187234	0.0421792343	0.0309242681	0.0179111846	0.00754853338	0.0031480738	0.00201205933	0.00180660759	0.00202299771	0	0	0	0	0	0	0	-0.000355708762	6.274776E-05	-0.00296670618	0.0007824183	0.0104791317	0.0284564476	0.0416166857	0.0563903861	0.07705505	0.06999369	0.0607299246	0.04257558	0.0271944217	0.0173520539	0.008875194	0.004235238	0.00381408026	0.003626091	0	0	0	0	0	0	0	0	0	0	0	0	0	0	0	0	-0.0004601672	-0.0004601672	0.0005071349	0.0005071349	0.0005071349	0.0005071349	0.0005071349	0	0	0	0	0	0	0	0	0	0	0	0	0	0	0	0	0	0	0	0	0	0	0	0	0	0	0	0	0	0	0	0	0	0	0	0	0	0	0	0	0	0	0	0	0	0	0	0	0	0	0	0	0	0	0	0	0	0	0	0	0	0	0	0	0	0	0
EigenVector9	0	0	0	0	0	0	0	0	0	0	0	0	0	0	0	0	0	0	0	0	0	0	0	0	0	0	0	0	0	0	0	0	0	0	0	0	0	0	0	0	0	0	0	0	0	0	0	0	0	0	0	0	0	0	0	0	0	0	0	0	0	0	0	0	0	0	0	0	0	0	0	0	0	0	0	0	0	0	0	0	0	0	0	0	0	0	0	0	0	0	0	0	0.00446919538	0.00446919538	0.00385349966	0.00137574563	-0.004729032	-0.006558287	-0.007484128	-0.0147288255	-0.0236944947	-0.0182154588	-0.009629865	-0.000423465332	0.000736818765	0.00055032887	0.000821811554	0.00199591368	0	0	0	0	0	0	0	0	0.002591236	0.002591236	7.18009542E-05	0.00191768026	0.00361644337	0.007838504	0.0110867	0.014589618	0.0255509131	0.0307322983	0.0155886235	-0.0153677417	-0.06376054	-0.07446398	-0.0471657068	-0.00751699647	0.012024533	0.01570917	0.012009467	0.00294879149	0	0	0	0	0	0	0	0	-0.0009886246	0.00313501363	0.0027439564	0.00426289625	0.00617981236	0.01631343	0.0417638	0.06613659	0.06911484	0.05911061	0.041052565	0.00576179335	-0.0163554437	-0.0129004763	-0.00463607674	0.0348205827	0.06949224	0.06164488	0.0402087271	0.0131905545	0.00508523453	0	0	0	0	0	0	0	-0.0009886246	0.00285354815	0.0027920003	0.00321074878	0.0144270444	0.0274620634	0.0570623465	0.08197796	0.07932542	0.03278999	0.014628184	0.0170864146	0.02512804	0.0125889638	-0.0008928394	0.0383690223	0.105432	0.13421455	0.100566134	0.04492926	0.006098998	0.00196951162	0	0	0	0	0	0	-0.00128962286	0.000374686468	0.00216911128	0.00585168228	0.0168000329	0.0487483181	0.06983509	0.07596499	0.030498866	-0.01220189	-0.004465523	0.0195921585	0.02968257	0.0184146278	-0.0368472226	-0.0451501831	0.0398679562	0.138760254	0.153840885	0.08396136	0.0134452926	0.002007482	0	0	0	0	0	0	-0.0008757227	-0.00179274019	-0.000481308729	0.005950556	0.0289883837	0.06256037	0.0714865252	0.0248945449	-0.0256154649	-0.02977063	-0.005352653	0.0221374482	0.03948645	0.0211937074	-0.0623739026	-0.152352914	-0.1140231	0.0583048724	0.166233078	0.121074833	0.0270692427	0.001696574	0	0	0	0	0.00236694049	0.00236694049	-0.0009992765	-0.0031472405	-0.0006304704	0.01960483	0.03491752	0.05784494	0.03872839	-0.0122917844	-0.02766935	-0.0160893872	0.005887079	0.0113701057	0.0408820026	0.0459962524	-0.0336958468	-0.168112665	-0.22491093	-0.06539493	0.125050068	0.131044164	0.03982743	0.0005491196	0	0	0	0	0.00236694049	0.00236694026	0.0004356678	-0.00521931145	0.00331345154	0.0238531549	0.050294105	0.0496702679	-0.002126873	-0.03673532	-0.0165729281	0.000394683273	0.007996633	0.0063447943	0.0287259184	0.07530895	0.04107708	-0.0929329	-0.212864622	-0.131601527	0.054728318	0.115150444	0.0461752564	0.0005491196	0	0	0	0	0	0	-0.00115629868	-0.008253028	0.00196749531	0.0185356587	0.0408514068	0.0148083447	-0.0410536639	-0.0296464153	0.00335400645	0.0250099339	0.0202158485	0.0176373012	0.0257943235	0.08097509	0.0821479559	-0.0144179482	-0.144247487	-0.138009131	0.00503587956	0.07663459	0.0431866534	0.0005491196	0	0	0	0	0	0	-0.00362961763	-0.0113221016	0.00125703251	0.02009557	0.0326011442	-0.0119196251	-0.0348281972	0.0149414269	0.02937493	0.0191621166	0.01243291	0.0233177468	0.0254532788	0.0694600642	0.08995657	0.0232019313	-0.07057497	-0.105882786	-0.0199036021	0.0356008746	0.02617087	0.00173006847	0	0	0	0	0	-0.000575021957	-0.008896845	-0.01565392	0.00251682871	0.0199880358	0.0145651456	-0.0188013315	-0.004261964	0.043231	0.03914898	0.0204037447	0.0110113965	0.007927525	0.02000893	0.05491712	0.08334641	0.0389871523	-0.0151114585	-0.0504761226	-0.013423143	-0.00152821071	0.00343233487	0.002060947	0	0	0	0	0	-0.000575021957	-0.0139802452	-0.0185767356	0.00396968331	0.0131986812	-0.00499587366	-0.0129951518	0.02945567	0.056101054	0.0374710821	0.01327217	0.00479486631	0.00508882338	0.0143788243	0.0462062322	0.06363573	0.0506039821	0.0194572248	-0.01251489	-0.0113150738	-0.0313289762	-0.0162670482	0.00212033652	0	0	0	0	0	-0.000575021957	-0.0208324753	-0.0137159573	0.0131202592	0.00109813386	-0.0312171485	-0.00419360446	0.0572210439	0.06452696	0.0317002	0.006933295	0.000427915249	0.00244450662	0.0137379011	0.0409943573	0.053704	0.0556577966	0.04291038	0.0146822939	-0.0249618087	-0.0449862555	-0.02497886	0.0018149094	0	0	0	0	0	-0.00116588688	-0.01937244	-0.003706328	0.0171214323	-0.025945276	-0.041537974	0.0108204074	0.08076651	0.0733751655	0.03604864	0.0114871161	0.007700575	0.00749247428	0.0225950256	0.0341239274	0.0509983674	0.051992368	0.05072785	0.0168600213	-0.0390194878	-0.0388305932	-0.02172371	0.00173006859	0	0	0	0	0	-0.001971005	-0.0137192775	0.005888764	0.006151732	-0.0560164042	-0.0610929355	0.004168611	0.0952635	0.0786368	0.03751411	0.0121651441	0.00602684356	0.009188303	0.0125450706	0.0224745013	0.0404535756	0.0421957821	0.0366440341	-0.005170481	-0.03495122	-0.0313912481	-0.0135678621	0.0002331044	0	0	0	0	0	-0.00140638137	0.0126620177	0.01770173	-0.00570300454	-0.08318207	-0.0987127051	-0.0150771318	0.08915445	0.08013469	0.02531898	-0.00457949238	-0.0105951475	-0.0151900705	0.000526731135	0.0179966	0.0219909418	0.03499071	0.0197260212	-0.0134119885	-0.0335275568	-0.02456186	-0.00419437373	0.0002331044	0	0	0	0.0005241651	0.0005241651	-0.00233978336	0.0302763488	0.0422495864	-0.0038224617	-0.101588167	-0.135430142	-0.0642858	0.0427554362	0.0439621359	0.00916109	-0.0139962826	-0.01710726	-0.00651178975	0.010579437	0.0218492057	0.0297425818	0.0186035112	0.00276369764	-0.0168483574	-0.0236189738	-0.00721623329	-0.000225764452	0	0	0	0	0.0005241651	0.0005241651	-0.00124091713	0.0303019211	0.06533397	0.0308933575	-0.0714729652	-0.131935909	-0.094189696	-0.0129721891	0.006572233	-0.009724564	-0.0119756069	-0.00443809573	-0.00295435777	0.007568047	0.0282001588	0.037127804	0.031788148	0.009324066	-0.0154212667	-0.00625739666	0.00371219427	0.00419938331	0	0	0	0	0	0	0	0.0265941732	0.06734774	0.06584138	-0.00276142475	-0.0623992421	-0.05890758	-0.0258989055	0.008299796	0.0037781077	-0.001729193	0.00613526953	0.0217704233	0.0547720939	0.056183368	0.047111392	0.0363998376	0.0109507237	-0.00142330164	0.00541363144	0.002632702	0.00136326056	0	-0.000770527637	0	0	0	0	0	0.01393166	0.0455732755	0.07253614	0.05434837	0.0124453073	-0.0116386451	0.00418089	0.0135566	0.029535573	0.0474040732	0.0571348369	0.08230317	0.08049746	0.0656365156	0.04649817	0.0207035244	0.00764003769	0.00415101834	0.00555656757	0.00211988087	0.0009937313	0.00108437648	-0.000770527637	0	0	0	0	0	0.00365825952	0.0144793782	0.0416149423	0.06105531	0.0594914	0.0373426564	0.03064365	0.0532135032	0.08182474	0.101476885	0.104258433	0.09589566	0.0595975369	0.0306683052	0.00957843848	0.00206089951	0.0009309565	0.00233803852	0.00125576009	0.00122649537	0.0009937314	0	0	0	0	0	0	0	0.0032307338	0.00412746	0.0108586326	0.0187769663	0.0287827514	0.040617492	0.0422702469	0.0467216074	0.0558131	0.04518595	0.0282208379	0.0109852431	0.002505298	-0.00020126297	-0.00226283679	-0.00134926359	6.699646E-05	0.0002331044	0	0	0	0	0	0	0	0	0	0	0	0	0	0	0	0	0.00097643584	0.00097643584	-0.000671870657	-0.000671870657	-0.000671870657	-0.000671870657	-0.000671870657	0	0	0	0	0	0	0	0	0	0	0	0	0	0	0	0	0	0	0	0	0	0	0	0	0	0	0	0	0	0	0	0	0	0	0	0	0	0	0	0	0	0	0	0	0	0	0	0	0	0	0	0	0	0	0	0	0	0	0	0	0	0	0	0	0	0	0
EigenVector10	0	0	0	0	0	0	0	0	0	0	0	0	0	0	0	0	0	0	0	0	0	0	0	0	0	0	0	0	0	0	0	0	0	0	0	0	0	0	0	0	0	0	0	0	0	0	0	0	0	0	0	0	0	0	0	0	0	0	0	0	0	0	0	0	0	0	0	0	0	0	0	0	0	0	0	0	0	0	0	0	0	0	0	0	0	0	0	0	0	0	0	0	0.00153252308	0.00153252308	0.00105098239	0.0009882369	0.00436954247	0.009749026	0.005544218	-0.00195453828	0.00310928351	0.007692943	0.00626397552	-0.0008075025	-0.00217127055	-0.00194189069	-0.000685898	-0.0015937892	0	0	0	0	0	0	0	0	0.00177241443	0.00177241443	-0.00206369883	-0.00241429987	0.0006752047	0.002552242	0.00305218925	0.0174307413	0.0320288055	0.0484193452	0.0504013374	0.0362647474	0.05880136	0.0581464544	0.05647469	0.0381739363	0.0231026057	0.00621389644	-0.00047237	6.582794E-05	0	0	0	0	0	0	0	0	0.000610852265	-0.0005245963	-0.0026728	-0.00387163972	-0.006660064	-0.00634221733	0.0113257691	0.0273013972	0.0276663061	-0.009234946	-0.0400172845	-0.0385236964	-0.0177999381	-0.00103611941	0.0214448161	0.0305647757	0.02839042	0.0196798947	0.005444988	0.0012014159	0.000750440639	0	0	0	0	0	0	0	0.000610852265	-0.00133908947	-0.0062398864	-0.0119553534	-0.0195073243	-0.0150843263	0.0109053263	0.00457333773	-0.03662734	-0.08359499	-0.0847476	-0.0538943224	-0.0475606546	-0.0539818555	-0.06519638	-0.0469691232	-0.0141352778	0.016595982	0.0213237274	0.01350435	0.00357858813	-0.00119496952	0	0	0	0	0	0	-0.00177873706	-0.006488998	-0.014879426	-0.0224790629	-0.0290255882	-0.00389983715	0.008631615	-0.02502923	-0.07504906	-0.07752424	-0.0504762232	-0.03574905	-0.04814135	-0.06532253	-0.08787529	-0.09753989	-0.06363908	-0.0153845642	0.0174083151	0.023899978	0.0112995626	-0.0009718616	0	0	0	0	0	0	-0.00246099	-0.0110973464	-0.0193645	-0.0297105424	-0.0266586225	0.0231839158	0.0234704	-0.035317447	-0.06602765	-0.03959903	-0.00137144048	0.0100876512	-0.0117672067	-0.015801793	-0.045707345	-0.09083563	-0.10320133	-0.058734633	-0.00170657306	0.0302057173	0.022584172	0.002530282	0	0	0	0	0.00147133658	0.00147133658	-0.005469673	-0.0143029122	-0.0315999873	-0.043869175	0.00135521148	0.04608289	0.006283396	-0.0345903039	-0.04385033	-0.0143374018	0.0109812133	0.04144932	0.0544619933	0.06873002	0.03735475	-0.044798743	-0.115828738	-0.1002411	-0.03226607	0.0264898315	0.0338072479	0.00322648138	0	0	0	0	0.00147133658	0.00147133647	-0.00182043342	-0.0212400146	-0.0468109921	-0.0261581168	0.0385827422	0.0558249652	0.0124730952	-0.0262454078	-0.03607403	-0.0005067866	0.0251362454	0.0510227233	0.07587295	0.08713696	0.09272522	0.0262869988	-0.08789707	-0.116870008	-0.0554605946	0.0168025363	0.050684914	0.00322648138	0	0	0	0	0	0	-0.004942463	-0.0416343547	-0.04969085	0.00491291	0.0635586455	0.0640484244	0.00651814	-0.03293651	-0.0221623443	0.0111949435	0.0231053382	0.0343941934	0.04924695	0.06408974	0.09333487	0.06938774	-0.0496063158	-0.124873877	-0.06246258	0.017851172	0.05623504	0.00322648138	0	0	0	0	0	0	-0.0153825991	-0.0553440079	-0.0417563841	0.0273134373	0.09343228	0.0581452064	-0.013150895	-0.03843492	-0.0113400957	0.0226045419	0.0168928728	0.00305245351	0.02573747	0.044322297	0.0839019	0.0663713142	-0.0408095829	-0.128206	-0.07321786	0.008008034	0.0609989055	0.0036174166	0	0	0	0	0	0.0006562569	-0.0288526267	-0.06883691	-0.0381400548	0.0583776832	0.113070138	0.04733312	-0.0358021222	-0.03582931	-0.0127932485	0.00550052756	0.00230097678	0.003688483	0.0160452221	0.0341624767	0.0696096	0.0535141975	-0.0411518551	-0.123670116	-0.07197482	0.0118908277	0.06833287	0.00431097159	0	0	0	0	0	0.0006562569	-0.04249119	-0.0677719861	-0.0212762356	0.09869183	0.122856587	0.026006218	-0.0443798751	-0.04274969	-0.02851903	-0.00482453732	0.00185305625	0.005498908	0.009946415	0.0291239	0.05872203	0.0298349988	-0.0512242	-0.113660425	-0.0553037077	0.0199603718	0.06722145	0.004435457	0	0	0	0	0	0.0006562569	-0.061216563	-0.07241127	0.00295249722	0.128382057	0.123347715	0.007243325	-0.06270884	-0.0560677052	-0.0258408543	-0.00237047765	0.00648816675	0.009433013	0.0153774889	0.0260112528	0.0386015475	-0.00143195875	-0.07626017	-0.08662414	-0.0292366557	0.0311510526	0.0488400757	0.00379525148	0	0	0	0	0	0.00101310411	-0.0750820041	-0.0671648458	0.0329879224	0.148672074	0.124868229	-0.0179248862	-0.07820506	-0.0560606159	-0.0223283544	-0.00226616673	0.004619811	0.0111445608	0.01238149	0.01598622	0.00220877957	-0.0398016125	-0.08219404	-0.04458754	0.0138449594	0.0389085338	0.03303638	0.00361741683	0	0	0	0	0	0.00121613219	-0.08486738	-0.0652728453	0.0427216366	0.168795466	0.122203678	-0.0317926668	-0.09018914	-0.0534044765	-0.0224702377	-0.00672860164	-0.00134797988	0.004348104	-0.0050892164	-0.0180317517	-0.0297253672	-0.04971449	-0.0424128063	0.0008038254	0.0368962325	0.028207276	0.01830993	-0.00135016267	0	0	0	0	0	0.00073754054	-0.07432598	-0.0600041337	0.0409020446	0.155931041	0.104852989	-0.0397146121	-0.08510889	-0.06030851	-0.0391698219	-0.0194580164	-0.0131714046	-0.01747265	-0.02923251	-0.022422038	-0.0245720875	-0.0375484675	0.009155664	0.0355242826	0.02469267	0.0161870066	0.00482841162	-0.00135016267	0	0	0	-0.0007180551	-0.0007180551	0.000198981375	-0.0691981241	-0.0471235476	0.02844372	0.130363256	0.107574157	-0.0277462769	-0.08083312	-0.0611043125	-0.0335018635	-0.0217961855	-0.0143330377	-0.01692561	-0.00764796371	-0.000922744861	-0.00148816663	0.0106434952	0.0334262028	0.025625132	0.00388447521	-0.000300216954	-0.000511207967	0	0	0	0	-0.0007180551	-0.0007180551	-0.000476450456	-0.05210127	-0.04684931	0.007604653	0.09814531	0.113550395	0.0238832813	-0.0451280251	-0.04745606	-0.00906746	4.71506974E-05	0.00614995044	0.030435903	0.04367462	0.04390293	0.0379986	0.0339489952	0.0119779585	-0.0128655359	-0.012599959	-0.00611566659	-0.0018669304	0	0	0	0	0	0	0	-0.0328221135	-0.0448706634	-0.008956036	0.05543319	0.09482589	0.07127713	0.01984367	0.008144248	0.03306768	0.0445517749	0.05881622	0.0681642	0.0500081033	0.02304233	0.007643708	-0.00768945459	-0.0226258487	-0.01817272	-0.009087448	-0.00352681079	-0.0004997627	0	0.002153946	0	0	0	0	0	-0.0160288326	-0.0328964926	-0.028290825	0.0142678292	0.0463412441	0.06459971	0.05287331	0.0354327932	0.03563151	0.0406251363	0.0324781127	0.004434342	-0.0168247074	-0.030054789	-0.0491755567	-0.03774741	-0.0197357126	-0.0109737664	-0.006558597	-0.002173702	0.0002683011	-0.00268314756	0.00215394632	0	0	0	0	0	-0.00479136361	-0.0153494626	-0.0212527085	-0.0136464033	0.000784996955	0.0186432526	0.0277155321	0.00613477174	-0.007208165	-0.0311326664	-0.05109909	-0.07187474	-0.08053653	-0.0726049	-0.0458332673	-0.0200208072	-0.01282824	-0.00577667076	-0.00292641623	-0.000133166221	0.0002683012	0	0	0	0	0	0	0	-0.00370673672	-0.00503861066	-0.006043373	-0.005024526	-0.006029044	-0.010882888	-0.0284707043	-0.05202324	-0.077888906	-0.08595298	-0.08164266	-0.06638676	-0.04640873	-0.0252386238	-0.0109726964	-0.00523812464	-0.00168548047	-0.00135016267	0	0	0	0	0	0	0	0	0	0	0	0	0	0	0	0	4.89966369E-05	4.89966369E-05	-0.0009631894	-0.0009631894	-0.0009631894	-0.0009631894	-0.0009631894	0	0	0	0	0	0	0	0	0	0	0	0	0	0	0	0	0	0	0	0	0	0	0	0	0	0	0	0	0	0	0	0	0	0	0	0	0	0	0	0	0	0	0	0	0	0	0	0	0	0	0	0	0	0	0	0	0	0	0	0	0	0	0	0	0	0	0
EigenVector11	0	0	0	0	0	0	0	0	0	0	0	0	0	0	0	0	0	0	0	0	0	0	0	0	0	0	0	0	0	0	0	0	0	0	0	0	0	0	0	0	0	0	0	0	0	0	0	0	0	0	0	0	0	0	0	0	0	0	0	0	0	0	0	0	0	0	0	0	0	0	0	0	0	0	0	0	0	0	0	0	0	0	0	0	0	0	0	0	0	0	0	0	-0.000437201641	-0.000437201641	-0.000137156749	0.00129930349	0.003482658	0.006433691	0.009224202	0.0138886776	0.0165183041	0.0204303022	0.0183141325	0.0154976891	0.0132853724	0.0104337847	0.00486696232	0.00638485933	0	0	0	0	0	0	0	0	0.001791237	0.001791237	0.00187957485	0.00274706329	-0.002200436	-0.00187201693	0.00440328661	0.018454615	0.0346550122	0.05414392	0.07825274	0.09986412	0.115232319	0.118291095	0.114066117	0.09150957	0.0592475273	0.03560043	0.01562956	0.006569751	0	0	0	0	0	0	0	0	0.00158293557	0.00450174976	0.005090305	0.00279089832	-0.00559823	-0.008258723	-0.005065045	0.008033038	0.01946984	0.0362558737	0.04650755	0.0555886477	0.06863955	0.116245188	0.129409373	0.108030364	0.06491753	0.0409208946	0.01722092	0.0043509095	-0.00171300909	0	0	0	0	0	0	0	0.00158293557	0.00324162771	1.02996337E-05	-0.00596151	-0.0160414055	-0.0256288573	-0.0238723326	-0.01854319	-0.0285268072	-0.0199781954	-0.0138647323	-0.0166931134	-0.02438639	0.00762633746	0.04766809	0.05377473	0.04809181	0.0236669462	0.00371681363	-0.00356406718	-0.00131677161	-0.00300136977	0	0	0	0	0	0	-0.001894913	-0.00138270215	-0.007790478	-0.02340494	-0.0342611447	-0.0452409461	-0.03772542	-0.0295303687	-0.0306603443	-0.0395353734	-0.0580645278	-0.07208888	-0.0741218254	-0.0666985139	-0.050117474	-0.0166973956	0.009257989	0.00193654746	-0.009179972	-0.009957861	-0.008802463	-0.00315241865	0	0	0	0	0	0	-0.0029503908	-0.008210262	-0.0171826053	-0.0393149555	-0.052693367	-0.05366364	-0.0303603318	-0.00753134	-0.007090826	-0.020259276	-0.0432222523	-0.06400213	-0.0774236843	-0.06643411	-0.06265653	-0.04996131	-0.0196275078	-0.013573057	-0.0244810581	-0.0322834253	-0.025991777	-0.003933037	0	0	0	0	0.00276479125	0.00276479125	-0.00221080123	-0.0104320822	-0.03039329	-0.05514104	-0.0551956967	-0.0260968991	0.01775179	0.0342255272	0.02129692	-0.000449849525	-0.0286430418	-0.0227593333	-0.02528113	-0.0207222383	-0.017073622	-0.0121509414	-0.00180691434	-0.00284070312	-0.0417124368	-0.06881934	-0.04340648	-0.002184413	0	0	0	0	0.00276479125	0.002764791	-0.001483116	-0.0182523057	-0.0458464026	-0.0626959354	-0.0327220932	0.0232663266	0.05832727	0.0573624521	0.0286026131	0.009381035	0.008701374	0.0157905314	0.0350049436	0.0347752757	0.03421768	0.0273856111	0.0305033214	0.0255269054	-0.0431087874	-0.09862703	-0.062296845	-0.002184413	0	0	0	0	0	0	-0.00330558256	-0.030606376	-0.0527688265	-0.043676056	0.006356857	0.0695991	0.06272488	0.0433303677	0.0288299154	0.0258688685	0.031813398	0.0266357	0.03992591	0.0436050333	0.0356756821	0.0509267375	0.05364864	0.0456724577	-0.02346645	-0.101430312	-0.07508795	-0.002184413	0	0	0	0	0	0	-0.00312310481	-0.0420902148	-0.0423146635	-0.0133335842	0.0377154648	0.07408979	0.0454843938	0.03362908	0.04020781	0.022126466	0.0126308	0.0149838207	0.0229196213	0.0361303054	0.03326736	0.0431796573	0.05039946	0.0484353155	-0.0120312283	-0.08929819	-0.07161589	0.00145083538	0	0	0	0	0	0.000724161859	-0.00621284824	-0.040881142	-0.027946841	0.0179549269	0.05744115	0.0398442	0.0363048762	0.0451941527	0.03363291	0.0124478806	0.00490642	0.008260421	0.0196383148	0.037668068	0.0308803	0.022321362	0.02752605	0.03807132	-0.0106883533	-0.06939558	-0.0614058636	0.0006011034	0	0	0	0	0	0.000724161859	-0.00276226876	-0.0168587267	0.000134328118	0.0272290986	0.0402073264	0.0264383	0.03828145	0.024551956	0.0229452271	0.0113819893	0.00678759	0.00655572535	0.0218083858	0.0403279141	0.0226747077	-0.003264733	-0.005383198	0.0141829513	-0.007951768	-0.03739438	-0.0417728052	0.000448586856	0	0	0	0	0	0.000724161859	0.014786371	0.004779159	0.0111458469	0.002070655	-0.007901486	0.0183652975	0.0291172042	0.0172612946	0.0179664064	0.00635970524	0.0009960284	0.00694429	0.0254869424	0.0359601	0.00353469956	-0.0415740274	-0.0462834761	-0.0120703885	0.008069897	-0.000663654	-0.01919678	0.00123295537	0	0	0	0	0	0.001956045	0.0409564152	0.0323721655	0.0207069851	-0.0343917422	-0.032643877	0.004119206	0.0250771977	0.0180683974	0.0124720465	0.008598966	0.0124895861	0.0248246025	0.0421341062	0.0174048059	-0.0606989674	-0.099072434	-0.0606389754	0.0106826248	0.0379001424	0.0185005087	-0.00754795223	0.00145083561	0	0	0	0	0	0.005324669	0.0600281172	0.0743148252	0.0106023429	-0.0735890642	-0.08563573	-0.0156804	0.03884108	0.0211315	0.0156230088	0.01586309	0.0266017541	0.03919478	0.02920175	-0.0527803227	-0.123700894	-0.11867144	-0.031197371	0.0497567728	0.06375856	0.02455922	-0.0023084837	-0.0004726451	0	0	0	0	0	0.0052126213	0.08274508	0.09435437	-0.0005128272	-0.104351215	-0.134627372	-0.0442502871	0.026739182	0.024688147	0.0137495073	0.0149473008	0.0244445149	0.011416221	-0.05044354	-0.115104668	-0.14266634	-0.0668114051	0.04479258	0.09666783	0.07112244	0.0179961566	0.000157948583	-0.0004726451	0	0	0	-0.0008176828	-0.0008176828	0.00514121726	0.08663434	0.118408658	0.0271967165	-0.09542869	-0.128331631	-0.0527858622	0.0203510243	0.0318959728	0.0213171821	0.0204450469	0.00619699433	-0.03726181	-0.092257306	-0.121684544	-0.08067751	0.0434471965	0.11332389	0.100990094	0.04415283	0.00403275155	-0.00188454159	0	0	0	0	-0.0008176828	-0.0008176828	0.0015061493	0.07472097	0.115816467	0.0685136	-0.04103352	-0.07870697	-0.0222904123	0.0392883271	0.0662707	0.06362819	0.03864525	-0.00507218856	-0.05501919	-0.0786219239	-0.04374437	0.047541324	0.117636539	0.109779552	0.0573024973	0.009644459	-0.001719378	-0.00339807267	0	0	0	0	0	0	0	0.0445615724	0.08625526	0.08195867	0.02708859	-0.0274818949	0.004432839	0.05759142	0.09349318	0.08857847	0.0532534	0.0110378517	-0.0140735032	-0.00786072947	0.0620794669	0.111926772	0.100374743	0.054842677	0.0130440919	0.00218956615	-0.00182676455	-0.00258492	0	0.0005219632	0	0	0	0	0	0.016804697	0.05067135	0.06755813	0.03622094	-0.00670613768	-0.0319227	0.0053462116	0.02587295	0.0260413	0.0124606285	-0.00560164126	0.00462403661	0.0507068262	0.07996649	0.06875768	0.0346308649	0.006640259	0.00382393715	0.004108421	1.459579E-05	-0.00257150014	-0.00023566086	0.0005219632	0	0	0	0	0	0.00333798281	0.01142243	0.0185756143	0.004148975	-0.018849723	-0.059207	-0.09190018	-0.09963888	-0.0903338	-0.05896234	-0.01933226	0.008435475	0.0292977113	0.0221333448	0.009851134	0.0019654308	0.00135100354	0.00162281352	0.0007342828	-0.002385566	-0.0025715006	0	0	0	0	0	0	0	0.00267483853	0.002688501	0.000174487723	-0.011380679	-0.0327260569	-0.0706626	-0.101965636	-0.122308314	-0.117967576	-0.09372656	-0.0599512868	-0.0316196345	-0.0174111333	-0.00293345726	5.9265767E-05	7.34877267E-06	-0.0005906335	-0.0004726451	0	0	0	0	0	0	0	0	0	0	0	0	0	0	0	0	0.00077476	0.00077476	-0.00212065829	-0.00212065829	-0.00212065829	-0.00212065829	-0.00212065829	0	0	0	0	0	0	0	0	0	0	0	0	0	0	0	0	0	0	0	0	0	0	0	0	0	0	0	0	0	0	0	0	0	0	0	0	0	0	0	0	0	0	0	0	0	0	0	0	0	0	0	0	0	0	0	0	0	0	0	0	0	0	0	0	0	0	0
EigenVector12	0	0	0	0	0	0	0	0	0	0	0	0	0	0	0	0	0	0	0	0	0	0	0	0	0	0	0	0	0	0	0	0	0	0	0	0	0	0	0	0	0	0	0	0	0	0	0	0	0	0	0	0	0	0	0	0	0	0	0	0	0	0	0	0	0	0	0	0	0	0	0	0	0	0	0	0	0	0	0	0	0	0	0	0	0	0	0	0	0	0	0	0	-0.000206197015	-0.000206197015	-0.000113415	-0.0018501851	-0.004636787	-0.00715561723	-0.006482403	-0.009615587	-0.004692434	-0.00148818549	-0.0006956985	0.002409417	-0.0003951374	-0.00149844133	-0.002382967	-0.001133443	0	0	0	0	0	0	0	0	0.00345690758	0.00345690758	-0.008498997	-0.0104946923	-0.0151969884	-0.0200436339	-0.0331785344	-0.04055056	-0.0523807928	-0.04773853	-0.008260712	0.0429964922	0.0601157472	0.0491781123	0.0195323117	-0.00600769231	-0.0151581876	-0.0173076857	-0.012176279	-0.00169140357	0	0	0	0	0	0	0	0	0.00124123925	0.0008869779	-0.008549948	-0.0143274227	-0.026772147	-0.0528481938	-0.07737753	-0.08127194	-0.067482546	-0.0203888509	0.0254764371	0.0553977862	0.0987968445	0.111097664	0.0818848759	0.0259247646	-0.0221791659	-0.0334480032	-0.0200597737	-0.008325317	-0.00156058522	0	0	0	0	0	0	0	0.00124123925	0.00269959122	-0.008691266	-0.0216455068	-0.051131174	-0.0902856141	-0.0825964138	-0.04729547	-0.0223744866	0.00194469478	-0.0251922272	-0.0352365635	-0.0175631288	0.0458748974	0.09007315	0.0847149342	0.03423599	-0.0231906511	-0.0328573734	-0.0148472525	-0.00115332066	-0.0011417761	0	0	0	0	0	0	0.001845406	-0.008725588	-0.0225921068	-0.04742555	-0.0768839046	-0.07235744	-0.0261221156	0.0132138655	0.00726575358	-0.0433951728	-0.07896562	-0.078112334	-0.08489579	-0.05548127	0.012391543	0.0846805051	0.0850214139	0.0225169025	-0.0240697227	-0.0250042584	-0.004071884	-0.00120625994	0	0	0	0	0	0	0.001214181	-0.0132054081	-0.0382861122	-0.06829106	-0.06600018	-0.0122574279	0.03353293	0.0428699739	-0.009058021	-0.027755769	-0.062604405	-0.05408599	-0.0604078434	-0.05584417	-0.0305630676	0.027634725	0.0879221559	0.05489586	0.00340101658	-0.0180936214	-0.008245945	-0.0015977415	0	0	0	0	0.000540736655	0.000540736655	-0.005192561	-0.0206971057	-0.0555341542	-0.0541653745	-0.0083014695	0.04434054	0.0517046675	-0.0007796882	-0.0282204635	-0.0209307075	0.000351976341	0.0263486262	0.005618089	-0.01232615	-0.0329835564	-0.0224733874	0.03573334	0.04809696	0.0335460752	-0.00562287	-0.00213762163	-0.000932533061	0	0	0	0	0.000540736655	0.000540736364	0.00151698466	-0.0372241922	-0.04972148	-0.0105346311	0.04785763	0.05003701	0.002037628	-0.0369874872	-0.0358989649	0.0127892671	0.06656463	0.08323096	0.06972922	0.0448904447	-0.00768958125	-0.0439534336	-0.00414788071	0.022009125	0.0261347238	0.01472025	0.000432062719	-0.000932533061	0	0	0	0	0	0	0.0021185847	-0.03760197	-0.0226614252	0.0401005372	0.0641841441	0.00357674551	-0.060747765	-0.04489075	0.011199926	0.0608580075	0.0894553	0.09198761	0.06722649	0.06399707	0.0345071144	-0.0216130409	-0.0243564174	-0.00569336768	0.006258966	0.025022706	-0.001837072	-0.000932533061	0	0	0	0	0	0	0.005249077	-0.0267397314	0.00995989	0.05648524	0.0201434921	-0.0530247539	-0.07942042	-0.008477954	0.06904153	0.0795081	0.06330816	0.0582642145	0.0525590777	0.0691468045	0.05973495	-0.000246015115	-0.0409944281	-0.0165770184	0.0034966222	0.00399900228	-0.004598472	0.00104047079	0	0	0	0	0	0.0007416774	0.01090996	-0.00161520066	0.0427629	0.03386039	-0.0286273435	-0.08370581	-0.05362432	0.03128157	0.08431475	0.0530770458	0.0220804866	0.0191872213	0.0428634658	0.07343418	0.06120124	0.003524469	-0.0453619771	-0.0167913474	0.0150557281	-0.0005313872	-0.0176833048	0.000684227038	0	0	0	0	0	0.0007416774	0.02134951	0.02044107	0.03879487	-0.0141716991	-0.0697831362	-0.08984983	-0.0232600439	0.060459502	0.07455553	0.0293207113	0.005488825	0.007804585	0.0401175842	0.0828317	0.059074413	-0.019959705	-0.04103481	0.0155199235	0.03070791	-0.0145215718	-0.03368994	0.000620286039	0	0	0	0	0	0.0007416774	0.03409988	0.0308650713	0.0300443042	-0.0309576523	-0.07276922	-0.0624165125	0.00692696031	0.05843187	0.04434491	0.0141288172	0.00597832445	0.0188202448	0.05963255	0.08001536	0.0301959682	-0.03315805	-0.02113238	0.0496565178	0.0403876938	-0.03513479	-0.0585642345	0.0009491266	0	0	0	0	0	0.00105988374	0.0337983631	0.0272657238	0.009844013	-0.02375586	-0.0478148423	-0.0342804529	0.008964981	0.0420902558	0.0197803546	0.0103436755	0.0235233027	0.0525897928	0.08154823	0.0707284361	0.004870251	-0.0424252227	0.0301890839	0.09085306	0.0107361656	-0.07450411	-0.06835872	0.0010404709	0	0	0	0	0	0.00190807076	0.0246905	0.008641602	0.002718085	0.008090493	-0.00279801129	-0.0044623795	0.009738407	0.0225947276	0.0252977442	0.037628904	0.06733239	0.08843014	0.08495358	0.0285911411	-0.0243148934	-0.0121038686	0.08357126	0.0879485756	-0.0406158529	-0.102061868	-0.0555521175	-0.00184071413	0	0	0	0	0	0.00108128332	0.00129295676	-0.0179250576	0.00116738433	0.04499727	0.05755545	0.0266591087	0.0183239784	0.03897701	0.0600077622	0.07697293	0.0912810862	0.08415598	0.0244920142	-0.0213235989	-0.022920182	0.0358908921	0.1087535	0.0176561046	-0.09438945	-0.10176678	-0.03741326	-0.00184071413	0	0	0	0.00261751749	0.00261751749	0.000479891634	-0.0284999963	-0.0559960157	0.00202205917	0.07884017	0.114995554	0.07350066	0.0293500237	0.0302420184	0.04749801	0.04875163	0.032354936	-0.006322015	-0.0379177742	-0.0430750176	-0.006060434	0.07851753	0.04886016	-0.06358556	-0.113267154	-0.07120566	-0.0176998433	0	0	0	0	0.00261751749	0.00261751749	0.000699309	-0.0447767042	-0.0761226639	-0.04183974	0.06583171	0.12779364	0.09358431	0.03593528	-0.0169500839	-0.0469693951	-0.06487864	-0.0808876	-0.0841400549	-0.07488374	-0.03017883	0.0450753756	0.0544515625	-0.0450003371	-0.103726745	-0.08884664	-0.0325697772	-0.0126009742	0	0	0	0	0	0	0	-0.0357331522	-0.086245	-0.0927066356	-0.009550794	0.06996105	0.0557901226	-0.003524283	-0.0587182827	-0.1013803	-0.111039825	-0.10670191	-0.07644928	-0.019934658	0.027814595	0.0317303762	-0.0272432584	-0.08906451	-0.08459763	-0.03877767	-0.0122828251	-0.00129000051	0	0.0008675932	0	0	0	0	0	-0.0184418447	-0.06028884	-0.102974147	-0.08770084	-0.0111149913	0.0355669521	0.0168257616	-0.0263043568	-0.0425046273	-0.0495146178	-0.0236037187	0.0127132721	0.02469091	0.0166966449	-0.02767596	-0.06949745	-0.0617211275	-0.032623414	-0.017632436	-0.008060489	0.0008640206	0.00015838	0.0008675937	0	0	0	0	0	-0.00483483449	-0.02161182	-0.0526228435	-0.0807857439	-0.07479018	-0.00352277188	0.0484868139	0.0645091161	0.06856456	0.0744419843	0.0620064959	0.0512981936	0.017268965	-0.0178011023	-0.04692497	-0.0372733	-0.0228366647	-0.01312988	-0.009849289	-0.00100333919	0.0008640205	0	0	0	0	0	0	0	-0.00208330364	-0.005006348	-0.009860746	-0.0132574858	-0.01702492	-0.0107488511	0.0190799441	0.0466661379	0.0645073	0.06227935	0.03783053	0.0196112879	0.002542348	-0.01080742	-0.0123415384	-0.00927029	-0.002072193	-0.00184071413	0	0	0	0	0	0	0	0	0	0	0	0	0	0	0	0	0.00194461492	0.00194461492	0.003001828	0.003001828	0.003001828	0.003001828	0.003001828	0	0	0	0	0	0	0	0	0	0	0	0	0	0	0	0	0	0	0	0	0	0	0	0	0	0	0	0	0	0	0	0	0	0	0	0	0	0	0	0	0	0	0	0	0	0	0	0	0	0	0	0	0	0	0	0	0	0	0	0	0	0	0	0	0	0	0
